405 10
U->U 2.293608 3.573131 -2.696685 1.111826 2.552449 0.246036 6.000026 4.087179 0.050717 3.800524
U->U,U->U 2.947101 0.212415 5.657391 4.980276 4.291790 5.484204 5.947371 0.646996 4.669357 2.357711
U->U,U->U,U->U 0.086088 0.087083 0.037595 0.018421 0.008757 0.015787 0.076251 0.035106 0.044137 0.041252
U->U,U->U,U->U,U->U 0.334186 0.143346 -0.000038 1.416529 0.496537 1.085526 4.060986 0.000593 0.049393 0.009348
U->U,U->U,U->U,U->U,U->U 1.153510 0.026860 5.510936 3.629231 3.185377 1.085480 5.322409 1.089594 4.258735 -0.003518
U-R -0.243633 0.000541 -3.366648 0.000176 0.000628 0.000100 -2.931718 -0.420635 0.001874 0.000068
U->U,U-R 0.000671 0.492523 -2.193399 -0.042657 0.000043 0.000075 -2.596430 -0.441853 -0.850755 0.245647
R-U 0.001028 0.382951 -1.986672 -0.159843 -0.621642 0.000022 -2.429858 -0.321144 -1.062668 0.174102
U->U,U->U,U-R 0.062725 0.030371 0.007564 0.024908 0.020598 0.086495 0.077406 0.034297 0.059578 0.071075
R->R -0.020938 0.237347 -1.265808 -0.222570 -0.284725 0.000042 -1.770799 -0.169877 -0.502020 0.141088
U->U,U->U,U->U,U-R -0.026863 0.004934 -1.406525 0.048031 0.000394 0.000639 -0.775343 -0.006748 0.007598 0.021318
R-U,U-R 0.019198 0.126809 -0.706736 0.000004 -0.122415 0.000091 -1.031046 -0.050013 -0.259078 0.032373
U->U,U->U,U->U,U->U,U-R 0.104176 0.165886 -0.867096 0.000283 0.053581 0.000097 -1.335880 -0.070794 -0.062662 0.166293
U-R,U->U 0.000693 0.037226 -0.256260 0.071964 0.013067 0.000449 -0.343054 0.082600 0.056964 0.048109
U->U,U-R,U->U 0.041559 0.000857 0.018033 0.075948 0.066945 0.080173 0.025303 0.026244 0.090781 0.059369
R-U,U->U 0.016384 0.127118 -0.263081 0.009875 -0.010610 0.000006 -0.663475 -0.000069 0.000078 0.024128
U-R,U->U,U->U 0.040379 0.081849 0.099406 0.065142 0.043616 0.078969 0.042011 0.056199 0.000737 0.061289
U-R,R-U 0.120797 0.022537 -0.378759 0.034962 0.024617 0.000425 -0.377722 0.000380 0.002256 0.027643
U->U,U-R,U->U,U->U 0.016026 0.084419 0.064365 0.056443 0.015746 0.030577 0.039822 0.086838 0.075591 0.034110
U->U,R-U 0.110466 0.056000 -0.241700 0.001335 0.055975 0.000273 -0.183972 0.000196 -0.050163 0.006066
R->R,R->R 0.067119 0.037115 -0.094596 0.026175 0.014832 0.000164 -0.475035 -0.024187 0.003045 0.064637
U->U,U->U,R-U 0.071972 0.080504 0.063066 0.028761 0.000894 0.024331 0.014909 0.069823 0.047960 0.053561
U-R,R-U,U-R 0.086354 0.013815 0.019632 0.019966 0.048753 0.044140 0.064123 0.033917 0.039178 0.098034
U-R,U->U,U-R 0.012901 0.061518 0.082422 0.031164 0.045719 0.032977 0.026885 0.062158 0.030679 0.011110
U-R,R->R 0.046386 0.082388 -0.298920 0.000224 0.077536 -0.000059 -0.437684 0.045089 -0.049809 0.059019
U->U,U-R,R-U 0.056398 0.073210 0.061485 0.087941 0.052032 0.062531 0.060357 0.060047 0.061126 0.086424
R-U,U->U,U->U 0.073997 0.003828 0.015176 0.072379 0.004633 0.059656 0.046658 0.014156 0.016363 0.031074
U->U,U-R,U->U,U-R 0.041972 0.087968 0.025670 0.046620 0.024911 0.012533 0.046629 0.086688 0.001331 0.097252
U->U,U-R,R->R 0.059860 0.032290 0.000073 0.082358 0.021264 0.069973 0.020060 0.092846 0.026129 0.039731
U-R,R-U,U->U 0.083835 0.030726 0.072040 0.061964 0.039877 0.085147 0.092051 0.013853 0.027838 0.098163
U->U,R->R 0.056543 0.064743 -0.078828 0.000987 -0.001388 -0.000098 -0.240116 0.082119 -0.026958 0.014731
U->U,U->U,U-R,U->U 0.029382 0.083235 0.044703 0.037224 0.064138 0.003051 0.032289 0.068881 0.030254 0.049389
R-U,U->U,U->U,U->U 0.093009 0.057376 0.065194 0.062705 0.002101 0.067804 0.020955 0.024508 0.001926 0.021388
R->R,U->U 0.049494 0.070825 -0.020808 0.026416 0.005078 0.000179 -0.188310 0.016832 -0.011019 0.058315
U->U,U-R,R-U,U->U 0.054780 0.048535 0.070004 0.028599 0.045654 0.084731 0.091459 0.025183 0.013325 0.017980
R-U,U-R,R-U 0.074525 0.073246 0.078711 0.049186 0.026107 0.094159 0.056729 0.030074 0.067631 0.087233
U->U,U->U,U->U,U-R,U->U 0.026624 0.047528 0.058962 0.042398 0.078879 0.072847 0.018060 0.008253 0.072236 0.025306
U-R,U->U,U->U,U->U 0.030727 0.038713 -0.258008 0.026801 0.069768 0.001167 -0.218238 0.000858 0.068382 0.001207
R-U,U-R,R-U,U-R 0.028159 0.030976 0.009587 0.047738 0.066928 0.074834 0.076819 0.092800 0.031157 0.096631
R-U,R-U 0.079885 0.106946 0.025783 0.063389 -0.003217 0.104661 -0.125735 0.000227 0.005812 0.113128
R-U,U->U,U->U,U->U,U->U 0.046100 0.034193 -0.033108 0.011751 0.009957 0.000601 -0.283980 -0.001108 0.021206 0.025005
R-U,U-R,U->U 0.066885 0.034549 0.063158 0.024626 0.100006 0.090082 0.032228 0.094133 0.041329 0.048625
U->U,U-R,U->U,U->U,U->U 0.001662 0.029354 0.088584 0.048278 0.025969 0.016584 0.076413 0.097327 0.029502 0.003444
U->U,U->U,U-R,R-U 0.018319 0.048110 0.078790 0.093585 0.034926 0.095812 0.074699 0.035816 0.086751 0.008110
U-R,R-U,U->U,U->U 0.087324 0.037523 0.067892 0.083391 0.006913 0.047857 0.034751 0.072033 0.095853 0.071009
U->U,U-R,R-U,U-R 0.043309 0.033411 0.014272 0.027863 0.093895 0.007125 0.070347 0.025482 0.018641 0.062783
U->U,U-R,R-U,U->U,U->U 0.026952 0.031882 0.054614 0.052854 0.030510 0.058998 0.082330 0.032251 0.084023 0.017976
U->U,U->U,U-R,U->U,U->U 0.027703 0.019373 0.067298 0.048533 0.050529 0.026826 0.076762 0.028232 0.096590 0.032298
R->R,U->U,U->U 0.035321 0.077668 0.087756 0.098368 0.066068 0.010817 0.038783 0.062902 0.012494 0.025749
U->U,U->U,U->U,U-R,R-U 0.042978 0.016302 0.018979 0.009297 0.046256 0.089575 0.022151 0.019088 0.059613 0.052087
U-R,U->U,U-R,U->U 0.025874 0.055419 0.047559 0.068747 0.075055 0.014299 0.029621 0.066849 0.029265 0.052058
R-U,U-R,U->U,U->U 0.005382 0.000463 0.058849 0.051832 0.033913 0.052657 0.070047 0.080050 0.073469 0.091264
R->R,R-U 0.024898 0.091352 0.006322 0.023988 0.025288 0.003786 -0.091407 0.078923 -0.017616 0.014051
U-R,R-U,U->U,U->U,U->U 0.012229 0.069234 0.067191 0.088713 0.023808 0.058440 0.093744 0.000766 0.068443 0.050092
U->U,U-R,U->U,U-R,U->U 0.018283 0.061982 0.041272 0.082996 0.079632 0.085634 0.096932 0.042208 0.004148 0.002374
U->U,U->U,U-R,R-U,U->U 0.099585 0.095009 0.083388 0.047306 0.038872 0.026094 0.060820 0.070200 0.010377 0.086632
U-R,U->U,U->U,U->U,U->U 0.070323 0.044894 0.025408 0.075642 0.075317 0.020938 0.051212 0.061055 0.029380 0.037214
R-U,U->U,U->U,U-R 0.092280 0.065809 0.056448 0.055375 0.084265 0.045291 0.043590 0.056365 0.020511 0.033448
U->U,R-U,U-R 0.041244 0.086128 -0.002036 0.090997 0.062797 0.040265 -0.030916 0.056200 0.013125 0.083513
U-R,U->U,U->U,R-U 0.028087 0.074344 0.016483 0.056510 0.097285 0.087212 0.044624 0.053589 0.055986 0.076150
U-R,R-U,U-R,R-U 0.076681 0.096585 0.028966 0.016651 0.024569 0.031363 0.036499 0.069186 0.045934 0.031793
U->U,U->U,R-U,U-R 0.097975 0.042559 0.037221 0.052799 0.081728 0.039566 0.090633 0.055392 0.013491 0.095292
U->U,U->U,U-R,R->R 0.057870 0.057968 0.073453 0.096236 0.061241 0.093994 0.006451 0.022540 0.085951 0.025636
U-R,U->U,U->U,U->U,U-R 0.071769 0.053980 0.090824 0.079118 0.026751 0.009612 0.010844 0.088980 0.052574 0.050151
U-R,R-U,U-R,R-U,U-R 0.040481 0.089224 0.002980 0.030094 0.008431 0.056292 0.050069 0.089002 0.059411 0.047952
U->U,U-R,U->U,U->U,R-U 0.012502 0.006719 0.043644 0.024942 0.006937 0.079599 0.001899 0.047799 0.099183 0.043630
R->R,U->U,U-R 0.045351 0.025886 0.071649 0.028542 0.052627 0.005651 0.066943 0.019141 0.018541 0.037580
U->U,U->U,R->R 0.063671 0.042795 0.076925 0.074330 0.088259 0.036157 0.081175 0.098402 0.028084 0.072364
U->U,U->U,U->U,U-R,R->R 0.046690 0.033994 0.016566 0.037649 0.074394 0.060023 0.081549 0.085975 0.071285 0.077425
U->U,U->U,U-R,U->U,U-R 0.073510 0.056862 0.081235 0.076280 0.019554 0.080485 0.043762 0.011941 0.049698 0.034211
U-R,U->U,U-R,U->U,U-R 0.049587 0.026736 0.058434 0.043474 0.088684 0.002519 0.089687 0.042100 0.056335 0.067850
R->R,R->R,R->R 0.084629 0.061446 0.033716 0.055300 0.069520 0.089020 -0.054733 0.010720 0.077232 0.095748
U->U,R->R,U->U 0.038652 0.091519 0.044802 0.001680 0.018719 0.069651 0.075902 0.005980 0.091333 0.082933
U->U,R-U,U->U 0.057024 0.053468 0.031645 0.088311 0.015943 0.019125 0.030834 0.038264 0.083793 0.064705
R->R,R-U,U-R 0.010102 0.005278 0.044780 0.055846 0.017372 0.089622 0.011753 0.053918 0.068858 0.004766
U->U,U->U,U->U,R-U 0.030645 0.070406 -0.106912 0.082292 0.015325 -0.000334 -0.217246 0.064937 0.043655 0.076566
R-U,U-R,R-U,U-R,R-U 0.094558 0.089501 0.061291 0.019616 0.008548 0.026228 0.036447 0.064909 0.004478 0.034077
U-R,U-R 0.043827 0.009967 0.081344 0.005343 0.041411 0.032789 0.009371 0.086615 0.037107 0.023864
R->R,U->U,U->U,U->U 0.060264 0.047220 0.015631 0.022306 0.053135 0.008365 -0.117012 -0.000048 0.056643 0.084539
U->U,U->U,U->U,U->U,R-U 0.029824 0.065423 0.043576 0.017232 0.074262 0.032366 0.069607 0.030762 0.014498 0.061176
U->U,U->U,R-U,U->U 0.080032 0.053462 0.018373 0.017997 0.094139 0.038195 0.016234 0.005257 0.012494 0.074829
U-R,R->R,R->R 0.080230 0.004809 -0.013731 -0.002717 0.030306 0.061358 -0.051852 0.057132 0.010234 0.050159
U-R,U->U,U-R,U->U,U->U 0.035261 0.067632 0.007896 0.069816 0.008529 0.089702 0.045277 0.007861 0.090441 0.051090
U->U,U->U,U-R,R-U,U-R 0.094982 0.050268 0.000418 0.056055 0.041289 0.052101 0.053294 0.094168 0.020068 0.080477
U->U,R-U,U-R,U->U 0.091848 0.073368 0.095750 0.090580 0.074763 0.017791 0.011070 0.074364 0.081475 0.088290
R->R,R-U,U->U 0.053544 0.029614 0.049167 0.052812 0.088161 0.075336 0.042209 0.050069 0.094590 0.053464
R-U,U-R,U->U,U-R 0.094567 0.045277 0.083806 0.003361 0.080161 0.078195 0.014114 0.064368 0.030444 0.067109
U-R,R-U,U->U,U->U,U-R 0.060727 0.015793 0.023803 0.067353 0.050863 0.039017 0.064520 0.034753 0.011064 0.024798
U->U,R->R,U->U,U->U 0.045823 0.095423 0.005615 0.008187 0.072426 0.020627 0.085799 0.006434 0.015101 0.086912
U->U,U-R,R->R,R->R 0.036124 0.028254 0.092863 0.097286 0.043945 0.016823 0.021562 0.021256 0.042152 0.050993
R->R,U->U,U->U,U->U,U->U 0.089214 0.090526 0.052552 0.026365 0.047966 0.029960 0.038681 0.088412 0.066761 0.001044
R->R,R->R,R-U 0.023067 0.090890 0.016669 0.017904 0.093501 0.047764 -0.050859 0.078597 0.059417 0.018686
U->U,U-R,U-R 0.029683 0.071438 0.008816 0.049295 0.026924 0.059480 -0.025085 0.074740 0.054148 0.044069
R->R,R->R,U->U 0.047084 0.048495 0.026005 0.022600 0.009208 0.023954 0.045132 0.010952 0.052713 0.026680
U->U,U->U,R-U,U-R,U->U 0.093330 0.044647 0.027519 0.004193 0.023515 0.063481 0.032512 0.064686 0.011945 0.069052
U->U,R->R,U->U,U-R 0.074580 0.060037 0.033064 0.080179 0.034104 0.012681 0.062264 0.065649 0.015053 0.094237
U->U,R->R,R->R 0.059485 0.056737 0.062511 0.045148 0.008396 0.004958 0.035611 0.059397 0.054408 0.069052
U->U,U->U,R->R,R->R 0.038680 0.070533 0.099168 0.032735 0.076141 0.069131 0.099455 0.083827 0.030486 0.006632
R-U,U->U,R-U 0.038252 0.002831 0.009989 0.054509 0.022363 0.048838 0.043439 0.064051 0.043137 0.066600
U-R,R-U,U-R,U->U 0.006276 0.089208 0.086215 0.085191 0.090539 0.063576 0.028580 0.044727 0.023182 0.047735
U->U,R-U,U-R,U->U,U->U 0.012190 0.027395 0.080403 0.009015 0.095696 0.049616 0.043216 0.095768 0.080185 0.040843
U-R,U->U,U->U,R-U,U-R 0.092480 0.018790 0.069285 0.094851 0.008038 0.050264 0.026565 0.006453 0.080768 0.034050
R-U,U-R,R-U,U->U 0.098059 0.046376 0.052205 0.047452 0.072985 0.057387 0.065633 0.062829 0.005289 0.044391
R-U,U-R,U->U,U->U,U->U 0.051160 0.019195 0.025590 0.010329 0.014416 0.020241 0.018758 0.001829 0.071530 0.023669
U-R,U-R,U->U 0.041486 0.085759 0.014385 0.088124 0.026593 0.071012 0.094936 0.045736 0.085281 0.006645
R->R,R->R,U->U,U->U 0.008161 0.051654 0.096986 0.003298 0.090358 0.047009 0.077386 0.016748 0.074146 0.049156
U->U,U->U,R->R,U->U 0.077454 0.048517 0.038668 0.095035 0.040049 0.038723 0.029051 0.079922 0.058728 0.077504
R-U,R->R 0.033543 0.073853 0.074558 0.008060 0.031849 0.087271 -0.008013 0.010629 0.088327 0.039737
U->U,U-R,R-U,U-R,R-U 0.045215 0.088815 0.096380 0.011998 0.038240 0.095629 0.071468 0.002917 0.027027 0.071899
R-U,U-R,R->R 0.031452 0.097213 0.019044 0.028273 0.016211 0.084031 0.016106 0.086247 0.042516 0.063636
U-R,R-U,U-R,U->U,U->U 0.063525 0.042327 0.025779 0.027336 0.008862 0.033731 0.010903 0.038298 0.006759 0.099648
U-R,R->R,R-U 0.028530 0.049781 -0.009884 0.024077 0.029651 0.015753 0.015632 -0.012918 0.037128 0.047014
U->U,U->U,U->U,R->R 0.011911 0.005332 0.011666 0.041948 0.065180 0.022896 -0.031026 0.051462 0.048395 0.004918
U-R,U->U,R-U 0.098786 0.009959 0.033674 0.097152 0.017391 0.023433 0.056179 0.046159 0.097201 0.050738
R->R,R->R,R-U,U-R 0.020228 0.092545 0.015171 0.086050 0.073668 0.085926 0.040996 0.002342 0.059588 0.027204
U->U,U-R,U-R,U->U 0.005911 0.107834 -0.069856 0.089006 0.017036 -0.000599 -0.221754 0.019355 0.000369 0.080568
R->R,U->U,U->U,U->U,U-R 0.052329 0.039573 0.082841 0.049963 0.005553 0.098769 0.098388 0.096228 0.091790 0.004202
U-R,U->U,U-R,U-R 0.014795 0.037821 0.098977 0.089411 0.053830 0.064121 0.055110 0.066710 0.090032 0.094313
R-U,U-R,U->U,U->U,R-U 0.064150 0.090468 0.065908 0.088310 0.093315 0.000701 0.007722 0.068114 0.048128 0.014907
R-U,U->U,U->U,U-R,R-U 0.098152 0.034996 0.088456 0.058151 0.077979 0.019396 0.084186 0.002662 0.006891 0.091114
R->R,U-R 0.051480 0.066576 0.067164 0.076369 0.093192 0.064700 0.016775 0.081520 0.029675 0.048072
U->U,R->R,U->U,U->U,U->U 0.053365 0.080994 0.018460 0.014675 0.041281 0.030661 0.046404 0.056526 0.014890 0.015952
U->U,U-R,U->U,R-U 0.020657 0.027004 0.023037 0.082989 0.074974 0.071385 0.006484 0.078281 0.067926 0.009819
U->U,U-R,R-U,U-R,U->U 0.085018 0.036888 0.021925 0.036782 0.023448 0.037333 0.088867 0.064612 0.087827 0.091590
U-R,R->R,U->U 0.000449 0.029489 0.044465 0.037275 0.050489 0.054615 0.091536 0.067478 0.067603 0.042631
U->U,U->U,U->U,U->U,R->R 0.014302 0.072487 0.049734 0.086931 0.098770 0.033571 0.030675 0.043682 0.079725 0.079172
U->U,U->U,R-U,U-R,R-U 0.059599 0.096925 0.054989 0.016961 0.057552 0.050014 0.051131 0.030261 0.002880 0.085827
U->U,R-U,U-R,R-U 0.060035 0.084703 0.014114 0.084818 0.066633 0.058168 0.038567 0.026230 0.019499 0.012941
U->U,R-U,U-R,U->U,U-R 0.052667 0.042184 0.049723 0.019917 0.074631 0.003997 0.038451 0.026795 0.010357 0.085503
U-R,R->R,R->R,R->R 0.099378 0.096721 0.062258 0.071786 0.077313 0.093997 0.071972 0.089312 0.044515 0.053668
U->U,R-U,U-R,R-U,U-R 0.066312 0.073911 0.000329 0.070009 0.057172 0.021744 0.067147 0.070957 0.042681 0.060677
R->R,R->R,R->R,R->R 0.064098 0.070678 0.023440 0.026959 0.069255 0.042483 0.048872 0.021236 0.090169 0.025369
U->U,U-R,U->U,U-R,U-R 0.085689 0.029323 0.033402 0.069453 0.090960 0.050209 0.027695 0.000464 0.045489 0.086878
U->U,U->U,U->U,R-U,U->U 0.065526 0.019206 0.051953 0.017130 0.030666 0.080307 0.032532 0.034060 0.045544 0.004279
U-R,R->R,R-U,U-R 0.016017 0.088774 0.055716 0.039261 0.084743 0.073854 0.000425 0.024392 0.062072 0.050014
R->R,R->R,R-U,U->U 0.024777 0.014981 0.048843 0.059188 0.016659 0.020668 0.026921 0.046043 0.030798 0.092623
U-R,R->R,U->U,U->U 0.072532 0.071941 0.049520 0.020759 0.020514 0.026140 0.010166 0.050534 0.022116 0.054224
R-U,U->U,U->U,U-R,U->U 0.093472 0.037291 0.094385 0.034296 0.024792 0.012576 0.029476 0.004314 0.020800 0.027518
U->U,R-U,U->U,U->U 0.058423 0.090139 0.025576 0.068540 0.050906 0.017355 0.062594 0.056531 0.020585 0.032445
R->R,R->R,U->U,U-R 0.017746 0.060756 0.045900 0.032757 0.058755 0.021769 0.081634 0.053450 0.049142 0.026122
U-R,U-R,U->U,U-R 0.024924 0.034503 0.013429 0.062569 0.041003 0.096607 0.045582 0.090561 0.063316 0.091154
R->R,R->R,R->R,R-U 0.020272 0.031704 0.044972 0.091828 0.058771 0.047155 0.027608 0.099895 0.026450 0.030806
U-R,U->U,R->R 0.042993 0.003034 0.060653 0.062753 0.091134 0.055594 0.069336 0.061624 0.088663 0.072850
U->U,U-R,R->R,R-U 0.036247 0.035830 0.060409 0.092828 0.008430 0.040244 0.078364 0.049982 0.018885 0.092981
U-R,U->U,R-U,U-R 0.020734 0.042425 0.085028 0.093027 0.077159 0.074519 0.029675 0.040988 0.024545 0.082830
U->U,U->U,R->R,U->U,U-R 0.063221 0.095578 0.075824 0.048803 0.064802 0.041520 0.010332 0.063966 0.048251 0.000054
U->U,U-R,R->R,U->U 0.039670 0.010506 0.002514 0.013785 0.050882 0.001929 0.021566 0.083343 0.055949 0.083090
U->U,R-U,U->U,U->U,U-R 0.073063 0.081997 0.067870 0.042991 0.082712 0.073288 0.028063 0.037217 0.016336 0.087032
R->R,R-U,U->U,U->U 0.078016 0.033400 0.074801 0.038213 0.018632 0.005640 0.065442 0.030675 0.038283 0.094367
U->U,R->R,R->R,U->U 0.009756 0.012837 0.015753 0.001327 0.028776 0.006203 -0.029933 0.049063 -0.002981 0.100812
U->U,U->U,U->U,R-U,U-R 0.072934 0.018377 0.055891 0.001619 0.060692 0.093837 0.011992 0.039837 0.022259 0.078335
U->U,U->U,R->R,U->U,U->U 0.028935 0.099475 0.066642 0.024910 0.016406 0.086584 0.042114 0.018640 0.070468 0.039672
U->U,U-R,R->R,R->R,R->R 0.057185 0.081968 0.086883 0.016769 0.085477 0.033290 0.075692 0.007983 0.018967 0.013948
U->U,U->U,U-R,R->R,R->R 0.091872 0.043997 0.079363 0.084130 0.035665 0.064069 0.018733 0.018160 0.091152 0.087965
U-R,U->U,U-R,U-R,U->U 0.013954 0.036362 0.088567 0.061692 0.039854 0.023917 0.030981 0.083253 0.058295 0.031262
R->R,U->U,U-R,U->U 0.057634 0.011457 0.031348 0.054044 0.035966 0.087905 0.067228 0.075461 0.086570 0.056580
U->U,U->U,R->R,R->R,U->U 0.005858 0.015648 0.029918 0.071312 0.034154 0.098934 0.057730 0.061128 0.071023 0.066836
U->U,U-R,U->U,R-U,U-R 0.073552 0.033287 0.043556 0.078652 0.097406 0.073931 0.082112 0.013514 0.061175 0.017089
U-R,U->U,U-R,R->R 0.017669 0.096160 0.045462 0.038862 0.002599 0.046073 0.005795 0.001691 0.006069 0.069521
R->R,R->R,U->U,U->U,U->U 0.058525 0.057832 0.079642 0.091229 0.008785 0.002931 0.096180 0.087923 0.081380 0.052338
U-R,R-U,U-R,R-U,U->U 0.071403 0.033043 0.008534 0.050122 0.077320 0.072783 0.076682 0.007827 0.007192 0.069516
R-U,R-U,U-R 0.081381 0.074601 0.046264 0.008772 0.060589 0.066175 0.074607 0.072842 0.049017 0.029942
U-R,U-R,U->U,U->U 0.023382 0.027411 0.009768 0.020161 0.079112 0.056543 0.077847 0.010486 0.071922 0.078684
R-U,U-R,R-U,U-R,U->U 0.057092 0.062366 0.041935 0.019574 0.068280 0.022992 0.004377 0.008291 0.052682 0.056394
U->U,U-R,U-R,U->U,U-R 0.062402 0.095786 -0.000973 0.027541 0.089626 0.010019 -0.101054 0.003197 0.094805 0.032564
U-R,R-U,U-R,U->U,U-R 0.039399 0.016185 0.065484 0.059422 0.063854 0.030397 0.078272 0.034877 0.033994 0.028698
U->U,U-R,U-R,U->U,U->U 0.097872 0.072591 0.046536 0.074129 0.083386 0.027420 -0.082648 0.053889 0.082383 0.049296
R-U,R->R,U->U 0.020883 0.062298 0.047845 0.047091 0.010442 0.073087 0.015888 0.056967 0.018835 0.089488
U->U,U-R,R->R,U->U,U->U 0.032871 0.053476 0.059869 0.093718 0.088646 0.042973 0.007748 0.039191 0.054795 0.056215
U->U,R->R,U-R 0.040293 0.067486 0.016354 0.047303 0.035845 0.061016 0.093892 0.010865 0.004065 0.081461
R-U,U-R,R-U,U->U,U->U 0.038629 0.023054 0.093744 0.079848 0.069197 0.094856 0.097522 0.010417 0.067978 0.015610
U-R,U-R,U->U,U-R,U->U 0.057794 0.087979 0.073298 0.056287 0.029649 0.039580 0.053330 0.029751 0.018111 0.047369
U->U,U-R,U->U,U-R,R->R 0.062241 0.099952 0.067709 0.043178 0.095613 0.012102 0.067388 0.005694 0.031410 0.013554
U-R,U->U,U->U,R-U,U->U 0.082709 0.029295 0.053818 0.042650 0.058352 0.053079 0.068604 0.072079 0.056050 0.087047
U->U,U-R,U->U,R->R 0.094041 0.023809 0.033707 0.049115 0.038079 0.079825 0.031694 0.079733 0.036996 0.040350
U-R,U->U,U-R,U->U,R-U 0.082975 0.042377 0.052737 0.036206 0.072772 0.086621 0.097063 0.046682 0.055955 0.096383
U-R,U->U,R-U,U-R,U->U 0.044843 0.021666 0.030221 0.091404 0.025133 0.091970 0.077191 0.036007 0.004891 0.088514
R-U,U-R,U->U,U-R,U->U 0.033711 0.034315 0.036221 0.062900 0.088961 0.081753 0.053260 0.063076 0.092945 0.023439
R->R,U->U,U->U,R-U 0.056038 0.024374 0.020607 0.079196 0.055484 0.059909 0.025126 0.083899 0.072291 0.083415
U-R,U->U,U-R,R-U 0.022859 0.055066 0.005022 0.029617 0.043765 0.097610 0.042632 0.066682 0.043175 0.082881
U->U,U-R,R-U,U->U,R-U 0.037532 0.035289 0.004644 0.064995 0.033157 0.084383 0.082548 0.014533 0.097023 0.021436
U-R,R-U,U->U,R-U 0.027253 0.041368 0.076933 0.080338 0.016175 0.052593 0.037376 0.023778 0.095518 0.061560
R-U,U-R,U-R 0.051794 0.054541 0.071664 0.054527 0.060172 0.084195 0.084746 0.085322 0.013643 0.022553
U-R,R->R,R-U,U->U 0.094717 0.017257 0.091527 0.081764 0.018635 0.017673 0.058240 0.022515 0.015990 0.035384
R-U,U-R,R->R,R->R 0.019125 0.085364 0.056296 0.064468 0.051840 0.016661 0.056109 0.041938 0.086670 0.049525
U->U,U->U,U-R,U-R 0.065748 0.090903 0.060231 0.016219 0.000026 0.008112 0.015726 0.068575 0.071937 0.053815
U-R,U->U,R-U,U->U 0.052351 0.028715 0.022875 0.035809 0.054601 0.005578 0.025468 0.097977 0.002560 0.091964
U->U,U->U,U->U,R->R,R->R 0.025151 0.000543 0.083423 0.034827 0.083673 0.016868 -0.001868 0.001409 0.057323 0.016612
U->U,U-R,R->R,R-U,U-R 0.039300 0.024191 0.003787 0.094871 0.097432 0.082043 0.097838 0.082089 0.033112 0.070904
U->U,R->R,R->R,U->U,U-R 0.070021 0.024874 0.068338 0.074671 0.057200 0.051651 0.031263 0.099668 0.008630 0.061485
U-R,U-R,U-R 0.086080 0.058025 0.065380 0.026632 0.095349 0.016559 0.011133 0.090883 0.039737 0.068627
U->U,U-R,U->U,U-R,R-U 0.010703 0.057234 0.012320 0.044993 0.074751 0.054827 0.074520 0.089916 0.040305 0.040420
U-R,U->U,U-R,R-U,U->U 0.054002 0.094945 0.014128 0.083542 0.016971 0.019467 0.004204 0.072315 0.057380 0.091683
U-R,R-U,U-R,R->R 0.006890 0.086255 0.075624 0.047170 0.073891 0.075070 0.087866 0.001474 0.010995 0.047383
U-R,R->R,R->R,R->R,R->R 0.067838 0.019560 0.053138 0.064421 0.043071 0.074833 0.071784 0.097501 0.092498 0.096738
R->R,R-U,U-R,R-U 0.002353 0.085302 0.012453 0.009873 0.006899 0.066414 0.009925 0.078748 0.054100 0.026947
R-U,U-R,R->R,R-U 0.046290 0.002440 0.041108 0.006592 0.037745 0.005467 0.066138 0.036351 0.044990 0.076080
U-R,R->R,R->R,R-U 0.048223 0.094292 0.041165 0.042142 0.026740 0.011797 -0.020682 0.054926 0.074407 0.044751
R->R,U->U,U-R,U->U,U->U 0.023236 0.047600 0.060298 0.056965 0.017341 0.039501 0.025813 0.035715 0.072935 0.016436
U->U,U-R,U->U,R-U,U->U 0.079161 0.055916 0.000978 0.000310 0.026392 0.048440 0.073886 0.075542 0.099784 0.032296
U-R,U->U,R-U,U->U,U->U 0.089957 0.064433 0.061389 0.090633 0.063815 0.082495 0.004087 0.063406 0.080532 0.027293
R->R,R-U,U->U,U->U,U->U 0.061865 0.070655 0.054042 0.036813 0.086538 0.034358 0.023335 0.046132 0.040913 0.032046
U-R,U->U,U->U,R->R 0.036350 0.043724 0.064431 0.054414 0.057240 0.084562 -0.004528 0.001900 0.017356 0.080784
R->R,R->R,R->R,R-U,U-R 0.052197 0.064386 0.029098 0.033811 0.059427 0.094597 0.071475 0.069100 0.011942 0.040846
R->R,U->U,U-R,R-U 0.043487 0.096743 0.008439 0.079414 0.046869 0.084808 0.090194 0.018173 0.097553 0.020506
R->R,R-U,U->U,R-U 0.030996 0.067704 0.007982 0.005712 0.094120 0.067845 0.058910 0.085026 0.054891 0.020015
R->R,R-U,U->U,U->U,U-R 0.035172 0.006762 0.081835 0.070017 0.032199 0.081218 0.068539 0.015782 0.067897 0.037230
U-R,R->R,R-U,U->U,U->U 0.088331 0.018409 0.038660 0.070818 0.072003 0.076778 0.067384 0.054180 0.002445 0.009020
U-R,U-R,U->U,U->U,U->U 0.064708 0.002019 0.044204 0.068612 0.083081 0.049598 0.012170 0.048102 0.047836 0.043454
U->U,R->R,U->U,U-R,U->U 0.091209 0.031137 0.002442 0.049213 0.087683 0.041127 0.093665 0.099681 0.040188 0.020645
U->U,U->U,U->U,U-R,U-R 0.011440 0.076587 0.043147 0.000592 0.016018 0.077226 0.009699 0.020976 0.043763 0.092405
U->U,U->U,U->U,R->R,U->U 0.002239 0.037308 0.048847 0.033607 0.016238 0.033981 0.094719 0.062634 0.044858 0.064890
U->U,U-R,R->R,R-U,U->U 0.018462 0.072504 0.079375 0.029551 0.003858 0.093720 0.031041 0.023459 0.035706 0.082205
R->R,R-U,U-R,R->R 0.062984 0.028016 0.015347 0.054962 0.075940 0.058583 0.094762 0.006184 0.059262 0.014453
U->U,U-R,U->U,U->U,R->R 0.096957 0.054566 0.040374 0.015372 0.034873 0.051655 0.052959 0.085150 0.060849 0.000274
U->U,U->U,R->R,R->R,R->R 0.037588 0.057869 0.035671 0.094018 0.055698 0.010382 0.087150 0.065396 0.022376 0.031730
U->U,R->R,R->R,R->R 0.031981 0.017571 0.027254 0.053508 0.069681 0.061870 -0.014614 0.079419 0.030717 0.066625
U->U,U-R,U-R,U-R 0.051115 0.082848 0.056089 0.049940 0.089355 0.051678 0.047925 0.082104 0.063734 0.091671
U-R,U-R,U-R,U->U 0.063559 0.059643 0.015996 0.029834 0.042121 0.027008 -0.004760 0.068077 0.080899 0.047235
U->U,U-R,R-U,U-R,R->R 0.068032 0.043110 0.079364 0.066052 0.073397 0.048739 0.008327 0.056848 0.064311 0.039172
R->R,R-U,U-R,R-U,U-R 0.019329 0.008155 0.031587 0.025851 0.046674 0.008884 0.009690 0.082794 0.072039 0.053723
R-U,U-R,R->R,R-U,U-R 0.046080 0.017725 0.087741 0.056807 0.036472 0.044503 0.011007 0.059450 0.019141 0.016790
U-R,R->R,U->U,U-R 0.078735 0.000344 0.091684 0.011045 0.048149 0.003566 0.082847 0.046764 0.004616 0.079593
U->U,U->U,U-R,R->R,R-U 0.073330 0.003100 0.045715 0.009393 0.063645 0.028351 0.013893 0.055109 0.029419 0.045406
U->U,U->U,U-R,U->U,R->R 0.052970 0.003981 0.063365 0.003976 0.010363 0.019573 0.098873 0.060924 0.030137 0.064173
R-U,R->R,U->U,U-R 0.046530 0.019944 0.045940 0.075612 0.091180 0.081385 0.061744 0.044970 0.097602 0.076407
U->U,U-R,U->U,U->U,U-R 0.075683 0.088402 0.058169 0.019266 0.070544 0.094765 0.023819 0.033857 0.083518 0.072353
U-R,U->U,U->U,U-R 0.081251 0.025643 -0.104641 0.021173 0.006935 -0.000371 -0.012267 0.092017 0.082367 0.042541
R-U,R->R,U->U,U->U 0.096194 0.016891 0.090974 0.018942 0.019150 0.002865 0.071939 0.097511 0.074068 0.022239
U->U,R->R,R->R,U->U,U->U 0.098919 0.036003 0.018467 0.076231 0.087885 0.034266 0.049632 0.069573 0.056453 0.088789
R->R,U->U,U->U,R->R 0.078300 0.062466 0.004424 0.013392 0.073516 0.072062 0.037274 0.071266 0.074242 0.072754
R->R,U->U,U->U,R->R,U->U 0.086150 0.081325 0.052363 0.009574 0.082965 0.085360 0.076026 0.060917 0.054600 0.049531
R->R,R->R,R->R,R->R,R->R 0.060231 0.008743 0.066143 0.007223 0.073868 0.065271 0.071222 0.020371 0.096893 0.018383
U-R,R->R,R->R,R->R,R-U 0.014839 0.005509 0.077784 0.067953 0.030556 0.059274 0.054780 0.077343 0.092528 0.052355
R->R,R->R,R->R,R-U,U->U 0.038348 0.045710 0.081460 0.043386 0.042392 0.079957 0.047502 0.030017 0.066542 0.090378
R->R,R->R,R-U,U->U,U->U 0.004272 0.003400 0.080948 0.092458 0.021293 0.053431 0.063160 0.033879 0.094919 0.041341
U-R,R->R,R->R,R-U,U->U 0.046372 0.073935 0.087709 0.073187 0.024661 0.029345 0.025024 0.063135 0.047697 0.072229
R-U,U-R,R->R,R->R,R->R 0.073520 0.052472 0.063295 0.013402 0.074591 0.061175 0.016041 0.045799 0.034439 0.027607
U-R,U->U,U->U,U->U,R-U 0.092603 0.021809 0.019608 0.063276 0.093295 0.030209 0.030544 0.088059 0.097363 0.050361
U->U,U->U,U-R,U-R,U->U 0.011079 0.075954 0.031912 0.041799 0.007742 0.078944 0.037194 0.011237 0.095532 0.015683
R->R,R-U,R-U 0.064729 0.083609 0.065737 0.062615 0.062275 0.002303 0.009706 0.045480 0.074627 0.048252
R->R,U->U,U-R,R->R 0.003793 0.095284 0.063291 0.063711 0.009063 0.004598 0.040560 0.008921 0.042983 0.042262
U->U,U->U,U-R,U->U,R-U 0.013319 0.013263 0.080760 0.075406 0.023981 0.012925 0.031913 0.073871 0.040391 0.080573
U->U,U-R,R->R,U->U,U-R 0.083191 0.056113 0.045112 0.092165 0.066133 0.096023 0.040747 0.068939 0.010333 0.030457
U->U,U->U,R->R,R-U 0.066777 0.023301 0.078637 0.018672 0.085003 0.063181 0.035322 0.015105 0.002245 0.056715
U->U,R->R,R-U 0.009476 0.068066 0.015641 0.093703 0.060739 0.062617 0.086136 0.059550 -0.002988 0.083326
R->R,R->R,R-U,U-R,R->R 0.020779 0.013982 0.080783 0.086184 0.021831 0.006404 0.027897 0.034335 0.032708 0.062187
R->R,U->U,U-R,U->U,U-R 0.095509 0.042221 0.054215 0.089853 0.060969 0.029876 0.045811 0.089865 0.033444 0.024983
U->U,U-R,R->R,R->R,R-U 0.059583 0.051109 0.084383 0.041958 0.048327 0.021812 0.063299 0.042147 0.064648 0.073085
U-R,U->U,R->R,U->U 0.083351 0.072863 0.002668 0.015982 0.063524 0.032381 0.028885 0.002797 0.012777 0.010279
R->R,U->U,U-R,R-U,U-R 0.063541 0.085331 0.033579 0.055905 0.034366 0.078615 0.054137 0.046713 0.097755 0.064156
U-R,U->U,U-R,U-R,U-R 0.078912 0.059264 0.015971 0.067809 0.095001 0.030696 0.072988 0.024940 0.036687 0.026808
U-R,U-R,U-R,U->U,U-R 0.027276 0.088357 0.090209 0.073749 0.099736 0.075394 0.044225 0.063097 0.033445 0.027241
U->U,U->U,R-U,U->U,U->U 0.042276 0.085675 0.025263 0.066949 0.082515 0.082181 0.036984 0.093477 0.002371 0.043748
U-R,U-R,R-U 0.052243 0.062364 0.061686 0.077202 0.058645 0.059046 0.086882 0.080049 0.066106 0.072214
R->R,U-R,R-U 0.082401 0.094569 0.053774 0.076765 0.010358 0.096458 0.038765 0.023170 0.062055 0.091242
R-U,U->U,U->U,U->U,R-U 0.088810 0.005266 0.070867 0.042472 0.073581 0.062337 0.094898 0.038412 0.099726 0.020150
R->R,R->R,R->R,R->R,R-U 0.027744 0.050392 0.019900 0.096169 0.028975 0.052776 0.002401 0.016265 0.049696 0.044962
R->R,R->R,R->R,R-U,R-U 0.081661 0.000990 0.058247 0.087333 0.058467 0.021498 0.003776 0.020445 0.037181 0.031496
R->R,R->R,R-U,R-U 0.084999 0.022510 0.062176 0.061503 0.092844 0.066431 0.070667 0.035958 0.074042 0.042395
U-R,R->R,R-U,U-R,R-U 0.026845 0.086769 0.038322 0.072699 0.017074 0.088077 0.060332 0.083480 0.006077 0.033357
U-R,U->U,U->U,U-R,U->U 0.055480 0.062246 0.065119 0.096941 0.033563 0.093996 0.036528 0.094286 0.012613 0.003695
U->U,U-R,U-R,U-R,U->U 0.071150 0.003834 0.014539 0.071077 0.075809 0.051791 0.046694 0.096875 0.028642 0.091926
R-U,R->R,U->U,U->U,U->U 0.087630 0.093427 0.010831 0.085743 0.091497 0.056701 0.033298 0.099185 0.003443 0.054192
R->R,R-U,U-R,R->R,R-U 0.075457 0.069558 0.043424 0.065685 0.063508 0.056478 0.008786 0.071370 0.004897 0.056259
U-R,R->R,U->U,U->U,U->U 0.009498 0.049544 0.095999 0.014463 0.018201 0.031748 0.094196 0.026892 0.095183 0.082304
U-R,R->R,R->R,U->U 0.091906 0.095304 0.077891 0.069611 0.013931 0.008061 0.055512 0.033151 0.096718 0.094152
U-R,R->R,R->R,U->U,U->U 0.021828 0.043493 0.031133 0.038872 0.088169 0.085824 0.033810 0.034505 0.052594 0.028488
R-U,U->U,R-U,U->U 0.083017 0.002017 0.059295 0.027865 0.092792 0.092924 0.010237 0.072691 0.029622 0.009911
U-R,R->R,R->R,R-U,U-R 0.084504 0.018636 0.011388 0.041476 0.006085 0.040341 0.027002 0.021123 0.095725 0.045895
U->U,U->U,R->R,R-U,U->U 0.032908 0.019447 0.063046 0.080670 0.095911 0.064767 0.071004 0.045741 0.048126 0.044171
U->U,R->R,R-U,U->U 0.047746 0.085626 0.025032 0.090480 0.055067 0.095227 0.019943 0.018171 0.004249 0.058163
U->U,R->R,U->U,U->U,R->R 0.088297 0.013920 0.074678 0.005187 0.015148 0.044939 0.067563 0.030043 0.038708 0.088157
U->U,R->R,R->R,R->R,U->U 0.046227 0.032710 0.043805 0.056076 0.019892 0.077692 0.002917 0.019612 0.088517 0.024743
R->R,R->R,R->R,U->U 0.031238 0.041236 0.060397 0.083261 0.016658 0.069616 -0.013450 0.086404 0.013158 0.087808
U->U,U->U,R->R,R->R,R-U 0.055074 0.037221 0.053316 0.023860 0.000151 0.008120 0.002885 0.045149 0.040952 0.044872
U->U,R->R,R->R,R-U 0.054595 0.001633 0.064498 0.046526 0.077024 0.042874 0.083348 0.077325 0.089225 0.005735
U-R,U->U,U->U,R->R,R->R 0.051717 0.055722 0.050927 0.068829 0.043031 0.097654 0.088586 0.021444 0.047291 0.050808
R->R,U->U,U-R,R-U,U->U 0.050583 0.079442 0.007531 0.013712 0.061120 0.037997 0.048696 0.035013 0.074396 0.069855
U->U,R->R,U->U,U-R,R-U 0.016085 0.051648 0.049323 0.088812 0.027072 0.064084 0.051088 0.020779 0.054405 0.078675
U->U,U-R,U-R,U-R,U-R 0.035307 0.028555 0.053330 0.084800 0.007107 0.030913 0.014656 0.024068 0.060287 0.061249
U-R,U-R,U-R,U-R 0.014027 0.065346 0.040971 0.069498 0.094097 0.017328 0.003469 0.081710 0.072130 0.033792
U-R,U-R,U-R,U-R,U->U 0.094998 0.010912 0.065293 0.056621 0.022073 0.094780 0.024076 0.045719 0.091092 0.005484
U-R,R->R,U->U,U->U,R-U 0.064498 0.019173 0.044005 0.057599 0.006550 0.006920 0.057364 0.086487 0.091985 0.088155
U-R,U-R,R-U,U->U 0.056400 0.050447 0.066372 0.036566 0.078000 0.098793 0.039817 0.075203 0.074522 0.077759
U->U,R->R,U-R,R-U 0.047240 0.073276 0.026979 0.033823 0.080718 0.053826 0.010958 0.025769 0.057197 0.077698
U->U,R->R,U-R,R-U,U-R 0.046898 0.013743 0.097778 0.034365 0.016909 0.003378 0.096129 0.009657 0.054040 0.079397
R->R,U-R,R-U,U-R 0.045205 0.056066 0.037575 0.079127 0.051695 0.062359 0.038545 0.013650 0.074496 0.097915
R-U,U->U,R->R 0.075166 0.024043 0.046834 0.030291 0.009907 0.007637 0.021658 0.039676 0.006821 0.022266
R-U,U->U,R->R,U->U 0.028559 0.014733 0.056026 0.021698 0.075375 0.024876 0.099905 0.030102 0.091221 0.010893
R-U,U->U,R->R,U->U,U->U 0.030205 0.078576 0.099751 0.040630 0.044539 0.028790 0.009212 0.049608 0.048537 0.040310
R-U,U->U,U->U,U-R,R->R 0.002011 0.010812 0.085156 0.002990 0.026980 0.095715 0.081990 0.023155 0.012899 0.055623
R-U,U-R,R->R,R-U,U->U 0.088640 0.078059 0.019723 0.019908 0.008342 0.019854 0.042578 0.023362 0.003312 0.014938
U-R,U-R,U->U,R-U 0.001355 0.082410 0.014290 0.011707 0.020348 0.080581 0.055906 0.046483 0.077179 0.032236
U-R,U-R,U->U,R-U,U-R 0.089641 0.004239 0.095987 0.088733 0.018477 0.052415 0.015288 0.022340 0.016341 0.009815
U->U,R-U,U->U,U->U,U->U 0.064096 0.047617 0.063148 0.085593 0.071850 0.076332 0.051365 0.094732 0.008210 0.071197
R->R,R-U,U-R,R-U,U->U 0.010852 0.031954 0.010290 0.026170 0.038549 0.012329 0.050102 0.073374 0.072362 0.014539
R-U,U->U,U->U,U-R,U-R 0.081543 0.001065 0.087766 0.066934 0.031267 0.062547 0.011746 0.055404 0.014703 0.005349
R->R,U-R,U->U 0.085925 0.091110 0.094281 0.024465 0.060018 0.062155 0.085175 0.029237 0.060804 0.099685
U-R,R-U,U-R,R->R,R->R 0.093869 0.033971 0.069584 0.054034 0.031341 0.005253 0.060338 0.046065 0.001984 0.024450
U->U,U->U,U->U,R->R,R-U 0.066001 0.020526 0.098610 0.008239 0.037031 0.004026 0.036596 0.076448 0.010016 0.050729
U->U,U-R,U->U,R-U,R-U 0.018832 0.010557 0.057326 0.005135 0.055929 0.026923 0.056179 0.074978 0.008930 0.043856
U-R,U->U,R-U,R-U 0.041615 0.019597 0.094616 0.044514 0.086408 0.000480 0.080281 0.064236 0.006233 0.082614
U->U,R-U,R-U 0.054344 0.033622 0.073832 0.013597 0.052499 0.047828 0.006312 0.006570 0.049136 0.039401
U->U,R->R,U->U,U-R,R->R 0.065059 0.043267 0.001132 0.061212 0.075821 0.004615 0.059096 0.094590 0.097447 0.068600
R->R,R->R,R-U,U->U,R-U 0.072553 0.061337 0.064760 0.027159 0.007608 0.091729 0.040970 0.051345 0.020816 0.071234
U->U,U->U,U-R,R->R,U->U 0.009418 0.070843 0.027148 0.037457 0.052650 0.055948 0.009197 0.051719 0.090089 0.084273
R->R,R-U,U-R,U->U 0.021561 0.043806 0.066071 0.008066 0.054566 0.046887 0.046886 0.073222 0.087203 0.074190
R->R,R-U,U-R,U->U,U->U 0.024270 0.017058 0.015688 0.095988 0.050639 0.089383 0.029557 0.072789 0.068107 0.022042
U->U,U-R,U->U,R->R,U->U 0.060001 0.050285 0.034678 0.051169 0.013769 0.093945 0.057892 0.086732 0.064485 0.054128
U-R,U->U,R->R,U->U,U->U 0.037646 0.095454 0.015393 0.096878 0.081638 0.010970 0.097973 0.094001 0.041608 0.052865
R->R,R->R,R->R,U->U,U->U 0.059337 0.045643 0.069284 0.080799 0.057194 0.019418 0.047028 0.097030 0.028174 0.083128
U-R,R->R,U-R 0.074125 0.015057 0.075788 0.020786 0.009255 0.010556 0.060725 0.068458 0.036636 0.088139
U-R,U->U,R->R,U->U,U-R 0.032644 0.006366 0.080687 0.053499 0.003711 0.005750 0.022050 0.039720 0.032700 0.058349
R-U,R->R,R->R 0.023864 0.065068 0.013468 0.038369 0.063734 0.027064 0.003337 0.083279 0.020105 0.071240
U->U,R->R,R->R,R-U,U->U 0.030524 0.065505 0.042160 0.057352 0.087255 0.009349 0.000543 0.043661 0.011159 0.065898
R->R,R->R,U->U,U->U,R-U 0.079884 0.079642 0.007666 0.087322 0.084429 0.059576 0.033008 0.065489 0.089897 0.036047
R->R,U->U,U->U,R-U,U->U 0.070733 0.078559 0.011067 0.072763 0.080653 0.029716 0.000521 0.093174 0.074199 0.050681
U-R,U-R,U->U,U-R,U-R 0.075730 0.021571 0.079734 0.036479 0.038950 0.071708 0.039088 0.057311 0.085654 0.063814
U->U,U->U,R-U,R->R 0.055050 0.003685 0.054500 0.017613 0.094336 0.067214 0.054666 0.005165 0.096718 0.058313
U->U,R-U,R->R 0.099292 0.093292 0.067092 0.094461 0.056029 0.054591 0.000426 0.023276 0.065420 0.061573
U-R,U-R,R->R 0.005934 0.000147 0.079486 0.077109 0.083489 0.000497 0.048300 0.006918 0.034191 0.004123
R-U,U-R,U-R,R-U 0.057062 0.014497 0.039656 0.020603 0.021317 0.062928 0.036656 0.028320 0.009617 0.013936
R-U,U-R,U-R,R-U,U->U 0.083465 0.063881 0.065226 0.014583 0.059508 0.057636 -0.008391 0.044356 0.063056 0.080084
R-U,U-R,U->U,U-R,R->R 0.007289 0.082557 0.093776 0.088816 0.003837 0.081078 0.004206 0.053401 0.011370 0.036359
R-U,U-R,R->R,U->U 0.046703 0.018736 0.035642 0.009336 0.039794 0.015343 0.051944 0.050660 0.025958 0.023751
R-U,U-R,R->R,U->U,U->U 0.052028 0.018968 0.049963 0.099963 0.036220 0.050777 0.094369 0.041370 0.076942 0.047709
R-U,U-R,R-U,U-R,R->R 0.018141 0.014511 0.004065 0.014986 0.042386 0.093407 0.054308 0.026775 0.083732 0.050898
U-R,R-U,U-R,R->R,R-U 0.028246 0.019801 0.023408 0.076270 0.071060 0.077891 0.063690 0.006064 0.040662 0.029100
R-U,U-R,R->R,R->R,R-U 0.037952 0.010078 0.044244 0.024427 0.096239 0.012932 0.079544 0.070607 0.037746 0.047394
U->U,U-R,U-R,U->U,R-U 0.012011 0.048482 0.073650 0.069020 0.073726 0.098660 0.014646 0.072841 0.085716 0.075348
R-U,U-R,R-U,R-U 0.094293 0.039502 0.022562 0.084680 0.008412 0.080779 0.002439 0.082590 0.051090 0.080344
U-R,R-U,R-U 0.056784 0.020635 0.001571 0.029563 0.052168 0.039855 0.035723 0.045585 0.046676 0.091251
U->U,U-R,U->U,R->R,U-R 0.053626 0.068079 0.068266 0.013534 0.060134 0.099140 0.094927 0.037077 0.091949 0.057962
U-R,U->U,R->R,U-R 0.048638 0.073124 0.096394 0.098277 0.060910 0.028607 0.008751 0.089160 0.000226 0.019745
U-R,R-U,U-R,U->U,R-U 0.021843 0.063902 0.002702 0.090774 0.027989 0.044470 0.094820 0.040174 0.044123 0.059850
R-U,U-R,U->U,R-U 0.026179 0.029416 0.033026 0.040694 0.067742 0.090869 0.035897 0.088422 0.012765 0.029196
R-U,U-R,U->U,R-U,U->U 0.058056 0.043967 0.023542 0.035734 0.013560 0.084555 0.017948 0.040878 0.090315 0.004018
U->U,U->U,U-R,U-R,U-R 0.043404 0.007708 0.068773 0.098840 0.082555 0.091356 0.041705 0.013396 0.031326 0.034040
U-R,U-R,U-R,U->U,R-U 0.050448 0.046474 0.048714 0.036682 0.018381 0.080252 0.065454 0.061211 0.080872 0.051238
R->R,U-R,U->U,U->U 0.018057 0.094252 0.058220 0.086903 0.027329 0.078499 0.075840 0.027610 0.054800 0.058146
U->U,U->U,R->R,R-U,U-R 0.081051 0.003161 0.084166 0.095717 0.064193 0.002327 0.039679 0.007397 0.072934 0.086905
U->U,R->R,R-U,U-R 0.009785 0.092117 0.017998 0.017482 0.075575 0.099670 0.012482 0.058241 0.009046 0.034366
U-R,U->U,R-U,R-U,U->U 0.092182 0.009309 0.034007 0.007689 0.036584 0.089056 0.036565 0.096068 0.091436 0.046285
U->U,R-U,R-U,U->U 0.006156 0.006178 -0.002634 0.029369 0.061907 -0.003315 -0.027538 0.053614 -0.006958 0.060528
R-U,R-U,U->U 0.035164 0.057507 0.030647 0.055544 0.040239 0.025741 0.017982 0.041780 0.028733 0.005801
U-R,R->R,R-U,U-R,U-R 0.022706 0.074814 0.076167 0.065041 0.023839 0.098405 0.037108 0.039729 0.002594 0.012183
R->R,R-U,U-R,U-R 0.093579 0.089169 0.072518 0.036538 0.052334 0.067653 0.094736 0.012607 0.095531 0.081302
U-R,U->U,R-U,R-U,U-R 0.004353 0.035492 0.042353 0.028644 0.019973 0.055724 0.017395 0.034933 0.003405 0.056330
U->U,R-U,R-U,U-R 0.106060 0.093573 -0.030617 0.013002 0.073234 0.019984 -0.027224 0.109754 0.074230 0.080156
U->U,U->U,R->R,U-R 0.048629 0.092854 0.027018 0.054151 0.046670 0.034867 0.049402 0.017772 0.092249 0.039615
U->U,U->U,R->R,U-R,R-U 0.003644 0.028784 0.009445 0.023105 0.076001 0.010315 0.017821 0.058209 0.068825 0.017903
U->U,U->U,R-U,U-R,U-R 0.004370 0.096531 0.035387 0.078630 0.046279 0.070610 0.024496 0.003958 0.022440 0.080120
U->U,R-U,U-R,U-R 0.005691 0.007351 0.066674 0.074755 0.067986 0.097795 0.086058 0.046092 0.001866 0.053551
U-R,U-R,U->U,U-R,R->R 0.091575 0.000135 0.096261 0.037474 0.040372 0.084760 0.060825 0.004847 0.037557 0.094415
U-R,R-U,U->U,R-U,U->U 0.011659 0.079088 0.029163 0.067446 0.050116 0.051688 0.028702 0.057359 0.033810 0.016479
U-R,U->U,U-R,R-U,U-R 0.052394 0.026087 0.002316 0.084091 0.007780 0.013139 0.038002 0.096752 0.027824 0.077302
U->U,U->U,U-R,R->R,U-R 0.043603 0.019103 0.046224 0.037436 0.076592 0.035537 0.055195 0.046217 0.014500 0.042124
U->U,U-R,R->R,U-R 0.029800 0.093599 0.033228 0.082431 0.092502 0.045095 0.083010 0.084134 0.017542 0.067377
R->R,U-R,U->U,R->R 0.080640 0.045889 0.025725 0.060361 0.078841 0.091029 0.001692 0.002816 0.068486 0.006403
R->R,U-R,U->U,R->R,U->U 0.081555 0.029181 0.090469 0.061864 0.072831 0.048470 0.034739 0.016824 0.052246 0.089518
R->R,U->U,R->R 0.041811 0.042081 0.006878 0.051452 0.066228 0.043755 0.097656 0.056975 0.003258 0.042725
R->R,U->U,R->R,U->U 0.074933 0.085391 0.048287 0.045041 0.087252 0.071809 0.004131 0.085406 0.019576 0.086747
R->R,U->U,R->R,U->U,U-R 0.038340 0.049816 0.092039 0.091426 0.024999 0.088325 0.070462 0.062409 0.098922 0.080768
U->U,R->R,U-R,R->R 0.095437 0.010160 0.075144 0.064986 0.026363 0.042896 0.092583 0.094051 0.095207 0.000687
R->R,U-R,R->R 0.023571 0.058515 0.044681 0.043318 0.048163 0.000416 0.012882 0.074566 0.019802 0.006492
R-U,U->U,U->U,U->U,R->R 0.060183 0.013718 0.094742 0.082201 0.052988 0.032795 0.065282 0.002583 0.043045 0.040619
U-R,U-R,R-U,U-R 0.021616 0.039576 0.008170 0.005680 0.094105 0.033765 0.028480 0.082473 0.007972 0.029883
R->R,R->R,U-R 0.081627 0.002482 0.068222 0.079051 0.061723 0.084970 0.030830 0.015444 0.010117 0.010510
U->U,U-R,U->U,R->R,R->R 0.003587 0.021426 0.063515 0.081040 0.035543 0.024151 0.006988 0.015979 0.074371 0.074659
U-R,U->U,R->R,R->R 0.072064 0.086050 0.056884 0.042362 0.012486 0.014017 0.093934 0.043684 0.088844 0.081121
U-R,U->U,R->R,R->R,U->U 0.099684 0.096734 0.026442 0.065954 0.089052 0.063470 0.006670 0.043055 0.064916 0.068656
R->R,R->R,R->R,U->U,U-R 0.084638 0.024587 0.047681 0.076758 0.099736 0.026478 0.046667 0.023376 0.047305 0.061564
R->R,U-R,R-U,U->U 0.081850 0.078167 0.074882 0.059844 0.088061 0.013687 0.006416 0.001926 0.097890 0.015487
R->R,U-R,R-U,U->U,U->U 0.091866 0.006043 0.060449 0.073642 0.025636 0.052525 0.043235 0.039123 0.056352 0.014941
U->U,U->U,R-U,U-R,R->R 0.098332 0.034114 0.012534 0.025974 0.067641 0.034555 0.008396 0.070494 0.052939 0.006819
U->U,R-U,U-R,R->R 0.015469 0.035100 0.006168 0.015724 0.027381 0.039696 0.023290 0.043684 0.027095 0.021137
U->U,R-U,U-R,R->R,R->R 0.014571 0.080857 0.036616 0.038683 0.049476 0.050930 0.080343 0.078852 0.058947 0.027124
R-U,U-R,R->R,R->R,U->U 0.091911 0.023283 0.085052 0.062512 0.019974 0.002208 0.003132 0.083101 0.048470 0.088120
U->U,R-U,U-R,R-U,U->U 0.019822 0.070593 0.048521 0.044368 0.047354 0.095419 0.040685 0.078616 0.030499 0.077466
R->R,R->R,R-U,U-R,U->U 0.013007 0.077242 0.092518 0.040204 0.012265 0.021043 0.056539 0.075892 0.047195 0.003121
R-U,U->U,R-U,U->U,U->U 0.040540 0.016137 0.012070 0.016663 0.066644 0.037076 0.052534 0.000872 0.040719 0.027735
R->R,R-U,U-R,R->R,R->R 0.023466 0.099376 0.057966 0.067472 0.023355 0.005735 0.058506 0.036825 0.099324 0.095370
U-R,U-R,U-R,U->U,U->U 0.018432 0.075295 0.025169 0.017639 0.058725 0.089020 0.082912 0.082095 0.069762 0.083571
U->U,R->R,U->U,U-R,U-R 0.046231 0.023489 0.078744 0.091418 0.034631 0.034871 0.038592 0.046964 0.042585 0.081286
R->R,U->U,U-R,U-R 0.015041 0.099511 0.054227 0.004946 0.063727 0.090495 0.019332 0.041672 0.036882 0.089785
R->R,U->U,U-R,U-R,U->U 0.029036 0.052861 0.057068 0.086279 0.008660 0.043341 0.009737 0.037209 0.003445 0.099720
R-U,U-R,R-U,U-R,U-R 0.098624 0.049576 0.081061 0.075509 0.042411 0.048010 0.076594 0.043716 0.070410 0.058588
U-R,R-U,U-R,U-R 0.058644 0.018614 0.000451 0.042383 0.040319 0.026033 0.074526 0.087889 0.051382 0.031908
R-U,U->U,U->U,R-U 0.062455 0.045894 0.075893 0.067684 0.000099 0.064644 0.014971 0.012258 0.015241 0.066049
U-R,R-U,U->U,R-U,U-R 0.079264 0.095465 0.006785 0.035869 0.021252 0.039040 0.078286 0.046531 0.038896 0.064991
R-U,U->U,R-U,U-R 0.040200 0.047795 0.090920 0.004246 0.013150 0.074502 0.009265 0.004713 0.003627 0.021426
R-U,R->R,U->U,U->U,R-U 0.000647 0.088541 0.097174 0.020162 0.067391 0.032191 0.090403 0.078318 0.024244 0.009822
U->U,U-R,R-U,U->U,R->R 0.054197 0.080856 0.055072 0.080910 0.008504 0.010848 0.082418 0.031937 0.058471 0.051738
U-R,R-U,U->U,R->R 0.078539 0.097611 0.082959 0.095673 0.038149 0.062827 0.079728 0.067122 0.002549 0.002194
U-R,R-U,U->U,R->R,U->U 0.096084 0.098701 0.072318 0.085148 0.093753 0.075087 0.082985 0.072370 0.019451 0.010510
R-U,R-U,R-U 0.077768 0.039371 0.099753 0.024227 0.056667 0.011264 0.095300 0.006503 0.078273 0.058230
U->U,U-R,R-U,R->R 0.038722 0.011329 0.077701 0.077873 0.091137 0.095622 0.045010 0.069705 0.045594 0.042813
U->U,U-R,R-U,R->R,U->U 0.017700 0.038277 0.080488 0.090828 0.087858 0.008852 0.011466 0.054843 0.027423 0.040393
U-R,R-U,R->R 0.059395 0.041853 0.067975 0.003278 0.018390 0.096234 0.026130 0.021948 0.088390 0.068739
U-R,R-U,R->R,U->U 0.042310 0.032754 0.041215 0.058914 0.026679 0.019773 0.051998 0.085684 0.019965 0.017472
U-R,R-U,R->R,U->U,U->U 0.089764 0.024327 0.037372 0.033190 0.000344 0.022868 0.005400 0.098527 0.016267 0.021514
U->U,R->R,R->R,R-U,U-R 0.059079 0.038587 0.094417 0.069232 0.007442 0.059704 0.032800 0.065003 0.053307 0.037395
R-U,R-U,U-R,U->U 0.026947 0.057341 0.088896 0.035672 0.026416 0.046251 0.098665 0.009060 0.067270 0.079036
R-U,R-U,U-R,U->U,U->U 0.071614 0.002494 0.012253 0.093033 0.088406 0.036556 0.011816 0.000453 0.014157 0.037002
