8886 10
1 0.795735 1.510158 -0.295013 0.553042 -0.014204 -0.242577 0.628037 -0.233860 -1.149680 0.279362
1261 4.295734 -0.380231 4.435311 -0.554518 7.411824 4.849349 0.007719 -6.015393 2.041092 -7.286907
1377 -0.967524 -2.894430 3.316221 -2.698765 -4.588537 11.536532 1.574152 2.279959 4.647114 4.732265
3544 -2.380769 -2.122555 3.397112 13.545994 -2.615622 -0.283334 3.302105 3.178497 2.668444 -4.324278
4537 2.704921 -0.860519 0.199107 -0.162366 0.218385 -1.529191 1.462233 0.495146 1.345672 1.412969
4538 2.764305 -0.844392 0.245413 -0.193005 0.212199 -1.571626 1.546758 0.492924 1.403440 1.437112
3548 0.138303 -0.890590 -0.971758 0.122316 0.011435 0.189142 0.238648 0.319249 -1.172665 -0.020089
3545 0.218407 -0.961183 -0.894864 0.063255 -0.085567 0.201033 0.310615 0.488805 -1.282427 -0.192961
3547 0.188121 -0.895684 -0.890118 -0.003077 -0.079329 0.171582 0.282332 0.480823 -1.172998 -0.206553
3546 0.344990 -0.730181 -0.825384 -0.030464 -0.277545 0.159424 0.353604 0.582099 -1.184743 -0.395632
1378 -0.169058 -0.030760 -0.692741 -0.243269 -1.009079 0.016026 0.631648 -1.226501 -0.295264 0.198262
1380 -0.175195 -0.056199 -0.691240 -0.245042 -0.948318 0.019098 0.577792 -1.152776 -0.318246 0.189120
1381 -0.104785 -0.016699 -0.740509 -0.253308 -0.985303 0.046390 0.613688 -1.090881 -0.337757 0.144813
1379 -0.102428 -0.024178 -0.681099 -0.233052 -0.984434 0.040601 0.594217 -1.116534 -0.324742 0.163758
1382 -0.085076 -0.064786 -0.706720 -0.239225 -1.019119 0.046524 0.595169 -1.144049 -0.303179 0.181068
1280 -0.524345 0.401768 -0.464804 -0.400136 0.353416 -0.149723 0.699070 -0.004887 0.025823 -0.120451
1267 -0.478855 0.401538 -0.439142 -0.397490 0.333002 -0.145538 0.697583 -0.013509 0.015919 -0.133414
1263 -0.522900 0.446402 -0.443888 -0.424479 0.392533 -0.164367 0.713198 0.065256 0.047068 -0.119061
1262 -0.517075 0.424013 -0.499015 -0.388750 0.357028 -0.151092 0.695919 0.020786 0.022071 -0.090476
1281 -0.516843 0.399388 -0.488917 -0.398993 0.364061 -0.137878 0.630707 0.012146 0.028399 -0.138309
1269 -0.500227 0.372889 -0.495995 -0.397271 0.337315 -0.134917 0.663807 0.005747 0.028544 -0.140712
1271 -0.528266 0.416111 -0.485684 -0.411995 0.367113 -0.149844 0.661324 0.016163 0.051699 -0.136117
1268 -0.529501 0.391916 -0.484928 -0.407600 0.327388 -0.140777 0.730336 -0.038640 -0.023764 -0.133158
1276 -0.538011 0.411567 -0.449802 -0.408688 0.358818 -0.164492 0.709717 0.024174 0.028929 -0.120276
1272 -0.551912 0.376189 -0.452305 -0.413757 0.401482 -0.179607 0.685045 0.023883 0.068005 -0.097102
1278 -0.523390 0.357828 -0.500853 -0.418872 0.367690 -0.169920 0.724211 0.019718 0.034757 -0.116066
1273 -0.505722 0.414205 -0.473690 -0.401969 0.329152 -0.155252 0.710400 0.022239 0.016357 -0.140347
1264 -0.516399 0.396501 -0.450715 -0.417022 0.332155 -0.184305 0.706156 -0.000086 0.049857 -0.107123
1274 -0.486273 0.432594 -0.469235 -0.396012 0.383665 -0.132522 0.640909 0.082047 0.045306 -0.122807
1277 -0.497032 0.445118 -0.431355 -0.386379 0.328694 -0.159045 0.639310 -0.008720 0.070772 -0.109914
1270 -0.541582 0.384132 -0.480358 -0.392607 0.375303 -0.166336 0.659911 0.013771 0.074412 -0.113642
1265 -0.525227 0.391990 -0.475268 -0.371080 0.350117 -0.135574 0.640660 -0.026591 -0.003884 -0.100083
1279 -0.511738 0.434827 -0.524949 -0.392192 0.365144 -0.159676 0.705898 0.017916 0.046678 -0.101656
1266 -0.507083 0.402136 -0.463849 -0.407743 0.335144 -0.174160 0.696526 0.032520 0.029820 -0.122751
1275 -0.503274 0.420425 -0.473874 -0.401863 0.365315 -0.155992 0.683864 0.019852 0.040178 -0.132244
5036 1.263473 2.543596 0.516806 1.332489 0.502575 1.105704 0.415966 0.073523 -2.061942 1.724781
3876 0.132724 0.626758 0.204700 0.135618 0.130979 0.164706 -0.150332 0.438093 -0.769174 0.298989
4566 -0.615493 -1.424125 0.790241 0.030563 0.988134 -0.449089 0.224488 -0.098747 -0.826808 1.079834
3712 -0.379026 -0.276860 0.410807 -0.030603 0.407872 -0.215403 -0.564736 0.284118 -0.302649 0.335397
3974 0.150310 0.691499 0.491669 -0.203032 -0.296063 -0.209692 -0.552325 0.470356 -0.119839 -0.112642
1652 0.166216 -0.132725 0.318646 0.052122 -0.109965 -0.082508 -0.492010 -0.070206 -0.716725 0.290859
1217 0.155348 1.050373 0.465776 -0.441444 -0.546196 -0.194363 -0.140015 0.683783 -0.170046 -0.487953
1872 -0.134020 -0.893011 0.369494 0.095177 0.344211 -0.151173 -0.359963 -0.089403 -0.983210 0.577070
2158 -0.317710 -0.645551 0.466082 0.056658 0.483388 -0.169611 -0.553243 0.036553 -0.714738 0.593221
4080 -0.058491 0.380850 0.360390 -0.122488 0.006736 -0.247140 -0.503665 0.384842 -0.071534 0.118659
1984 -0.081624 -0.184276 0.501238 0.016321 0.137811 -0.279038 -0.857333 0.087038 -0.213463 0.406010
2721 -0.206312 -0.443236 0.572676 -0.028007 0.178098 -0.307098 -0.823206 0.003843 -0.375876 0.441056
2804 -0.228890 -0.334946 0.645613 -0.033291 0.204635 -0.278517 -0.776171 0.106742 -0.421689 0.389160
1718 0.127126 -0.092805 0.491280 -0.007782 -0.058257 -0.255915 -0.694805 0.027197 -0.338548 0.334255
434 0.058710 0.281140 0.501327 -0.176834 -0.234188 -0.383248 -0.920040 0.298811 0.086278 0.001162
1062 -0.056815 0.356743 0.637990 -0.309670 -0.437325 -0.459636 -0.775751 0.185347 0.165268 -0.103951
3179 -0.269929 -0.528817 0.740133 -0.120480 0.227522 -0.448213 -0.809814 0.155449 -0.278073 0.359479
74 0.023001 0.278039 0.599980 -0.225140 -0.359099 -0.435187 -0.962526 0.275307 0.072160 -0.078409
751 0.002944 0.281684 0.555363 -0.202796 -0.305780 -0.391731 -0.759821 0.187165 -0.003133 0.012209
3282 -0.198030 -0.291244 0.665128 -0.041603 0.155918 -0.296423 -0.871482 0.158035 -0.395807 0.333222
247 0.034869 0.278594 0.574891 -0.230506 -0.352566 -0.491100 -0.821680 0.179636 0.227488 -0.003582
4448 -0.369895 -0.290905 0.792450 -0.196841 0.184529 -0.550336 -0.787226 0.246552 -0.030208 0.292754
2590 -0.135048 -0.284471 0.580781 -0.037845 0.185900 -0.337014 -0.913281 0.157944 -0.245633 0.376650
2684 -0.217921 -0.548057 0.373262 0.090830 0.336140 -0.219314 -0.710618 0.018746 -0.548236 0.504348
1180 0.044111 0.556249 0.486574 -0.199180 -0.367269 -0.396622 -0.917467 0.244099 0.220881 -0.074706
2454 -0.317145 -0.398072 0.517327 -0.015851 0.291067 -0.283800 -0.723861 0.077865 -0.364382 0.421794
3481 -0.467423 -0.421071 0.486701 0.022803 0.444627 -0.218736 -0.911755 0.126419 -0.469134 0.496993
2985 -0.245762 0.025388 0.477392 -0.086155 0.057898 -0.293952 -0.922815 0.128388 -0.054560 0.270828
4845 -0.171020 -0.337708 0.718378 -0.104429 0.062598 -0.635452 -0.532710 -0.082930 0.041936 0.498176
4272 -0.103386 0.354017 0.433497 -0.166006 -0.103583 -0.357691 -0.803243 0.335414 0.080277 0.072231
1312 -0.262219 0.267684 0.238149 -0.296548 -0.295045 -0.274852 -0.596604 0.180782 -0.178890 -0.226780
4317 -0.199413 0.088143 0.297740 -0.017567 0.080154 -0.260574 -0.913728 0.239238 -0.114657 0.198533
1958 -0.274392 -0.614074 0.160011 0.092728 0.329491 -0.198779 -0.984393 -0.033967 -0.316714 0.471884
2347 -0.259023 -0.462367 0.383450 0.033669 0.392725 -0.221038 -0.911782 0.143721 -0.415500 0.469330
3688 -0.340855 -0.183166 0.312876 -0.061007 0.262860 -0.295032 -0.750858 0.279588 -0.110557 0.243570
213 0.024713 0.302120 0.387441 -0.169575 -0.266200 -0.276914 -0.821575 0.223987 -0.102987 0.004550
3016 -0.377112 -0.498189 0.437838 0.023789 0.308418 -0.288055 -0.986148 0.059369 -0.245448 0.440459
4191 -0.105765 0.202175 0.417714 -0.060914 -0.104033 -0.326811 -0.981056 0.117989 0.015309 0.194351
3161 -0.553359 -0.836527 0.458385 0.014504 0.573631 -0.222947 -0.583395 -0.011683 -0.560396 0.612177
4212 -0.118164 0.134413 0.302602 -0.070150 0.082016 -0.307591 -0.730310 0.303508 0.014745 0.212542
3138 -0.349566 -0.350204 0.420321 0.005218 0.364406 -0.246628 -0.978868 0.239707 -0.327481 0.388251
937 0.206641 0.696772 0.566402 -0.077523 -0.375785 -0.217609 -1.225018 0.299288 -0.107241 -0.023070
1617 0.046316 -0.150682 0.380932 0.004791 0.031648 -0.190781 -0.726843 0.134590 -0.408658 0.280591
1295 -0.365772 0.133428 0.339015 -0.215821 0.008769 -0.297131 -0.566002 0.130779 -0.109081 0.039836
1481 -0.116504 -0.259770 0.476526 -0.022226 0.017676 -0.399982 -0.855592 -0.080314 -0.068628 0.391231
2318 -0.200981 -0.284904 0.630996 -0.102796 0.030108 -0.493194 -1.208255 0.127389 0.043409 0.266056
2904 -0.194662 -0.080909 0.532069 -0.046924 0.188025 -0.338696 -1.031653 0.174361 -0.032918 0.334019
16 0.215756 0.867450 0.496062 -0.085408 -0.500188 -0.239887 -0.602448 0.170667 -0.177214 -0.070576
3919 -0.051471 0.110907 0.472653 -0.147262 -0.167466 -0.360184 -0.862141 0.267233 -0.014065 0.038684
1932 -0.197024 -0.241405 0.327182 0.052712 0.296421 -0.251797 -0.935553 0.157006 -0.250810 0.448290
4337 -0.068851 0.214936 0.774313 -0.306495 -0.348061 -0.635640 -1.389874 0.262172 0.418933 0.052066
4296 -0.279099 0.269933 0.531179 -0.125957 -0.305418 -0.369469 -1.395337 0.085834 0.188992 0.097697
1201 -0.074927 0.440992 0.558204 -0.202943 -0.310718 -0.410122 -1.264433 0.298095 0.336659 -0.032475
4933 -0.024945 0.055562 0.672684 -0.169447 -0.301446 -0.610067 -0.895508 0.073356 0.242241 0.145364
3549 -0.235946 -0.076301 0.327098 -0.065171 0.127482 -0.372979 -0.792871 0.220386 0.096116 0.247718
611 -0.085963 0.021949 0.597044 -0.044145 0.092051 -0.434335 -1.494335 0.241181 0.109680 0.292533
737 -0.043229 0.424934 0.459239 -0.126091 -0.266763 -0.372709 -1.267056 0.197979 0.227878 0.032026
1403 -0.074980 -0.388150 0.355136 -0.021835 0.062929 -0.342173 -0.633626 -0.065790 -0.263279 0.384023
3573 -0.200093 -0.061831 0.437613 -0.032510 0.019721 -0.360024 -1.171837 0.224073 0.041955 0.170760
1152 -0.052335 0.338054 0.604889 -0.232073 -0.300205 -0.416984 -1.273757 0.271942 0.165853 -0.041495
1282 -0.176292 0.148464 0.304662 -0.159844 -0.072664 -0.422857 -0.864759 0.089510 0.165181 0.103753
234 -0.110678 0.372786 0.588787 -0.152843 -0.158100 -0.369218 -1.011800 0.206464 0.088047 0.085330
1019 -0.101302 0.347600 0.527041 -0.161313 -0.163831 -0.401992 -1.062354 0.192745 0.187914 0.075415
1854 -0.105412 -0.117621 0.222356 0.058405 0.143842 -0.283950 -1.153145 0.025558 -0.016967 0.377045
3597 -0.110373 0.041650 0.377416 -0.091222 -0.009865 -0.370100 -0.663018 0.159129 0.017256 0.207805
850 -0.165485 0.220608 0.569018 -0.080141 -0.010737 -0.259189 -1.078507 0.206469 -0.102946 0.186238
3585 -0.217832 0.252952 0.329783 -0.062544 0.054099 -0.306095 -1.016291 0.262892 0.120012 0.164845
89 -0.073709 0.520861 0.026498 0.150454 0.305135 0.056500 -0.294174 0.279019 -0.572059 0.442082
964 -0.037289 0.184163 0.633513 -0.186967 -0.213500 -0.454602 -0.909931 0.245783 0.046512 0.043706
4386 -0.199388 0.203841 0.566371 -0.267551 -0.272039 -0.535515 -0.834154 0.135294 0.265150 0.028176
4969 -0.099472 0.232779 0.651699 -0.256371 -0.358371 -0.567313 -0.853914 0.081006 0.266919 0.063414
3628 -0.052843 0.136782 0.530431 -0.205076 -0.221744 -0.526003 -0.936361 0.236655 0.290596 0.060749
2813 -0.216668 0.363382 0.314234 0.138306 0.404040 -0.025121 -0.447589 0.333793 -0.596882 0.494918
3787 -0.100256 0.084479 0.477348 -0.180957 -0.102987 -0.460106 -0.751541 0.214903 0.165799 0.150883
3049 -0.170437 0.025098 0.587847 -0.141895 0.038923 -0.454474 -1.091741 0.187680 0.173471 0.240488
873 -0.000214 0.296223 0.634288 -0.288712 -0.337787 -0.514902 -1.036804 0.328114 0.208915 -0.039135
1108 -0.190118 0.580120 0.433469 0.092546 0.231332 -0.033266 -0.430204 0.308230 -0.503247 0.390269
1222 -0.228269 0.674368 0.233396 -0.400900 -0.213156 -0.181263 -0.557986 0.581528 -0.126595 -0.285729
539 -0.038134 0.225854 0.540523 -0.171023 -0.352464 -0.443223 -1.058825 0.137194 0.209587 0.000918
2223 -0.247851 -0.264142 0.425463 -0.045338 0.136341 -0.257325 -0.833761 0.099414 -0.244050 0.291016
3009 -0.145008 0.157281 0.453491 -0.150766 -0.180314 -0.371974 -1.067214 0.181611 0.165420 0.040172
1220 -0.187957 0.656204 0.239086 -0.315494 -0.202819 -0.142405 -0.480237 0.541270 -0.142974 -0.277360
4148 0.001681 0.218978 0.494732 -0.189906 -0.149324 -0.479479 -0.979338 0.252947 0.315569 0.094963
4367 -0.012968 0.294874 0.590709 -0.265859 -0.330030 -0.496802 -0.943818 0.273121 0.241501 -0.038593
4751 -0.085039 0.070885 0.656192 -0.210496 -0.296568 -0.632728 -0.876597 0.090790 0.331912 0.141134
2281 -0.188421 -0.261746 0.390331 0.028071 0.205091 -0.267950 -1.162883 0.233598 -0.194505 0.286707
1866 -0.208198 -0.030976 0.314819 -0.046171 0.086207 -0.234189 -0.859655 0.147996 -0.134265 0.255050
5054 -0.182716 0.611053 0.292283 0.203133 0.280470 0.041644 -0.420028 0.240353 -0.508944 0.474514
1573 0.002942 0.016636 0.363413 0.023882 0.084398 -0.208655 -0.718628 0.184528 -0.314786 0.338225
5060 -0.233810 0.609710 0.261447 0.177774 0.305766 0.027428 -0.402033 0.177721 -0.481916 0.519513
5065 -0.148712 0.567108 0.285792 0.177002 0.248840 -0.027562 -0.368821 0.115265 -0.501960 0.535835
4 0.471784 0.815367 0.737439 -0.234450 -0.264947 -0.926681 -1.290285 0.223987 0.187110 0.092955
5064 -0.201465 0.654519 0.306049 0.171655 0.162906 0.028429 -0.497149 0.193415 -0.531790 0.377263
4838 -0.085633 0.195644 0.693265 -0.200543 -0.166785 -0.461673 -1.276341 0.423390 0.163299 0.073679
384 -0.304419 -0.146132 0.601871 -0.144261 -0.031629 -0.500123 -1.606429 0.142367 0.250116 0.158625
1575 -0.126434 0.445292 0.277295 0.153884 0.184552 0.029970 -0.646273 0.196556 -0.578276 0.367317
5042 -0.304601 0.726859 0.347467 0.106386 0.288530 -0.006676 -0.414929 0.219841 -0.399947 0.441497
5066 -0.136716 0.683570 0.225138 0.166870 0.217222 -0.028123 -0.551761 0.251264 -0.225527 0.398479
1219 -0.211665 0.601115 0.230148 -0.335497 -0.218251 -0.187016 -0.620744 0.524009 -0.059585 -0.281644
902 -0.080760 0.559764 0.721048 -0.243566 -0.287501 -0.357152 -1.084629 0.420448 0.009018 -0.059631
5059 -0.254285 0.667767 0.232332 0.104040 0.193984 0.036350 -0.512517 0.185689 -0.469145 0.383135
33462 -0.211640 0.207237 0.383333 0.037035 -0.103253 -0.274454 -1.352889 0.067532 0.041569 0.189817
5040 -0.121551 0.628050 0.284982 0.140506 0.149870 0.064686 -0.532904 0.257466 -0.530556 0.344724
785 -0.232834 0.864039 0.275001 0.109756 0.027317 0.095333 -0.566732 0.178753 -0.485684 0.231584
5 0.472151 0.792489 0.419214 -0.032702 -0.359598 -0.461191 -0.604441 0.150773 -0.072185 0.071635
2 0.476336 0.751598 0.761273 -0.316113 -0.335531 -0.808028 -1.351683 0.219213 0.174663 0.123911
5072 -0.243494 0.792642 0.279597 0.135054 0.222985 -0.003766 -0.553718 0.183202 -0.360990 0.426287
5079 -0.332401 0.575316 0.207812 0.235653 0.307906 0.016449 -0.526791 0.054404 -0.418502 0.581952
5076 -0.213252 0.648541 0.345172 0.087953 0.118536 0.036919 -0.539295 0.238091 -0.512853 0.284775
3 0.351725 0.868127 0.439744 -0.050284 -0.408385 -0.415371 -0.581036 0.062170 -0.035335 0.112916
1221 -0.284351 0.520312 0.236421 -0.373943 -0.140524 -0.214831 -0.634583 0.508413 0.010795 -0.244512
2397 -0.345785 -0.374597 0.544559 -0.159349 0.276590 -0.451764 -1.091577 0.323725 -0.037749 0.236575
5074 -0.167026 0.815400 0.290137 0.211018 0.247969 0.100854 -0.491019 0.301640 -0.561380 0.401218
3615 -0.193562 0.223993 0.507709 -0.164753 -0.139792 -0.518277 -1.310872 0.171830 0.261670 0.117298
5046 -0.198310 0.688356 0.422184 0.109807 0.139589 -0.048206 -0.543130 0.230879 -0.422338 0.345982
5077 -0.135940 0.803139 0.325541 0.138365 0.186470 0.011205 -0.447279 0.226840 -0.446420 0.390188
374 -0.115477 0.329443 0.556767 -0.165283 -0.224726 -0.391659 -1.172587 0.112384 0.175435 0.112717
5038 -0.206248 0.812817 0.286378 0.186449 0.154317 0.057821 -0.485429 0.158966 -0.373940 0.421714
5043 -0.169108 0.629012 0.267559 0.155869 0.262339 0.007583 -0.487656 0.249043 -0.487879 0.384512
5045 -0.274948 0.769361 0.180699 0.168701 0.213485 0.108787 -0.475098 0.189206 -0.525166 0.373136
5050 -0.156324 0.662972 0.222630 0.085515 0.166068 0.015665 -0.332550 0.250631 -0.467679 0.355856
5058 -0.351245 0.505216 0.372843 0.099531 0.294978 -0.025094 -0.506378 0.272015 -0.489844 0.409719
5047 -0.429132 0.597259 0.256764 0.157401 0.328343 0.033725 -0.494778 0.195107 -0.423008 0.477571
5057 -0.054726 0.655037 0.272402 0.209840 0.136268 0.056026 -0.453928 0.174064 -0.543174 0.392699
2564 -0.024861 -0.012934 0.529799 -0.103097 -0.045452 -0.348919 -0.951866 0.139715 -0.073055 0.291213
1905 -0.175914 -0.042509 0.467633 -0.041989 -0.108992 -0.349261 -1.142312 0.072229 -0.071265 0.220189
6 0.480277 0.719234 0.455613 -0.090625 -0.417846 -0.531709 -0.594371 0.214250 -0.092555 -0.006176
5075 -0.220822 0.713034 0.343566 0.196706 0.236242 0.039381 -0.529319 0.179728 -0.459582 0.435131
1225 -0.358087 0.627561 0.251393 -0.354633 -0.092384 -0.169711 -0.607164 0.552523 -0.109034 -0.219386
1218 -0.220462 0.509325 0.653590 -0.480997 -0.430746 -0.494565 -1.623402 0.578743 0.372875 -0.393969
2151 -0.165991 -0.075656 0.359406 -0.126063 0.099348 -0.321851 -1.195432 0.287361 0.051512 0.172832
5056 -0.359970 0.881708 0.306805 0.108059 0.163199 0.018921 -0.334634 0.069675 -0.416815 0.424461
1223 -0.197329 0.551764 0.274299 -0.322159 -0.160940 -0.183939 -0.679738 0.553723 -0.053584 -0.246923
5051 -0.189978 0.693299 0.257838 0.135751 0.027064 0.016026 -0.403337 0.106250 -0.437049 0.333096
5044 -0.224450 0.727082 0.285052 0.054230 0.136447 0.022332 -0.528096 0.280211 -0.466303 0.241436
1224 -0.181673 0.631976 0.248335 -0.367183 -0.239918 -0.214267 -0.550067 0.518447 -0.046329 -0.290142
4658 -0.111555 0.115631 0.656001 -0.174658 -0.030476 -0.552923 -1.087425 0.243325 0.216889 0.227200
44935 -0.452401 1.012282 0.664372 -0.187719 0.001571 -0.157557 -1.294220 0.561154 0.034461 -0.003744
5073 -0.155688 0.635446 0.301224 0.040947 0.220465 -0.022314 -0.369873 0.341842 -0.415424 0.330492
5067 -0.182817 1.096849 0.624880 0.029226 -0.031859 -0.034188 -1.445141 0.490475 -0.197099 0.077876
1002 0.016955 0.229758 0.555135 -0.210767 -0.267854 -0.492455 -1.047543 0.197194 0.278533 0.072367
1031 -0.192075 0.773087 0.274797 0.157345 0.253509 0.069098 -0.538696 0.269447 -0.486403 0.381443
5071 -0.066335 0.731435 0.314798 0.108479 0.108005 -0.026264 -0.290165 0.203806 -0.544813 0.377934
4665 -0.046518 0.188025 0.638225 -0.199480 -0.270320 -0.490301 -1.231892 0.157650 0.257763 0.115764
5068 -0.141122 0.736095 0.288190 0.141147 0.292112 0.098163 -0.517800 0.382566 -0.550307 0.358062
5049 -0.322075 0.664960 0.375871 0.104274 0.330253 -0.041225 -0.364274 0.218956 -0.404482 0.485568
432 -0.174211 0.218362 0.733714 -0.327309 -0.033388 -0.433695 -1.181690 0.276824 0.052375 0.153035
5041 -0.197207 0.591466 0.248864 0.191108 0.165851 -0.021745 -0.421754 0.102399 -0.396667 0.425722
1337 -0.089381 0.044578 0.426725 -0.115670 -0.158311 -0.423306 -1.090820 0.070702 0.082317 0.075819
5061 -0.353255 0.647084 0.385879 0.099694 0.250961 -0.009327 -0.614894 0.288763 -0.403823 0.334830
44933 -0.281413 0.656294 0.440345 0.010858 0.139979 -0.026260 -1.355873 0.342109 -0.323548 0.256707
176 -0.246875 1.033769 0.690074 -0.014903 -0.119738 -0.075786 -1.264175 0.368615 -0.273247 0.170245
3276 -0.105123 0.111804 0.503303 -0.159537 -0.228317 -0.408868 -1.150326 0.118727 0.013528 0.099322
7 0.380380 0.640393 0.376888 -0.083935 -0.373936 -0.549334 -0.593541 0.069935 -0.080354 0.029862
44939 -0.318011 0.981205 0.576404 -0.081101 -0.164239 -0.154744 -1.381771 0.405466 0.045261 0.027161
1899 -0.375868 0.025593 0.509724 -0.125118 -0.003616 -0.393051 -1.331831 0.062575 0.209769 0.264346
2373 -0.090186 0.017215 0.379434 -0.063647 -0.099348 -0.302487 -1.079813 0.085830 0.029280 0.182771
5062 -0.261877 0.598006 0.298857 0.139058 0.100632 -0.006555 -0.540673 0.046307 -0.406185 0.360904
2541 -0.119855 0.061567 0.388031 -0.042594 -0.004691 -0.316690 -0.945503 0.073791 -0.007303 0.274282
4176 -0.063632 0.203022 0.521679 -0.132353 -0.233106 -0.406280 -1.011568 0.238199 0.070295 0.064950
5039 -0.184215 0.786649 0.207592 0.155814 0.109854 0.046349 -0.561939 0.139903 -0.339282 0.358499
534 -0.194838 0.081928 0.583740 -0.096341 0.079018 -0.356639 -1.272359 0.210104 -0.065812 0.209367
5069 -0.191034 0.657128 0.216956 0.111552 0.143009 0.035017 -0.655557 0.375019 -0.384885 0.190632
922 -0.034743 0.146048 0.550700 -0.229610 -0.331742 -0.481327 -1.033132 0.148872 0.271469 -0.017481
3884 -0.005167 0.479458 0.318531 0.117513 -0.236424 -0.285186 -0.465008 -0.156493 -0.139378 0.396430
5078 -0.265343 0.764905 0.264099 0.156954 0.445459 0.005827 -0.314884 0.304287 -0.351442 0.511490
3857 0.032882 0.139611 0.475685 -0.184124 -0.138486 -0.466490 -1.079681 0.341441 0.169821 0.067895
5048 -0.213049 0.759720 0.282995 0.086236 0.107147 0.033420 -0.697482 0.282128 -0.287909 0.276653
4570 -0.382152 -0.426562 0.515831 -0.131261 0.275138 -0.496835 -0.202426 0.067733 -0.337801 0.501078
5052 -0.384222 0.703345 0.373860 0.084075 0.285467 -0.026673 -0.423041 0.216015 -0.413708 0.433381
3249 -0.407075 -0.287300 0.403653 -0.115020 0.355597 -0.400946 -0.443910 0.133868 -0.229562 0.459766
3894 -0.009571 0.495102 0.329674 0.032617 -0.131523 -0.290718 -0.678737 0.004607 0.079225 0.316294
3891 -0.100434 0.504063 0.195165 0.095372 -0.202303 -0.239964 -0.571935 -0.106954 -0.068936 0.335955
1226 -0.232665 0.500924 0.526154 -0.453609 -0.344853 -0.468703 -1.486423 0.520475 0.332333 -0.314520
4499 -0.488208 -0.217690 0.588241 -0.022200 0.303197 -0.360759 -0.458001 0.076886 -0.417385 0.488677
4578 -0.450741 -0.289151 0.370439 -0.113181 0.446251 -0.333630 -0.236620 0.192053 -0.365893 0.455583
3879 -0.058785 0.560819 0.182040 0.050491 -0.151408 -0.220494 -0.567601 0.055100 -0.011271 0.220396
5055 -0.278718 0.655587 0.351856 0.060692 0.203720 -0.012733 -0.572171 0.301602 -0.434199 0.305817
4572 -0.244374 -0.390597 0.425943 -0.085441 0.323393 -0.408129 -0.299034 0.228323 -0.427311 0.439045
4579 -0.313748 -0.353561 0.535085 -0.111218 0.297076 -0.494406 -0.106352 0.088486 -0.366187 0.575217
4866 -0.015812 0.075809 0.532647 -0.107612 -0.144392 -0.434907 -0.806146 0.172810 0.039593 0.203589
4576 -0.435959 -0.373989 0.456658 -0.089510 0.365471 -0.439862 -0.245434 0.101137 -0.414333 0.490741
3132 -0.028142 0.256804 0.598742 -0.331176 -0.392144 -0.608198 -1.312396 0.168904 0.352542 -0.040187
44937 -0.232561 0.904837 0.653675 -0.113500 -0.133463 -0.220339 -1.267259 0.439146 0.032335 0.034070
1896 -0.171063 -0.007703 0.421446 -0.073856 0.228047 -0.371694 -0.873977 0.241056 -0.017151 0.327834
1817 -0.118187 -0.020960 0.417513 -0.137872 -0.048658 -0.396858 -0.961778 0.144887 0.042597 0.189701
44938 -0.297564 1.045684 0.573621 -0.117473 -0.070418 -0.140856 -1.284452 0.372664 0.032886 0.117729
3880 -0.049285 0.568051 0.266672 -0.050460 -0.141965 -0.288523 -0.413671 0.094743 0.016681 0.260097
3881 0.071829 0.638290 0.695405 -0.224875 -0.358424 -0.577594 -1.460248 0.076328 0.295479 0.206204
4567 -0.318420 -0.374714 0.449623 -0.070098 0.173632 -0.470969 -0.195106 0.088929 -0.366297 0.452353
4571 -0.398137 -0.357430 0.379287 -0.088806 0.339794 -0.443067 -0.367823 0.131760 -0.323045 0.502227
5037 -0.297034 1.064357 0.702314 -0.073309 -0.108076 -0.098972 -1.284644 0.431355 -0.305573 0.101847
3253 -0.322592 -0.422914 0.479211 -0.154045 0.224602 -0.460104 -0.559138 0.137435 -0.194543 0.352330
5070 -0.247914 0.765068 0.341455 0.104497 0.169962 -0.036311 -0.541830 0.255948 -0.345094 0.301780
3882 -0.019021 0.434370 0.221172 0.017786 -0.016010 -0.303276 -0.425866 0.058740 0.025736 0.366670
3885 -0.065305 0.531252 0.197772 0.031939 -0.216805 -0.272015 -0.609242 0.005319 0.094110 0.238263
4527 -0.414331 -0.386393 0.554109 -0.150422 0.218698 -0.492106 -0.413177 0.130915 -0.245359 0.378531
44936 -0.388311 0.991424 0.653841 -0.120221 -0.095446 -0.184811 -1.347340 0.450768 0.021503 0.083642
1583 -0.258365 -0.209174 0.465411 -0.030214 0.220711 -0.362557 -0.562794 0.129258 -0.293018 0.421837
3892 -0.043398 0.477351 0.302072 0.043430 -0.129837 -0.270809 -0.621943 0.021454 0.010138 0.305249
33614 -0.021773 0.598048 0.533941 0.058549 -0.454926 -0.344645 -1.273532 -0.195770 0.054040 0.275463
3893 -0.148563 0.681419 0.227795 0.030525 -0.161053 -0.189996 -0.458832 0.020460 -0.057373 0.283870
4581 -0.502907 -0.507153 0.529871 -0.146532 0.274408 -0.531915 -0.164969 0.042966 -0.332076 0.455553
5063 -0.383535 0.725423 0.406201 0.075096 0.094860 -0.025324 -0.375655 0.143289 -0.424786 0.344266
2013 -0.071800 0.036964 0.467522 -0.142775 -0.113079 -0.437762 -1.299811 0.079507 0.319147 0.229998
34649 -0.020173 0.213715 0.472535 -0.218699 -0.114423 -0.409427 -1.231427 0.297571 0.112972 0.079779
4573 -0.418681 -0.267682 0.455069 -0.090006 0.219307 -0.405751 -0.346409 0.049243 -0.314718 0.435743
3895 -0.022328 0.576693 0.171064 0.061027 -0.296461 -0.237687 -0.574449 -0.036739 0.000332 0.220921
5053 -0.496086 1.027812 0.676853 -0.119901 -0.046801 -0.083530 -1.190359 0.373544 -0.245403 0.132644
4582 0.057599 -0.042548 0.557848 -0.058039 -0.096706 -0.502425 -0.946124 0.150258 0.072603 0.194829
4075 -0.060125 0.217756 0.548071 -0.218257 -0.104700 -0.545717 -1.286868 0.330473 0.302476 0.039152
44934 -0.287893 1.011772 0.660804 -0.129663 -0.143228 -0.167109 -1.212199 0.490714 -0.004436 0.029492
8 0.309271 0.721387 0.348744 -0.102855 -0.406963 -0.560363 -0.564886 0.059435 0.026452 0.016643
1739 -0.182193 -0.015092 0.338065 -0.019030 0.065057 -0.329510 -0.789476 0.044172 -0.012452 0.296722
4575 -0.441776 -0.357829 0.380892 -0.089893 0.265023 -0.477214 -0.382827 0.127562 -0.325629 0.421053
4186 -0.106099 0.281216 0.485973 -0.255447 -0.205475 -0.505218 -1.164810 0.266366 0.272317 0.015204
4809 -0.074871 0.209744 0.490937 -0.175043 -0.258014 -0.539294 -0.965253 0.078233 0.228058 0.119998
453 -0.038239 0.094712 0.607281 -0.365041 -0.323157 -0.594485 -1.530850 0.204107 0.359293 0.032912
1564 -0.136532 0.109796 0.359254 -0.174577 -0.133532 -0.419681 -1.236785 0.083658 0.278208 0.145041
1874 -0.343886 -0.284863 -0.059180 0.102749 0.374660 -0.098124 -0.674869 0.010504 -0.379131 0.472986
4577 -0.386140 -0.238872 0.438178 -0.052531 0.256774 -0.371343 -0.386686 0.143864 -0.399968 0.437038
3898 0.062031 0.564169 0.251456 0.011307 -0.178671 -0.304541 -0.598647 0.120798 0.104478 0.185001
33618 0.236592 0.545258 0.620574 -0.278676 -0.365503 -0.626698 -1.377066 0.235030 0.295645 0.159918
3878 0.051489 0.339745 0.177363 0.059846 -0.376502 -0.255322 -0.685235 0.014648 -0.111829 0.116501
3899 -0.088988 0.567606 0.241358 0.044566 -0.153267 -0.215102 -0.527373 0.057292 -0.012310 0.266201
3887 -0.033202 0.397965 0.255999 0.088679 -0.195633 -0.238623 -0.623367 -0.048342 -0.096254 0.274926
4565 -0.008023 0.215458 0.535381 -0.264089 -0.387066 -0.610387 -1.372304 0.195046 0.429128 -0.035356
4574 -0.476667 -0.217765 0.516323 -0.106464 0.222912 -0.421168 -0.416258 0.077826 -0.292100 0.432662
5031 -0.130984 0.206601 0.559429 -0.160385 -0.165091 -0.525366 -1.115530 0.209153 0.254435 0.152488
2316 -0.008340 0.219996 0.646595 -0.310313 -0.300252 -0.555840 -1.200337 0.354908 0.240431 0.064154
619 -0.026432 0.193054 0.521665 -0.296980 -0.322168 -0.626014 -1.282049 0.234901 0.397019 -0.021994
3896 -0.076670 0.499543 0.171413 0.063624 -0.127636 -0.314340 -0.630667 -0.076725 0.116952 0.347438
3886 0.029990 0.535608 0.154634 -0.004309 -0.147342 -0.286002 -0.562032 0.074549 0.108397 0.230614
3897 -0.085496 0.419483 0.253994 -0.000258 -0.282982 -0.268467 -0.533379 -0.019895 -0.073771 0.162431
4358 -0.080317 0.197242 0.509149 -0.246005 -0.317122 -0.545055 -1.242737 0.170806 0.325069 0.018412
3877 -0.062577 0.451433 0.270195 0.031189 -0.202220 -0.255987 -0.699055 0.044034 -0.053104 0.207766
3883 0.038844 0.489487 0.210077 0.075372 -0.056256 -0.290829 -0.561670 0.020463 0.051727 0.359355
926 -0.131173 -0.016395 0.586882 -0.170112 -0.067781 -0.549660 -1.543168 0.291915 0.168913 0.016981
3045 -0.165622 0.137229 0.561926 -0.167640 -0.201310 -0.357410 -1.225220 0.236916 0.030878 0.062160
3716 -0.146511 0.193169 0.217099 -0.045532 -0.014792 -0.302213 -0.832597 0.194059 0.082399 0.166160
3721 -0.199320 0.188386 0.144297 -0.009530 -0.226740 -0.248922 -0.797913 -0.077209 -0.005739 0.159165
3890 0.129219 0.487222 0.234781 -0.008935 -0.329302 -0.302888 -0.648656 0.042592 0.012542 0.141717
1804 -0.191514 0.049557 0.347164 -0.149651 -0.142592 -0.401319 -0.926751 -0.100751 0.129856 0.276896
1876 -0.238338 -0.249963 -0.000800 0.090787 0.394376 -0.141179 -0.600574 0.090046 -0.358767 0.481195
1877 -0.179910 -0.282052 -0.078478 0.160842 0.349899 -0.124324 -0.664740 -0.030114 -0.428116 0.488182
1954 -0.277999 0.159710 0.469308 -0.082225 -0.051822 -0.357541 -1.381816 0.221350 0.240797 0.106350
3717 -0.088959 0.163759 0.295893 -0.017394 -0.213744 -0.318295 -0.797033 0.050831 0.015905 0.117657
33615 0.166856 0.525217 0.640882 -0.242194 -0.258580 -0.559442 -1.337929 0.246784 0.273590 0.231031
4106 0.002641 0.288249 0.468869 -0.179538 -0.258915 -0.523065 -1.204556 0.134681 0.179573 0.147395
1875 -0.089357 -0.206765 0.019671 -0.002687 0.267647 -0.213535 -0.722719 0.102291 -0.229181 0.375492
1884 -0.088399 -0.392288 0.040893 0.118176 0.309171 -0.158391 -0.723634 0.107178 -0.361435 0.429251
1882 -0.277831 -0.265090 -0.116475 0.023884 0.490196 -0.159100 -0.596193 0.222812 -0.325018 0.426452
3718 -0.109356 0.240740 0.288213 -0.015917 0.003932 -0.324277 -0.747539 0.186529 0.042275 0.254608
3873 -0.131312 0.061330 0.495978 -0.204349 -0.153940 -0.523105 -1.138275 0.235872 0.237428 0.065794
3889 -0.044962 0.595262 0.215911 -0.007401 -0.155800 -0.301298 -0.590865 0.037899 0.116497 0.240158
4144 -0.141791 0.280557 0.490094 -0.206473 -0.388377 -0.453454 -1.286028 0.119868 0.289035 -0.003611
3987 -0.012394 0.293822 0.579503 -0.266745 -0.323202 -0.562152 -1.331619 0.266941 0.320741 0.002909
1878 -0.343669 -0.240766 -0.004120 -0.002721 0.410520 -0.153389 -0.517976 0.118782 -0.386712 0.421449
3714 -0.074274 0.101368 0.559406 -0.274570 -0.303843 -0.560176 -1.409986 0.217729 0.333542 0.008817
4233 0.049781 0.378078 0.543398 -0.183461 -0.173675 -0.511641 -1.174307 0.327217 0.213685 0.090941
4569 -0.226732 -0.424483 0.450193 -0.073114 0.161550 -0.538404 -0.401606 0.058705 -0.276322 0.478348
4580 -0.456735 -0.304045 0.382519 -0.067677 0.308025 -0.435776 -0.503700 0.083705 -0.204274 0.461869
4137 -0.356721 0.221111 0.513388 -0.169725 -0.120625 -0.411275 -1.133698 0.115492 0.328088 0.158311
4652 -0.121465 0.194769 0.591421 -0.222696 -0.162705 -0.545543 -1.212266 0.175163 0.245057 0.163208
2014 -0.031282 0.093016 0.534045 -0.333894 -0.217597 -0.607250 -1.493323 0.185073 0.301838 0.069380
3477 -0.124062 0.134467 0.502478 -0.178123 -0.176236 -0.451419 -1.338344 0.243749 0.307416 0.105212
939 0.110117 0.360502 0.467344 -0.206681 -0.342521 -0.363098 -0.863909 0.246613 -0.011867 0.005221
1880 -0.147179 -0.314065 -0.023496 0.013806 0.267871 -0.202245 -0.619575 0.046771 -0.285053 0.398532
2586 -0.229385 0.166822 0.585692 -0.258508 -0.101000 -0.480914 -1.282359 0.312818 0.304892 0.038441
3379 -0.123331 0.114582 0.459339 -0.126077 -0.070115 -0.358287 -0.993010 0.188959 0.030175 0.168447
3722 -0.233987 0.189154 0.159810 0.006020 -0.060235 -0.278519 -0.815958 -0.011746 0.025370 0.234506
33617 0.077189 0.493003 0.665305 -0.296613 -0.357780 -0.558376 -1.336940 0.201772 0.159540 0.116691
3275 -0.151594 0.142638 0.507691 -0.198043 -0.045766 -0.442426 -1.200809 0.217527 0.120503 0.156116
3401 -0.174705 -0.063878 0.485508 -0.169720 -0.119496 -0.411176 -1.122305 0.115336 0.103802 0.123789
33620 0.101099 0.567263 0.496688 -0.254779 -0.352031 -0.554014 -1.231170 0.039186 0.221513 0.166672
3975 0.135946 0.432864 0.547162 -0.179850 -0.262458 -0.447174 -1.228099 0.266537 0.092186 0.084698
4568 -0.327042 -0.329223 0.417933 -0.056021 0.157980 -0.429166 -0.286102 0.064433 -0.447495 0.446122
3991 0.044772 0.544953 0.640358 -0.151143 -0.272279 -0.361370 -1.084859 0.412037 0.104769 0.058036
4294 -0.208468 0.279072 0.448866 -0.259955 -0.179735 -0.423208 -1.187885 0.195122 0.297778 0.031554
444 -0.089946 0.178939 0.555049 -0.310300 -0.290027 -0.587006 -1.509332 0.269213 0.338898 -0.058021
2149 -0.246967 0.099779 0.595106 -0.209719 -0.246862 -0.476992 -1.273799 0.175326 0.141473 0.056344
23162 -0.171490 0.163062 0.406594 -0.190680 -0.148403 -0.427609 -1.068451 0.152999 0.146513 0.144335
33619 -0.057927 0.533979 0.573429 -0.277490 -0.360917 -0.536434 -1.214955 0.164092 0.219269 0.118122
2991 -0.228534 0.236326 0.365797 -0.107700 -0.014012 -0.273526 -0.862695 0.186988 0.108501 0.113354
1881 -0.195985 -0.312208 -0.020087 0.072657 0.391122 -0.183601 -0.613761 0.136428 -0.331273 0.422655
23150 -0.201378 -0.025016 0.347429 -0.069800 -0.023845 -0.327567 -1.191466 0.153094 0.040009 0.128695
3279 -0.206852 0.148927 0.577225 -0.200232 0.019913 -0.418490 -1.136861 0.290858 0.234758 0.165645
3713 -0.137526 0.173509 0.583676 -0.186628 -0.274685 -0.538959 -1.297409 0.136681 0.257888 0.060215
4649 -0.035048 0.108751 0.515603 -0.177270 -0.209466 -0.536117 -1.141301 0.135059 0.289983 0.152460
9 0.319016 0.598227 0.359859 -0.127109 -0.239341 -0.510772 -0.626060 0.164113 -0.097725 0.023476
8441 -0.072661 0.101822 0.473672 -0.204314 -0.127225 -0.487385 -1.183936 0.141580 0.195245 0.202507
647 -0.094839 0.289624 0.344667 -0.187007 -0.261689 -0.324718 -0.927038 0.183274 0.207659 -0.007472
1727 -0.224684 0.115006 0.524046 -0.169103 -0.121899 -0.418554 -1.354693 0.114543 0.223855 0.191294
372 -0.148941 0.224228 0.581110 -0.302294 -0.171696 -0.558115 -1.313986 0.326021 0.325215 0.054736
3990 -0.048186 0.377254 0.368702 -0.112576 -0.292965 -0.374174 -0.807170 0.068221 0.134671 0.079795
4879 -0.109621 0.334832 0.390364 -0.194828 -0.105513 -0.386873 -1.287174 0.258406 0.232573 0.078709
1873 -0.401683 -0.278410 0.066908 -0.004845 0.479924 -0.231686 -0.657431 0.089005 -0.198816 0.457985
2171 -0.305124 -0.042155 0.147747 0.034455 0.361362 -0.127055 -0.751848 0.172050 -0.271846 0.408623
3720 -0.146893 0.168184 0.386324 -0.085164 -0.136012 -0.348462 -0.804780 0.119508 0.055377 0.178468
3725 -0.086792 0.214101 0.590815 -0.180692 -0.265357 -0.582996 -1.420656 0.096921 0.206316 0.032170
1333 -0.228361 0.062052 0.399910 -0.266634 0.012300 -0.542647 -1.269931 0.153438 0.166580 0.066115
1883 -0.102689 0.082232 0.528736 -0.184330 -0.021809 -0.499273 -1.525756 0.262612 0.173802 0.085158
2168 -0.313829 -0.192705 0.175527 0.014044 0.270939 -0.244729 -0.857207 0.080232 -0.198519 0.335109
3853 -0.183145 0.281149 0.477119 -0.263549 -0.138541 -0.509868 -1.199145 0.300766 0.295098 0.020756
10 0.269616 0.535417 0.431822 -0.047638 -0.222707 -0.530561 -0.794107 0.167082 0.038581 0.063309
6478 -0.144800 0.001441 0.278537 -0.149078 0.023094 -0.420613 -1.219468 0.194685 0.066178 0.092505
1342 -0.201864 0.001477 0.405353 -0.096915 -0.123282 -0.440752 -1.240057 0.032410 0.149242 0.110061
1669 -0.079222 -0.028901 0.051146 0.084983 0.020767 -0.130783 -0.894689 -0.010359 -0.201749 0.269498
1879 -0.172961 -0.182983 -0.034629 0.058853 0.267528 -0.133833 -0.749317 0.099183 -0.324237 0.357064
2161 -0.283581 -0.139465 0.161885 -0.012079 0.295167 -0.260603 -0.747977 0.027312 -0.056133 0.447146
2172 -0.299010 -0.117688 0.139279 -0.016545 0.229940 -0.221855 -0.727779 0.072590 -0.175608 0.315934
3726 -0.100500 0.127733 0.302308 -0.090972 -0.104416 -0.394027 -0.784979 0.179429 0.092311 0.144471
3888 -0.022377 0.488831 0.621050 -0.246639 -0.300636 -0.491024 -1.359202 0.165980 0.202051 0.121825
473 -0.154661 0.168825 0.478969 -0.227830 -0.176713 -0.513616 -1.386027 0.248594 0.307742 0.050917
4030 0.009212 0.421340 0.329221 -0.158370 -0.231363 -0.262991 -0.694749 0.251448 -0.056169 0.000201
1646 -0.063234 0.040957 0.380467 -0.083003 0.060497 -0.313045 -0.836006 0.109391 -0.016518 0.325299
2160 -0.207481 -0.222174 0.148267 -0.021211 0.323338 -0.209935 -0.943532 0.242616 -0.156958 0.286762
2817 -0.297027 -0.040723 0.302346 -0.039390 0.230619 -0.215869 -0.979881 0.254996 -0.126274 0.215386
4261 -0.064958 0.264717 0.406022 -0.185004 -0.235374 -0.422861 -0.924899 0.242315 0.245765 -0.010373
5028 0.058186 0.184465 0.365576 -0.091130 -0.059829 -0.411634 -1.136875 0.350500 0.189799 0.050922
3988 -0.018248 0.243819 0.361553 -0.098215 -0.195171 -0.407310 -0.773675 0.204403 0.106775 0.094579
1665 -0.265844 -0.179598 0.003390 0.030852 0.175501 -0.159140 -0.749764 0.007119 -0.220167 0.314587
3038 -0.170067 0.097392 0.395920 -0.163204 -0.057023 -0.357941 -1.045686 0.148735 0.148674 0.141017
2812 -0.100246 0.038404 0.456041 -0.197975 -0.184469 -0.523750 -1.337061 0.212442 0.310623 0.084678
33463 -0.087906 0.218874 0.500494 -0.237598 -0.210237 -0.532820 -1.231321 0.182847 0.252738 0.095059
33464 0.006302 0.170019 0.497858 -0.214478 -0.275235 -0.552849 -1.313352 0.259734 0.238099 0.062059
3977 -0.110635 0.278477 0.558550 -0.342329 -0.301355 -0.540012 -1.425374 0.184019 0.302011 0.002221
33616 0.119148 0.398072 0.463205 -0.206812 -0.265951 -0.494550 -1.242716 0.283210 0.141896 0.141206
4029 -0.161815 0.392564 0.299409 -0.179768 -0.224432 -0.311344 -0.654192 0.188192 0.096957 0.010886
4026 -0.037544 0.329884 0.336353 -0.221756 -0.243089 -0.355771 -0.750566 0.223573 0.120467 0.004397
3993 -0.021426 0.187085 0.355762 -0.102950 -0.193256 -0.355785 -0.678458 0.196512 -0.023447 0.106988
4000 -0.010111 0.170150 0.462725 -0.215265 -0.205028 -0.523384 -1.237729 0.215561 0.223537 0.078185
909 0.058012 0.297867 0.495329 -0.205735 -0.158944 -0.635155 -1.273474 0.264962 0.254223 -0.016332
9028 -0.237091 -0.020748 0.459139 -0.176441 0.089151 -0.532299 -1.196510 0.211856 0.224449 0.155797
2163 -0.171704 -0.166991 0.120277 -0.034353 0.272817 -0.217995 -0.803709 0.213256 -0.145815 0.276496
23161 0.094666 0.346107 0.483433 -0.298458 -0.438251 -0.540040 -1.206942 0.248860 0.265816 -0.022530
33465 -0.127192 0.222746 0.528465 -0.307081 -0.286781 -0.556547 -1.269399 0.267057 0.207623 0.036809
3724 -0.102312 0.153665 0.486301 -0.216926 -0.249911 -0.510619 -1.413211 0.235282 0.323877 -0.006664
3871 -0.181902 0.259161 0.525369 -0.167797 -0.223741 -0.386366 -1.153718 0.249177 0.044823 -0.021198
3995 -0.005110 0.360594 0.499044 -0.331992 -0.315863 -0.484053 -1.357554 0.218602 0.324225 0.020250
904 0.080133 0.414624 0.536684 -0.323760 -0.369457 -0.574142 -1.345150 0.170126 0.310189 0.090958
4114 0.095842 0.298123 0.253432 -0.139900 -0.250962 -0.369305 -0.932558 0.146537 0.134027 0.045532
8437 -0.146366 0.071301 0.512339 -0.220690 -0.193586 -0.496583 -1.322875 0.146119 0.251952 0.090702
2538 -0.081471 0.158851 0.470014 -0.244828 -0.178023 -0.574047 -1.235402 0.195301 0.323668 0.039671
373 -0.042098 0.100876 0.439409 -0.259334 -0.265367 -0.544134 -1.271588 0.171184 0.269418 0.057468
2169 -0.311260 -0.132630 0.117985 0.061878 0.301372 -0.152094 -0.874242 0.085522 -0.178349 0.375504
2863 -0.301214 0.089700 0.598600 -0.150192 0.017837 -0.304571 -1.255859 0.326043 -0.103842 0.122805
3163 -0.239775 -0.165708 0.266286 -0.021784 0.067443 -0.206181 -0.839798 0.092712 -0.200624 0.251637
4562 -0.060274 0.137535 0.459124 -0.205468 -0.253157 -0.520856 -1.229378 0.215090 0.268090 0.023941
3511 0.010485 0.195414 0.458860 -0.278901 -0.358003 -0.504341 -1.222988 0.263070 0.297590 -0.015664
23158 0.051244 0.233935 0.500802 -0.202522 -0.354760 -0.439508 -1.211632 0.073314 0.243030 0.107456
1745 -0.230057 -0.046525 0.083619 0.008884 0.089454 -0.216780 -0.999355 0.066290 -0.031069 0.228828
3979 -0.132887 0.219944 0.332334 -0.152922 -0.138151 -0.416038 -0.751505 0.200964 0.034627 0.089394
3989 -0.005557 0.275574 0.586638 -0.335546 -0.320661 -0.581699 -1.249488 0.233780 0.230932 0.064335
4025 0.007516 0.271627 0.347737 -0.256195 -0.139848 -0.422982 -0.786394 0.266194 0.116877 0.038220
4033 -0.130633 0.371808 0.291399 -0.231814 -0.167166 -0.315829 -0.664868 0.244668 0.047722 0.053943
1303 -0.140814 -0.249636 0.151242 -0.139565 -0.048960 -0.462806 -0.885221 0.136521 -0.169089 -0.030773
8436 -0.125434 -0.045517 0.389783 -0.039211 0.008921 -0.300105 -1.331342 0.043081 -0.080756 0.223906
1662 -0.096211 0.170695 0.086796 0.005788 0.191401 -0.268542 -0.706980 0.110975 0.009780 0.369507
1982 -0.119308 0.133868 0.544994 -0.254052 -0.008930 -0.489670 -1.060718 0.292123 0.238997 0.139533
107 -0.036470 0.124704 0.486957 -0.125630 -0.171707 -0.460019 -1.230303 0.249233 0.209325 0.105952
462 -0.082912 0.072145 0.501948 -0.225952 -0.220076 -0.568580 -1.384553 0.160563 0.335702 0.048044
3006 0.084235 0.281676 0.435188 -0.293752 -0.279095 -0.437677 -1.192124 0.206841 0.189229 0.070309
2167 -0.209590 0.009971 0.143784 -0.006823 0.243108 -0.160855 -0.819341 0.191786 -0.120056 0.299444
33467 -0.072360 0.311732 0.480566 -0.230430 -0.232076 -0.500133 -1.227811 0.241285 0.257082 0.038169
3985 -0.020955 0.518563 0.590856 -0.088891 -0.326080 -0.376963 -1.069901 0.333561 0.027605 -0.014636
20883 -0.201717 0.375623 0.428378 -0.187463 -0.297012 -0.387770 -1.154129 0.146128 0.262419 0.031614
3715 -0.140381 0.256962 0.531052 -0.229121 -0.242433 -0.489554 -1.338718 0.213829 0.235177 0.038263
3623 -0.123381 0.290407 0.397022 -0.091159 -0.162728 -0.391961 -1.198249 0.160608 0.219331 0.081638
3994 -0.080913 0.287314 0.510657 -0.337670 -0.333553 -0.521826 -1.263034 0.189637 0.243494 0.067174
903 -0.068592 0.302695 0.578861 -0.242452 -0.271589 -0.561026 -1.225122 0.207518 0.255945 0.062574
3992 -0.012855 0.264711 0.485027 -0.289790 -0.273291 -0.532603 -1.214049 0.327051 0.252235 -0.007632
963 -0.079069 0.224985 0.485918 -0.168315 -0.226004 -0.385494 -1.094140 0.181005 -0.080330 0.055994
1555 0.003721 0.008068 0.389602 -0.119752 -0.098431 -0.426337 -1.004947 0.129565 0.163586 0.206560
1658 -0.093839 0.073933 0.520702 -0.185587 -0.135159 -0.473229 -1.409528 0.182252 0.263762 0.105722
1661 -0.269915 0.091629 0.049501 0.047936 0.192078 -0.215123 -0.501164 -0.074618 -0.071210 0.451395
2164 -0.221045 0.013253 0.457586 -0.171944 -0.148917 -0.432379 -1.370926 0.261674 0.210971 0.013978
2806 -0.270092 0.035269 0.220712 -0.057331 0.153639 -0.238336 -0.838401 0.155413 -0.034524 0.251689
3719 -0.083234 0.212860 0.547381 -0.227942 -0.304178 -0.568122 -1.349367 0.114011 0.272369 0.070295
62 -0.038234 0.246879 0.501051 -0.167767 -0.191037 -0.393560 -1.201609 0.222448 0.155515 0.031999
716 -0.085543 0.194951 0.463586 -0.203505 -0.198376 -0.408966 -1.014177 0.235115 0.137439 0.051509
2933 -0.108557 0.128575 0.424513 -0.117556 -0.088262 -0.353003 -1.049874 0.222849 0.107603 0.107340
4032 -0.031270 0.234356 0.356309 -0.199690 -0.237434 -0.375570 -0.741063 0.180640 0.076924 0.046279
3594 -0.097332 0.207287 0.502444 -0.211096 -0.239713 -0.497221 -1.174393 0.197276 0.190173 0.064478
1299 -0.189237 0.068310 0.141261 -0.078032 0.228061 -0.448743 -0.812431 0.213641 0.065710 0.118384
1666 -0.014545 -0.002944 0.129061 0.037067 0.189918 -0.227536 -0.568926 0.137103 -0.247954 0.367973
1674 -0.079145 0.038338 0.336765 -0.116332 -0.181792 -0.465453 -1.364506 0.122229 0.229660 0.074978
9029 -0.238972 -0.147741 0.398716 -0.092746 0.059331 -0.486924 -1.264313 0.200002 0.178087 0.136105
1763 -0.117665 0.084913 0.452297 -0.216991 -0.151387 -0.475936 -1.317804 0.256207 0.264516 0.038490
18675 -0.056720 0.202806 0.458007 -0.257592 -0.313452 -0.503913 -1.231501 0.215322 0.258514 -0.006918
3502 -0.063475 0.074156 0.456524 -0.191985 -0.045075 -0.466080 -1.112675 0.130266 0.157212 0.242868
3723 -0.179146 0.176345 0.582156 -0.206262 -0.211739 -0.583451 -1.309553 0.130547 0.278467 0.080179
3951 -0.069338 0.239734 0.445468 -0.138493 -0.244776 -0.407582 -0.972295 0.215480 0.150476 0.016806
68 0.077290 0.392765 0.462144 -0.183198 -0.228101 -0.460874 -1.098345 0.160261 0.226984 0.111195
1187 -0.077813 0.274030 0.378909 -0.210214 -0.094433 -0.404204 -1.011225 0.245015 0.290148 0.076040
1183 -0.106967 0.376704 0.430313 -0.256294 -0.184512 -0.369593 -0.999497 0.187170 0.262396 0.091146
1931 -0.027680 0.220551 0.477435 -0.182509 -0.153129 -0.494770 -1.190089 0.187131 0.129205 0.083290
6474 0.052243 -0.004268 0.388007 -0.100083 0.014694 -0.557719 -1.185262 0.210504 0.252190 0.117717
1654 -0.296775 -0.012624 0.024297 0.031372 0.225396 -0.180436 -0.866867 0.083891 -0.085956 0.303526
1653 -0.217650 0.042996 0.027001 0.068520 0.184534 -0.071321 -0.899379 0.132072 -0.218068 0.279867
1672 -0.135047 0.120239 0.038643 -0.019628 0.002451 -0.190508 -0.747134 0.043037 -0.069192 0.203567
8439 -0.201673 0.230806 0.412246 -0.209581 -0.139166 -0.477989 -1.204648 0.262682 0.215286 -0.006692
1730 -0.064914 0.062193 0.252025 -0.200294 -0.137550 -0.338269 -1.240905 0.178654 0.194218 0.108858
9030 -0.196452 -0.052899 0.390040 -0.140824 -0.043862 -0.464434 -1.334262 0.265614 0.225449 0.130199
9043 -0.011154 0.213587 0.475691 -0.075459 -0.153697 -0.387222 -1.081510 0.152414 0.027698 0.255075
12481 -0.172798 0.056423 0.425197 -0.195669 -0.169392 -0.455176 -1.342107 0.230946 0.216109 0.031445
2807 -0.103965 0.036532 0.430880 -0.239669 -0.248201 -0.538015 -1.292920 0.185297 0.309745 -0.056822
3173 -0.308022 -0.035495 0.179164 -0.083683 0.183223 -0.194351 -0.890187 0.209504 -0.081036 0.228120
3169 -0.291917 -0.001766 0.094658 -0.076707 0.262445 -0.192606 -0.858275 0.161800 -0.083698 0.300426
3996 -0.020707 0.301029 0.455592 -0.219398 -0.253739 -0.484467 -1.242157 0.300703 0.216522 0.019628
905 -0.028230 0.319834 0.493295 -0.235285 -0.267970 -0.518581 -1.258365 0.240964 0.269057 0.036108
4002 -0.110325 0.219365 0.430144 -0.261590 -0.290580 -0.541653 -1.295433 0.211427 0.304390 0.030211
911 -0.065279 0.278867 0.449095 -0.309478 -0.261949 -0.578153 -1.256734 0.198737 0.287504 0.026686
72 -0.126998 0.207129 0.445518 -0.205834 -0.216365 -0.481757 -1.133638 0.162564 0.271044 0.097074
1186 -0.171033 0.390492 0.386262 -0.171744 -0.203048 -0.302362 -1.018765 0.180776 0.215128 0.025835
3976 0.024826 0.273948 0.431429 -0.301120 -0.360351 -0.573320 -1.255346 0.151769 0.275138 -0.034376
938 0.054098 0.204007 0.401557 -0.259091 -0.153041 -0.375285 -0.836844 0.260705 -0.010212 0.093765
3984 -0.082429 0.255307 0.449170 -0.235824 -0.238402 -0.525294 -1.248421 0.196816 0.177704 -0.009313
4291 0.048280 0.398334 0.466604 -0.250016 -0.353220 -0.411075 -0.926148 0.156055 0.195579 0.050004
1388 -0.059106 0.044958 0.515063 -0.244739 -0.213108 -0.587902 -1.405257 0.209320 0.288336 0.065649
2319 -0.068193 -0.014308 0.370996 -0.147700 -0.009245 -0.329105 -1.039282 0.258953 -0.038745 0.132866
3166 -0.199838 -0.055146 0.405578 -0.190971 -0.210110 -0.533913 -1.326652 0.111149 0.296925 0.050657
3997 0.061449 0.132319 0.466346 -0.193209 -0.231116 -0.508791 -1.215813 0.205754 0.201600 0.083692
906 -0.043323 0.300823 0.437590 -0.269142 -0.316819 -0.511596 -1.156993 0.138263 0.223499 0.039710
33458 -0.135848 0.384852 0.346839 -0.209049 -0.339413 -0.348657 -1.114218 0.109916 0.192515 0.022909
1422 -0.003775 0.271486 0.350115 -0.129209 -0.318415 -0.380623 -1.218273 0.052022 0.187298 0.080185
1181 -0.079438 0.402116 0.418758 -0.237494 -0.174085 -0.368338 -0.999775 0.191186 0.209980 0.103390
2993 -0.056158 0.140674 0.358849 -0.139729 -0.075471 -0.379398 -0.812808 0.105784 0.127472 0.185706
4028 -0.129270 0.346420 0.366044 -0.156162 -0.166191 -0.328469 -0.816198 0.189483 0.005587 0.049272
3982 -0.031968 0.177581 0.437308 -0.308228 -0.291604 -0.569840 -1.229784 0.218487 0.270381 -0.036056
3998 -0.057941 0.292531 0.470951 -0.252850 -0.263212 -0.471539 -1.202850 0.248787 0.208707 0.034424
907 -0.056026 0.274269 0.413328 -0.276176 -0.286312 -0.456882 -1.315679 0.243022 0.291310 0.006756
4105 -0.043786 0.306155 0.344804 -0.167398 -0.231887 -0.424414 -0.796292 0.192414 0.234515 0.053927
4295 -0.086096 0.344394 0.449340 -0.153379 -0.231587 -0.383705 -1.077662 0.220469 0.208710 0.063283
33466 -0.086672 0.176581 0.419550 -0.238829 -0.220010 -0.486596 -1.199310 0.249279 0.216266 0.032322
2166 -0.107203 0.025363 0.102478 -0.069687 0.195574 -0.241707 -0.693078 0.254550 -0.090103 0.225690
2165 -0.224973 -0.102787 0.456394 -0.194913 -0.067168 -0.506430 -1.350585 0.168585 0.255858 0.081963
2170 -0.223243 -0.014162 0.119440 0.000417 0.318675 -0.239396 -0.793048 0.081922 0.004634 0.418491
2218 -0.090982 0.122756 0.503306 -0.141765 -0.186629 -0.458719 -1.251727 0.214973 0.227557 0.052197
2814 0.031319 0.055333 0.479326 -0.275844 -0.282780 -0.583820 -1.346027 0.194749 0.272738 0.003282
18678 -0.102838 0.140104 0.438768 -0.250874 -0.279079 -0.525097 -1.183699 0.230121 0.258258 -0.008507
2873 -0.177809 0.010609 0.480508 -0.178100 -0.003864 -0.528029 -1.249671 0.229441 0.277446 0.104195
3839 -0.120072 0.258546 0.517477 -0.226419 -0.117635 -0.486248 -1.264051 0.368645 0.300366 0.033434
3870 -0.176040 0.341370 0.515368 -0.213204 -0.090767 -0.442785 -1.148371 0.345447 0.225646 0.090555
4531 -0.103332 0.265954 0.461195 -0.253072 -0.251446 -0.497485 -1.081115 0.236123 0.211943 0.030333
4876 -0.077463 0.287858 0.400824 -0.239980 -0.283539 -0.454588 -1.121253 0.214563 0.242927 0.017356
11 0.241261 0.410633 0.318920 -0.138098 -0.237939 -0.560463 -0.915757 0.111383 0.022953 0.037487
20 0.169582 0.335297 0.326058 -0.143602 -0.285472 -0.475641 -0.752505 0.171406 -0.112913 -0.088907
1814 -0.134485 0.176416 0.415400 -0.222227 -0.016844 -0.446822 -1.218315 0.189324 0.143949 0.178662
529 -0.177427 0.166994 0.357981 -0.177644 -0.081967 -0.346337 -1.128772 0.178191 0.144838 0.110395
18679 -0.114125 0.184930 0.398538 -0.239359 -0.179682 -0.513972 -1.185722 0.244107 0.200433 -0.027861
4027 -0.081904 0.324830 0.382974 -0.171448 -0.209835 -0.361368 -0.746574 0.144833 0.113266 0.094394
3980 -0.046477 0.307362 0.458488 -0.261893 -0.295963 -0.505855 -1.233068 0.226777 0.291813 -0.030556
1293 -0.261396 0.254306 0.382787 -0.119512 0.020072 -0.447254 -1.050090 0.147301 0.138818 0.086815
1664 -0.114212 0.086334 0.331550 -0.130534 -0.136588 -0.398411 -1.273894 0.140079 0.245651 0.077365
1673 -0.117975 0.058108 0.160858 -0.013817 0.237461 -0.242479 -0.674111 0.249717 -0.082552 0.270506
1979 -0.163134 0.241974 0.465062 -0.160832 -0.088591 -0.364919 -1.303270 0.209498 0.145798 0.141168
2075 -0.119195 0.143425 0.398007 -0.092951 -0.042005 -0.392445 -0.931250 0.094503 0.142330 0.196477
2368 -0.020281 0.120847 0.409355 -0.169808 -0.195865 -0.488442 -1.194329 0.169683 0.266861 0.096003
2866 0.007344 0.079945 0.292856 -0.230583 -0.037291 -0.470890 -1.136697 0.318213 0.163185 0.124613
3170 -0.270570 -0.096733 0.230579 -0.096186 0.163730 -0.273863 -0.826218 0.103227 -0.016926 0.259959
3165 -0.379356 -0.036550 0.126829 0.025234 0.191072 -0.138778 -0.873531 0.096213 -0.123898 0.252604
4140 -0.121515 0.214018 0.462201 -0.206864 -0.146266 -0.451618 -1.124135 0.236727 0.256007 0.088211
4092 -0.135515 0.146009 0.228697 -0.125472 -0.245188 -0.342049 -0.804907 0.142383 0.117628 0.016444
4102 -0.117852 0.175963 0.241815 -0.109296 -0.188563 -0.352003 -0.682270 0.074433 0.048892 0.126451
17 0.078957 0.354897 0.389836 -0.088723 -0.249742 -0.474624 -0.964009 0.121439 0.007624 -0.022741
2992 -0.163752 0.000559 0.360103 -0.190963 -0.059012 -0.371344 -0.890843 0.142584 0.061264 0.148129
4024 -0.119844 0.331148 0.395087 -0.191840 -0.213750 -0.373179 -0.839353 0.171755 0.156971 0.055850
4290 -0.129112 0.225647 0.337812 -0.198416 -0.293665 -0.418727 -0.892507 0.108352 0.225139 0.025719
1185 -0.144857 0.319510 0.463652 -0.193341 -0.134021 -0.361372 -0.883347 0.192735 0.105662 0.104593
1670 -0.020118 0.122237 0.341717 -0.179461 -0.183053 -0.471019 -1.330771 0.237869 0.278866 0.020759
8438 -0.127778 0.049416 0.369978 -0.150815 -0.195508 -0.459808 -1.194979 0.122824 0.211230 0.063196
1667 -0.137404 -0.036471 0.163236 -0.082167 0.105269 -0.204939 -0.674157 0.082898 -0.223737 0.287264
2457 -0.132321 -0.061365 0.165367 -0.127246 0.097690 -0.261474 -0.750058 0.242146 -0.025932 0.188975
2699 -0.187503 -0.095405 0.075459 -0.106572 0.220778 -0.259693 -0.765722 0.185371 -0.027744 0.245217
2688 -0.114576 0.056867 0.457919 -0.236665 -0.283715 -0.523485 -1.320374 0.129659 0.316756 0.017457
2811 -0.111773 0.088530 0.454202 -0.225408 -0.202621 -0.522820 -1.444969 0.184720 0.314148 0.036916
2805 -0.115258 0.111547 0.443271 -0.182026 -0.190260 -0.503512 -1.245669 0.216410 0.231944 0.047300
3277 -0.138465 0.169333 0.422493 -0.089491 -0.033019 -0.299333 -1.111911 0.208010 0.095541 0.171689
23160 -0.073616 0.237305 0.436957 -0.248961 -0.125056 -0.478535 -1.135755 0.237766 0.166608 0.068368
4094 -0.096587 0.150857 0.300365 -0.129409 -0.298297 -0.422006 -0.715211 0.003309 0.101236 0.120650
4104 0.043841 0.114665 0.287915 -0.129534 -0.158087 -0.420076 -0.776380 0.158116 0.202262 0.120159
36256 -0.002504 0.261381 0.524722 -0.173259 -0.187511 -0.566089 -1.193778 0.221878 0.274640 0.119286
4446 -0.052678 0.202460 0.426926 -0.206962 -0.356928 -0.475810 -1.242364 0.080744 0.226561 0.012184
1188 -0.251370 0.230971 0.353455 -0.193257 -0.222182 -0.299054 -1.046535 0.153225 0.204795 0.034233
3625 -0.012523 0.213404 0.420043 -0.169843 -0.144920 -0.456273 -1.138188 0.231049 0.221876 0.098456
3774 -0.071416 0.130753 0.438924 -0.235908 -0.249900 -0.522655 -1.245767 0.189912 0.258907 0.003421
2989 -0.197585 0.250481 0.371341 -0.129159 -0.113078 -0.304448 -0.942029 0.175144 0.051938 0.087430
34650 -0.021188 0.363771 0.458074 -0.235800 -0.231543 -0.492152 -1.223147 0.275713 0.224679 -0.013075
6475 -0.044490 0.087255 0.336533 -0.222044 -0.205431 -0.481393 -1.182340 0.214566 0.283336 -0.003373
1297 -0.149235 -0.074003 0.123249 -0.116919 0.187779 -0.423348 -0.751881 0.224968 -0.045230 0.066612
1300 -0.028611 -0.050795 0.122846 -0.067893 0.006437 -0.427525 -0.818331 0.128611 -0.037166 0.082393
1663 -0.239693 0.040229 0.049065 0.042083 0.038516 -0.137413 -0.831929 -0.011801 -0.138083 0.252821
1898 -0.057305 0.075932 0.250884 -0.028111 0.182189 -0.369456 -0.783111 0.241254 0.097269 0.255871
2015 0.052262 0.216219 0.364208 -0.101602 -0.117013 -0.361279 -1.197062 0.091414 0.101601 0.172279
18680 -0.171384 0.077348 0.354622 -0.144752 -0.204392 -0.400342 -1.219005 0.129503 0.286803 0.126510
12901 -0.070136 0.152780 0.414745 -0.213662 -0.200894 -0.499226 -1.193984 0.171215 0.271731 0.054435
2685 -0.245527 -0.108132 0.162355 -0.010701 0.199264 -0.240941 -0.880277 0.103177 -0.002947 0.308401
2703 -0.271711 -0.060335 0.190911 -0.018089 0.050222 -0.227843 -0.906977 0.109203 -0.170333 0.155556
3999 -0.125218 0.131138 0.497802 -0.230640 -0.258962 -0.467401 -1.277421 0.066081 0.174195 0.090784
908 0.000918 0.208357 0.417155 -0.218395 -0.289894 -0.510970 -1.137406 0.176699 0.190668 -0.007107
3162 -0.234890 -0.024783 0.207273 -0.048621 0.041076 -0.201907 -0.963721 0.051371 -0.067986 0.203901
3172 -0.337942 -0.150661 0.114395 -0.033644 0.217725 -0.170403 -0.801965 0.123317 -0.201794 0.251248
34651 0.013843 0.324138 0.459384 -0.238414 -0.249557 -0.567411 -1.235568 0.247981 0.275899 -0.000418
4095 -0.116500 0.209509 0.458307 -0.218256 -0.232965 -0.458733 -1.204813 0.281404 0.126012 0.046961
2137 -0.039374 0.160663 0.418346 -0.160337 -0.249900 -0.461220 -1.144753 0.155050 0.159103 0.071972
4722 -0.065324 0.161563 0.342304 -0.186908 -0.152531 -0.435251 -1.173062 0.256163 0.216472 0.011318
1713 -0.143843 0.161836 0.276230 0.008539 0.020800 -0.280034 -1.139827 0.158136 0.209447 0.155912
2023 -0.148431 0.386383 0.253936 -0.011771 0.061849 -0.142456 -0.802252 0.214973 -0.082757 0.221308
851 -0.145808 0.308737 0.409063 -0.282047 -0.105769 -0.296588 -0.921901 0.245020 0.029919 0.076400
1671 -0.281003 -0.158508 0.103776 0.006239 0.234811 -0.170222 -0.720510 0.150787 -0.232687 0.269646
1656 -0.135436 0.074156 0.403885 -0.143962 -0.174559 -0.448643 -1.269207 0.153197 0.229031 0.082278
12480 -0.199952 0.060893 0.478005 -0.187320 -0.091551 -0.498775 -1.241687 0.209796 0.236213 0.074497
3950 -0.060322 0.224291 0.409365 -0.107060 -0.027993 -0.400746 -1.213775 0.321962 0.160784 0.071039
3171 -0.371028 -0.054455 0.168278 -0.068416 0.130201 -0.286452 -0.970888 0.130840 0.107409 0.169648
4001 0.087828 0.227178 0.397439 -0.242096 -0.315728 -0.543067 -1.184566 0.147760 0.256658 0.079916
910 -0.093013 0.319499 0.451315 -0.312982 -0.235533 -0.508003 -1.156298 0.283354 0.224474 -0.022068
4112 -0.017052 0.243908 0.457392 -0.296321 -0.315770 -0.534698 -1.259348 0.205770 0.242060 -0.012848
12900 -0.103895 0.194821 0.336557 -0.241650 -0.243221 -0.440378 -1.230873 0.185046 0.258592 0.023119
31221 -0.092971 0.251634 0.361861 -0.164843 -0.258533 -0.454566 -1.127237 0.190568 0.281543 0.033764
12 0.099084 0.348253 0.337345 -0.194729 -0.127212 -0.538427 -0.887501 0.131522 -0.060950 0.058266
24 0.124619 0.342597 0.245389 -0.097041 -0.236658 -0.540683 -0.658258 0.083312 0.002093 -0.030555
22 0.177715 0.311993 0.275109 -0.116028 -0.213577 -0.442329 -0.718012 0.166727 -0.145868 -0.047536
210 -0.003207 0.180411 0.388092 -0.202623 -0.171315 -0.350907 -1.186187 0.224229 0.041636 0.043976
1182 -0.031263 0.332716 0.447851 -0.217048 -0.198647 -0.399665 -0.896258 0.265978 0.177314 0.035450
4101 -0.030211 0.182900 0.276093 -0.159795 -0.156643 -0.356585 -0.887622 0.280960 0.145840 -0.025308
1189 -0.084101 0.320480 0.303241 -0.157542 -0.172802 -0.342814 -1.052636 0.110144 0.208917 0.094522
2020 -0.148724 0.146186 0.348892 -0.230950 -0.299258 -0.529896 -1.228004 0.019582 0.298687 0.001428
2816 -0.121170 0.117021 0.424092 -0.202661 -0.180662 -0.500849 -1.270854 0.215521 0.338560 0.070385
4093 -0.011636 0.200271 0.212721 -0.123517 -0.173724 -0.423877 -0.692714 0.149417 0.235774 0.109290
4292 -0.074738 0.177111 0.348979 -0.131684 -0.187746 -0.380473 -1.020727 0.186613 0.126609 0.034850
1192 -0.028861 0.273652 0.367573 -0.148132 -0.176339 -0.354828 -0.938589 0.164345 0.166006 0.101776
2818 -0.081202 0.091714 0.455969 -0.219815 -0.182390 -0.569782 -1.194943 0.186206 0.279670 0.040490
2058 -0.150647 0.033527 0.125350 0.008987 0.196808 -0.259729 -0.759436 0.120823 -0.055419 0.292464
621 -0.062465 0.145156 0.476104 -0.195761 -0.233631 -0.525505 -1.236265 0.142992 0.191336 0.062880
2913 -0.203179 0.122303 0.199398 -0.091516 -0.022964 -0.275834 -0.985382 0.136542 0.147970 0.088534
2689 -0.286922 0.017813 0.194570 0.018832 0.012182 -0.129828 -1.008892 0.099306 -0.126254 0.129093
43691 -0.003689 0.107056 0.453007 -0.143392 -0.170798 -0.461714 -1.166315 0.120808 0.097936 0.173132
19403 -0.035724 0.043464 0.411901 -0.149675 -0.152737 -0.516800 -1.190272 0.112923 0.264934 0.213010
23163 -0.050267 0.188763 0.386908 -0.225084 -0.214956 -0.507544 -1.145864 0.167835 0.226457 0.048692
3489 -0.240492 0.000880 0.282287 -0.028639 0.112138 -0.183620 -1.010298 0.274977 -0.096070 0.171434
3555 0.068782 0.117006 0.203405 -0.037852 -0.004032 -0.357910 -0.888338 0.274894 0.135953 0.159378
3983 0.005855 0.296430 0.518191 -0.258252 -0.252893 -0.605431 -1.305815 0.179839 0.255259 0.028699
4031 -0.169628 0.233088 0.272266 -0.131551 -0.210514 -0.299048 -0.687162 0.097858 0.027485 0.062690
4086 -0.031472 0.177233 0.311221 -0.113711 -0.156346 -0.401711 -0.772014 0.147506 0.122723 0.110375
4293 -0.069441 0.054197 0.399781 -0.176874 -0.288257 -0.474175 -1.166700 0.126614 0.210601 0.033790
15 0.157201 0.281332 0.216440 -0.163623 -0.100007 -0.527873 -0.810525 0.174426 0.015967 0.072773
237 -0.155419 0.248977 0.300810 -0.178438 -0.039962 -0.311247 -0.908564 0.170656 0.145831 0.107053
1675 -0.079746 0.185414 0.346462 -0.142809 -0.173338 -0.354591 -1.297899 0.198338 0.201218 0.094114
852 -0.143912 0.245431 0.324240 -0.162103 0.014979 -0.327222 -1.070371 0.267648 0.168558 0.097626
2990 -0.247853 0.344113 0.261127 -0.128334 0.010630 -0.202078 -0.815611 0.144606 -0.017713 0.154899
3981 -0.055391 0.241151 0.373175 -0.246875 -0.281102 -0.518464 -1.138114 0.149247 0.249719 0.043329
4090 -0.177643 0.290372 0.457045 -0.177328 -0.272580 -0.445318 -1.020112 0.110415 0.217021 0.036426
4110 -0.054249 0.276775 0.310112 -0.154254 -0.206402 -0.340757 -0.772563 0.277283 0.051452 -0.016283
8440 -0.173314 0.036315 0.453891 -0.194531 -0.164525 -0.516342 -1.246381 0.165652 0.220596 0.066087
33468 -0.024855 0.224988 0.369437 -0.187784 -0.288159 -0.539294 -1.213513 0.182763 0.256541 0.024415
2692 -0.266856 0.028794 0.108953 0.014972 0.106247 -0.164307 -0.952156 0.048049 -0.071378 0.257591
2702 -0.208181 0.040006 0.152344 0.011659 0.138181 -0.194096 -0.937763 0.111037 -0.102489 0.244714
2865 -0.047170 0.280562 0.427336 -0.155011 -0.163548 -0.376995 -1.127610 0.244238 0.108757 0.045865
2878 -0.099209 0.170599 0.381769 -0.145463 -0.164606 -0.454991 -1.104918 0.249084 0.019417 0.043386
4217 -0.230343 0.426498 0.338187 -0.225350 -0.174531 -0.399204 -1.002035 0.259222 0.127094 0.057869
36259 -0.009677 0.084273 0.484949 -0.247021 -0.232637 -0.543162 -1.195579 0.283462 0.164388 0.085649
4858 0.040250 0.282611 0.450888 -0.129210 -0.116878 -0.481098 -0.650614 0.238385 0.031221 0.217176
267 -0.002072 0.161384 0.466218 -0.151478 -0.236440 -0.521205 -1.217893 0.155286 0.240089 0.031404
1191 -0.086820 0.260990 0.263890 -0.162715 -0.122503 -0.337418 -0.911704 0.208150 0.209125 0.057175
683 0.001565 0.285669 0.375541 -0.194663 -0.203461 -0.461484 -0.985409 0.147834 0.251264 0.067695
694 -0.105905 0.170952 0.339143 -0.138829 -0.127357 -0.345677 -0.966680 0.159414 0.094773 0.064771
2988 -0.357587 0.147236 0.274620 -0.120371 0.053422 -0.310458 -0.904905 0.145173 0.097763 0.151700
1153 -0.060325 0.172749 0.439682 -0.221117 -0.272312 -0.567227 -1.198389 0.162600 0.318305 -0.014677
1302 -0.199740 0.164846 0.135919 -0.097499 0.058155 -0.481679 -0.710765 0.062482 -0.078518 0.055813
3866 -0.044416 0.139671 0.286752 -0.145238 -0.135635 -0.404944 -0.949380 0.222740 0.153611 0.109179
1631 -0.146512 -0.036742 0.047773 -0.025163 0.098612 -0.236847 -0.823649 0.065167 -0.084807 0.233991
1726 -0.070397 0.194562 0.360668 -0.082799 -0.177320 -0.441751 -1.169836 0.088318 0.218390 0.114816
371 -0.085471 0.189723 0.389685 -0.223679 -0.236554 -0.435621 -1.206999 0.243543 0.226010 0.065436
2162 -0.104658 0.100522 0.354412 -0.164774 -0.034173 -0.464761 -1.161855 0.236733 0.182270 0.100169
12484 -0.208569 0.011203 0.338618 -0.187115 -0.134201 -0.450716 -1.216405 0.176111 0.227895 0.075134
2222 -0.039004 0.178643 0.320447 -0.146056 0.004972 -0.377281 -1.135729 0.304384 0.109247 0.133593
2321 -0.127161 0.077230 0.475784 -0.157274 -0.268513 -0.497979 -1.191059 0.165459 0.155563 0.124286
624 -0.072705 0.144526 0.372997 -0.223038 -0.247215 -0.439762 -1.137224 0.211508 0.193661 0.000228
12903 -0.047689 0.220680 0.388017 -0.231895 -0.290846 -0.487012 -1.184875 0.144364 0.257621 0.071619
2463 -0.263403 0.038669 0.208694 -0.079180 0.057961 -0.204492 -0.940015 0.106015 -0.020302 0.170740
2472 -0.193947 0.157111 0.074172 -0.061849 0.298309 -0.221291 -0.789244 0.341725 0.017038 0.208618
2701 -0.112468 -0.055156 0.232583 0.010299 -0.004684 -0.270680 -0.917586 0.046062 -0.003464 0.218273
1437 -0.083717 0.181037 0.481771 -0.184912 -0.139280 -0.461764 -1.260834 0.263376 0.252526 0.072389
2810 -0.110973 0.127691 0.428824 -0.282802 -0.234152 -0.513554 -1.218349 0.154526 0.224359 0.038379
2809 -0.070698 0.165132 0.437483 -0.171289 -0.151730 -0.527865 -1.181251 0.270672 0.214364 0.016831
4332 -0.036173 0.210052 0.192846 -0.088811 -0.101808 -0.256331 -0.727332 0.229147 -0.099108 0.066023
36781 -0.006117 0.303135 0.311606 -0.082208 -0.143704 -0.398151 -1.030728 0.243917 -0.011394 0.037455
4444 -0.022628 0.032295 0.360344 -0.155970 -0.237228 -0.444494 -1.014860 0.138795 0.100546 0.055668
17966 -0.044319 0.256426 0.368840 -0.167601 -0.216856 -0.468639 -1.160661 0.226966 0.240273 0.014550
34642 -0.015751 0.192068 0.330598 -0.218639 -0.275860 -0.496102 -1.036927 0.108084 0.194680 -0.008696
14 0.137298 0.327523 0.182339 -0.114029 -0.134910 -0.455991 -0.737170 0.132780 -0.103204 0.036549
26 -0.001027 0.412576 0.233221 -0.109891 -0.257455 -0.427899 -0.796255 0.092161 0.072868 -0.003997
4251 -0.066448 0.237819 0.407017 -0.238108 -0.275608 -0.497314 -1.193158 0.183306 0.226944 -0.040975
235 -0.098615 0.204067 0.300141 -0.193803 -0.142590 -0.383006 -0.815158 0.162797 0.204906 0.068537
4096 -0.145047 0.422526 0.362795 -0.074041 -0.161488 -0.307254 -1.017367 0.260768 0.103925 0.000946
1190 -0.056229 0.339062 0.375374 -0.254033 -0.268410 -0.410409 -0.959836 0.168249 0.164864 0.005792
1761 -0.000276 0.106999 0.159006 -0.073296 0.025379 -0.248122 -0.773271 0.136401 -0.036993 0.220822
2021 0.011672 0.212651 0.480175 -0.261832 -0.174432 -0.484132 -1.236281 0.238937 0.219348 0.030198
601 -0.142575 0.195743 0.318596 -0.086866 -0.000392 -0.324240 -1.120741 0.074091 0.036658 0.208291
9070 -0.027431 0.281960 0.427714 -0.140948 -0.244742 -0.426785 -1.225940 0.218062 0.282781 0.030966
34652 -0.031560 0.253042 0.448248 -0.208635 -0.290326 -0.511436 -1.210961 0.220125 0.244191 0.018690
1620 -0.011630 -0.024715 0.085428 -0.061509 0.121865 -0.323661 -0.698706 0.133180 -0.017722 0.236058
1906 -0.114699 0.063827 0.346969 -0.029145 -0.071892 -0.283187 -0.853259 0.074955 0.118197 0.265224
1937 -0.080987 0.019917 0.250558 -0.063410 0.004755 -0.340100 -1.034577 0.152311 0.139438 0.194715
4229 0.000764 0.291872 0.191698 -0.096234 -0.075703 -0.326524 -0.920681 0.308178 0.196258 0.076410
2156 -0.218570 0.057683 0.309812 -0.074610 -0.047656 -0.365561 -1.245985 0.173997 0.143031 0.046892
2173 -0.072532 -0.025281 0.274061 -0.048049 0.077018 -0.260130 -0.833368 0.188090 -0.072927 0.214186
2551 -0.143059 0.145922 0.321415 -0.143493 -0.121244 -0.378214 -1.176472 0.171981 0.127394 0.102615
2994 -0.039689 0.185636 0.257932 -0.066955 -0.058880 -0.326657 -1.049142 0.152919 0.087725 0.133523
3484 -0.178318 0.097635 0.174349 0.044278 0.084010 -0.181176 -0.992119 0.137758 0.029851 0.170682
4111 -0.058811 0.218952 0.378854 -0.262297 -0.255255 -0.504505 -1.215319 0.217228 0.190261 0.042869
4867 -0.078103 0.135641 0.397027 -0.151815 -0.131350 -0.484557 -0.700072 0.159595 0.117862 0.130081
4873 -0.089795 0.201201 0.357523 -0.193378 -0.169643 -0.401792 -1.182222 0.238727 0.211691 0.060966
7750 -0.067850 0.230502 0.346732 -0.275203 -0.254034 -0.443154 -1.130874 0.158162 0.180333 0.047747
19 0.106760 0.375332 0.154498 -0.152215 -0.247897 -0.534406 -0.700119 0.113450 -0.030155 -0.078313
1660 -0.179413 0.122002 0.414316 -0.213214 -0.224679 -0.491790 -1.182408 0.120003 0.269754 0.045671
4252 -0.030214 0.148966 0.344006 -0.145473 -0.184556 -0.435854 -1.134954 0.137510 0.143021 0.016042
1017 -0.130022 0.123306 0.388536 -0.245068 -0.215813 -0.510626 -1.228315 0.123239 0.350633 0.056133
8260 -0.028075 0.023464 0.384824 -0.165360 -0.070321 -0.438947 -1.055683 0.192941 0.216048 0.134211
2808 -0.059885 0.141237 0.332260 -0.174073 -0.133752 -0.507987 -1.089896 0.198027 0.193327 0.049755
853 -0.176629 0.255914 0.327487 -0.199473 -0.112547 -0.305167 -0.919217 0.104414 0.051557 0.112057
858 -0.077094 0.212196 0.405064 -0.228670 -0.145126 -0.441859 -1.042348 0.182812 0.124239 0.031869
3986 0.017810 0.200921 0.373097 -0.215651 -0.181009 -0.560138 -1.191243 0.250700 0.191299 -0.020231
4118 -0.027993 0.321722 0.222317 -0.107207 -0.229714 -0.310673 -0.720617 0.171591 0.034010 0.057909
1178 -0.109974 0.134931 0.204523 -0.071507 -0.113433 -0.264080 -1.023625 0.124671 0.060570 0.071134
1296 -0.197347 0.085099 0.105981 -0.080784 0.037012 -0.440738 -0.864124 0.131289 -0.055373 -0.023064
1301 -0.000822 0.116353 0.049039 -0.126627 -0.082534 -0.419038 -0.799258 0.090258 0.046633 -0.001398
1645 -0.090850 0.036675 0.289655 -0.100726 -0.032290 -0.424091 -1.083850 0.123185 0.080261 0.081224
12905 -0.070105 0.186783 0.393987 -0.195487 -0.262090 -0.510992 -1.156775 0.230044 0.234689 0.003449
9045 -0.049828 0.177762 0.361268 -0.207109 -0.291979 -0.475995 -1.158435 0.223309 0.242051 -0.022205
12483 -0.063170 0.045052 0.422715 -0.226665 -0.168156 -0.497817 -1.206534 0.252546 0.285953 0.046128
18677 -0.135460 0.179954 0.394024 -0.217273 -0.180856 -0.426120 -1.116155 0.204541 0.235843 0.022029
12533 -0.174530 0.208088 0.364432 -0.137720 -0.089689 -0.389867 -1.133320 0.157370 0.199073 0.129643
2286 -0.179564 -0.023712 0.145634 -0.062036 0.176892 -0.263118 -0.878502 0.233913 -0.031298 0.182723
2691 -0.194406 0.024445 0.116331 -0.066563 0.208168 -0.181671 -0.712992 0.177804 -0.074008 0.282352
18676 -0.173409 0.293799 0.433438 -0.225760 -0.188804 -0.432208 -1.210016 0.227288 0.219605 0.029252
3497 -0.301712 0.049814 0.279853 -0.136727 0.053595 -0.222950 -0.901049 0.208924 -0.115532 0.112470
3711 -0.010439 0.173983 0.307020 -0.132627 -0.252124 -0.397831 -1.070338 0.301876 0.095833 0.025302
4657 0.046780 0.253077 0.372906 -0.199339 -0.148224 -0.514054 -1.095285 0.318780 0.117205 0.064412
4865 -0.079036 0.187289 0.373847 -0.053786 -0.217518 -0.467187 -0.685367 0.091442 0.018588 0.148606
40470 -0.024702 0.273963 0.419477 -0.190263 -0.226104 -0.516070 -1.144421 0.152411 0.261688 0.070404
442 -0.083823 0.217265 0.301891 -0.204488 -0.256382 -0.420296 -1.201182 0.108221 0.242215 0.019427
67 -0.087291 0.085042 0.360747 -0.196679 -0.173455 -0.460266 -0.954647 0.166561 0.201250 0.033552
1184 -0.168684 0.234800 0.304234 -0.147942 -0.152945 -0.326261 -0.857414 0.103324 0.089734 0.107106
4113 -0.123047 0.208056 0.459725 -0.233101 -0.204991 -0.491631 -1.203816 0.212923 0.208756 0.061733
1193 -0.029811 0.272731 0.345943 -0.190908 -0.203711 -0.333905 -1.007377 0.231565 0.134198 0.038356
469 -0.044095 0.127680 0.277458 -0.180140 -0.160612 -0.395722 -0.913351 0.186311 0.113322 0.038255
3708 -0.047160 0.212050 0.277375 -0.166166 -0.193519 -0.454017 -1.095858 0.117098 0.249979 0.092900
4097 -0.016528 0.172295 0.348342 -0.161953 -0.149958 -0.497425 -1.314923 0.153968 0.249956 0.067168
6479 -0.105311 0.159494 0.326261 -0.218111 -0.183197 -0.471770 -1.152909 0.160555 0.315398 0.035589
1315 -0.179234 0.050350 0.205459 -0.142311 0.008181 -0.350122 -0.835422 0.104131 -0.206007 0.061861
1328 -0.163496 0.178020 0.119843 -0.066105 -0.063878 -0.359981 -0.916370 0.017019 -0.011062 0.050714
4322 -0.170862 0.097094 0.348592 -0.138729 0.015274 -0.308868 -0.789255 0.229010 -0.132321 0.078473
4329 -0.034054 0.038220 0.372647 -0.123699 -0.062480 -0.411044 -0.803930 0.238242 -0.008167 0.127831
1619 0.043113 0.217468 0.030985 -0.085735 -0.115779 -0.192810 -0.791533 0.022564 -0.194872 0.215619
2064 -0.078970 0.057867 0.195296 0.010038 0.018694 -0.288998 -0.952951 0.123173 0.083114 0.167693
1723 -0.060223 0.138247 0.377405 -0.181002 -0.234265 -0.415946 -1.143593 0.117934 0.179316 0.066758
368 -0.102208 0.173714 0.439501 -0.224471 -0.124797 -0.499105 -1.145945 0.216193 0.257042 0.024655
2061 -0.131357 0.198676 0.152088 -0.074986 -0.096945 -0.276880 -0.811346 0.079554 0.128189 0.101042
1869 -0.123350 0.112760 0.256186 -0.063755 0.056354 -0.266160 -0.895461 0.223984 0.030150 0.177438
1934 -0.091512 -0.088286 0.286363 -0.185510 -0.189225 -0.408250 -0.864915 0.048110 0.213627 0.105846
2065 -0.186256 0.100107 0.164245 -0.024032 0.053137 -0.211024 -0.818893 0.080142 -0.030725 0.225308
2073 -0.087088 0.087630 0.319925 -0.141436 -0.189596 -0.414933 -1.166551 0.152792 0.244606 0.106592
12478 -0.138740 0.073504 0.361131 -0.102919 -0.152510 -0.461458 -1.115753 0.131295 0.111341 0.015121
2320 0.013603 0.262654 0.334644 -0.039533 -0.109475 -0.313641 -1.101842 0.218389 0.132956 0.028192
472 -0.126539 0.159112 0.363689 -0.185586 -0.125890 -0.444340 -1.162158 0.230454 0.250477 0.026967
2686 -0.029778 0.134218 0.408831 -0.225034 -0.257475 -0.453807 -1.266506 0.194490 0.208036 0.064051
2723 -0.365278 -0.049111 0.131108 -0.045660 0.136238 -0.263799 -0.874235 0.070258 -0.029667 0.219376
2815 -0.029715 0.069486 0.355450 -0.161365 -0.119180 -0.458939 -1.183340 0.240793 0.213609 0.023835
3024 -0.124930 0.069874 0.294025 -0.115403 -0.104394 -0.316183 -1.017598 0.098528 0.145659 0.146281
3043 -0.028623 0.151729 0.408362 -0.182900 -0.130130 -0.543564 -1.163617 0.166371 0.187775 0.074379
3048 -0.059859 0.133429 0.364404 -0.199208 -0.028677 -0.422817 -1.120184 0.371934 0.165498 0.117125
3164 -0.182798 0.036265 0.379726 -0.184993 -0.178641 -0.432405 -1.211079 0.175019 0.152853 0.046531
3488 -0.195256 0.061310 0.347513 -0.081758 0.157940 -0.241507 -0.888031 0.234121 0.008491 0.255278
3501 -0.077375 0.017005 0.202106 -0.112718 -0.030017 -0.261897 -0.974358 0.277063 0.019103 0.083900
3505 -0.014491 0.101011 0.361990 -0.129958 -0.153478 -0.477201 -1.082091 0.149599 0.169823 0.050414
3557 -0.173895 0.154919 0.096974 -0.026960 -0.017565 -0.270357 -0.800259 0.171662 0.148893 0.109669
3590 -0.114769 0.349603 0.188386 -0.094121 -0.194981 -0.284841 -0.867547 0.204642 0.062205 -0.006156
33602 -0.045303 0.206864 0.383698 -0.192166 -0.212576 -0.452422 -1.083991 0.297775 0.189362 0.057078
918 -0.076825 0.101709 0.357443 -0.119399 -0.274827 -0.464357 -1.189321 0.151603 0.300258 -0.011350
12431 -0.060164 0.141697 0.369013 -0.069642 -0.097336 -0.403276 -1.052363 0.220446 0.032193 0.147708
20860 -0.156325 0.334473 0.367484 -0.125816 -0.220720 -0.464603 -0.995583 -0.027483 0.160140 0.171020
4285 -0.017041 0.204346 0.300638 -0.143043 -0.128322 -0.498470 -0.933510 0.143411 0.328941 0.093380
2912 -0.074804 0.136069 0.433793 -0.178107 -0.147654 -0.466930 -1.189328 0.229027 0.229673 0.069729
115 -0.065891 0.147713 0.343418 -0.184415 -0.191662 -0.449725 -1.098474 0.173458 0.180896 0.067760
85 -0.029969 0.208597 0.427590 -0.177488 -0.308338 -0.478690 -1.136276 0.113892 0.203286 0.005721
228 -0.078605 0.086292 0.340075 -0.110847 -0.115025 -0.335677 -0.942233 0.166100 0.111826 0.085343
3011 -0.107246 0.177227 0.294723 -0.189598 -0.104783 -0.345580 -1.055641 0.164988 0.162094 0.087996
3487 -0.112217 0.142578 0.305715 -0.146689 0.042740 -0.280935 -0.985273 0.220451 0.046981 0.203904
690 -0.023663 0.171690 0.290850 -0.171508 -0.152076 -0.461607 -1.061632 0.166539 0.258624 0.063983
800 -0.199729 0.412487 0.314846 -0.140072 -0.041263 -0.186055 -0.650293 0.240351 -0.106594 0.128638
4123 -0.073058 0.299798 0.243066 -0.100735 -0.139076 -0.294996 -0.750114 0.152346 0.012239 0.077392
1169 -0.046285 0.114112 0.200642 -0.067612 0.006835 -0.302975 -1.029930 0.141877 0.097463 0.166022
1630 -0.073969 0.118966 0.362705 -0.241668 -0.195069 -0.524392 -1.169680 0.231659 0.238976 -0.062360
1618 -0.105941 0.078669 0.055214 -0.057794 0.115206 -0.240806 -0.677441 0.234325 -0.007288 0.168895
1622 -0.099018 0.053670 0.105880 -0.029358 0.024525 -0.213065 -0.793675 0.130344 -0.043677 0.181485
1633 -0.115998 0.047054 0.070533 -0.058253 -0.120418 -0.185794 -0.904127 0.148362 -0.005970 0.059382
1719 -0.009132 0.067741 0.345896 -0.153556 -0.171541 -0.418637 -1.148249 0.174026 0.183874 0.094972
364 -0.063912 0.201621 0.341508 -0.182637 -0.250802 -0.438193 -1.181039 0.149904 0.250305 0.056224
1733 -0.295518 0.114683 0.123101 -0.002472 0.140207 -0.176222 -0.765131 0.053652 -0.050721 0.295513
1749 -0.232474 -0.071214 0.118722 -0.095514 0.052887 -0.291568 -0.861686 0.099498 0.011962 0.161152
1759 -0.341388 0.106131 0.095445 -0.028090 0.196914 -0.206708 -0.730263 0.085610 0.034490 0.306148
1936 -0.093644 0.098795 0.147316 -0.058333 0.103250 -0.159796 -0.897797 0.245317 -0.141415 0.114236
1870 -0.211201 -0.040494 0.230812 -0.108586 0.116701 -0.327588 -0.830441 0.103045 0.092400 0.222118
1959 -0.169616 -0.049175 0.166529 -0.047378 0.061487 -0.159999 -1.021605 0.211772 -0.082439 0.151628
1963 -0.221995 -0.024923 0.119564 0.021778 0.049115 -0.170309 -0.996503 0.104297 -0.010956 0.190551
2024 -0.084368 0.131017 0.261567 -0.124666 -0.137869 -0.314632 -1.143239 0.002173 0.081876 0.168399
2159 -0.202088 -0.019305 0.438968 -0.154266 -0.102889 -0.429811 -1.173752 0.164495 0.120863 0.107768
18660 -0.053701 0.020630 0.389265 -0.139362 -0.103522 -0.438381 -1.135429 -0.010566 0.068958 0.163196
604 -0.074269 0.254638 0.317554 -0.250691 -0.229492 -0.483536 -1.101822 0.183260 0.229170 0.003478
1815 -0.089830 0.114664 0.374620 -0.196198 -0.220838 -0.455363 -1.148417 0.212586 0.190435 0.010249
2398 -0.156461 0.111471 0.168418 -0.068411 0.199252 -0.245576 -0.853335 0.297664 0.010193 0.156238
2471 -0.127278 0.089345 0.082040 -0.100824 0.008799 -0.192993 -0.846999 0.143809 -0.063568 0.150561
2693 -0.164013 -0.025220 0.285653 -0.064714 -0.013292 -0.342534 -0.882438 0.025424 0.092310 0.226996
2687 -0.102729 0.073744 0.414108 -0.188956 -0.203081 -0.524077 -1.154640 0.105802 0.174289 0.085720
18664 -0.003678 0.136835 0.343884 -0.205239 -0.115472 -0.451922 -1.101111 0.242142 0.165294 0.082666
3054 -0.068891 0.120141 0.234513 -0.156293 -0.115917 -0.334666 -0.880974 0.196190 0.147726 0.078475
3149 -0.217517 -0.019843 0.358589 -0.088121 0.131177 -0.322282 -1.030644 0.200677 0.042439 0.208559
3159 -0.114822 0.124338 0.275455 -0.126947 -0.127326 -0.350918 -1.106083 0.173735 0.142976 0.073979
3485 -0.266019 0.080689 0.200695 -0.080164 0.219060 -0.201973 -0.984295 0.230950 -0.002115 0.260218
3550 -0.031541 0.270776 0.235498 -0.087685 0.004444 -0.484480 -0.897838 0.225736 0.265346 0.138871
3552 0.061673 0.260017 0.224435 -0.013698 -0.008217 -0.411751 -0.877372 0.242083 0.142720 0.148177
3700 -0.119162 0.156050 0.286895 -0.121302 -0.108795 -0.409069 -0.874362 0.094620 0.215148 0.153676
3925 0.084179 0.174272 0.260157 -0.064982 -0.160386 -0.409232 -0.927421 0.258618 0.044526 0.071982
36720 -0.053882 0.186473 0.361533 -0.238172 -0.287253 -0.507753 -1.039100 0.184014 0.304793 0.022584
4103 -0.117262 0.226104 0.310231 -0.056778 -0.104293 -0.356007 -0.816708 0.163049 0.091575 0.093829
4231 -0.166939 0.238748 0.310350 -0.093051 -0.211562 -0.394012 -0.823122 0.029903 0.232929 0.110185
4250 -0.201774 0.304580 0.330821 -0.163256 -0.194367 -0.421932 -1.098536 0.031193 0.114008 0.067430
4937 -0.050299 0.249386 0.382458 -0.161259 -0.175432 -0.501854 -0.891357 0.202829 0.232808 0.092517
12904 -0.048870 0.197886 0.356920 -0.214272 -0.233451 -0.444410 -1.147019 0.252606 0.160996 0.014980
4855 -0.110948 0.163206 0.361484 -0.114876 -0.330328 -0.450513 -0.902596 0.034296 0.147254 0.100880
5472 0.031934 0.180428 0.314962 -0.127653 -0.100951 -0.500943 -1.042430 0.146620 0.128147 0.014227
5477 0.048813 0.144242 0.368629 -0.196081 -0.220714 -0.445253 -1.196087 0.223933 0.153237 0.050458
15394 -0.134596 0.148978 0.339398 -0.209469 -0.287335 -0.375135 -1.092693 0.181944 0.060470 0.039612
2996 -0.194146 0.092381 0.300688 -0.192386 -0.140317 -0.338275 -0.932481 0.168349 0.185112 0.017649
1655 -0.067117 0.074118 0.295973 -0.187552 -0.141232 -0.471024 -1.215735 0.194902 0.244955 0.021356
13 0.063552 0.383811 0.316267 -0.137371 -0.220640 -0.519686 -0.862301 0.158616 0.084787 -0.039439
6557 -0.007341 0.210113 0.353700 -0.193866 -0.218534 -0.481585 -1.048539 0.163849 0.218195 0.068393
75 -0.084161 0.099335 0.305906 -0.115564 -0.117786 -0.315259 -0.923350 0.153291 0.099790 0.048402
1140 -0.004780 0.217590 0.273256 -0.139364 -0.233865 -0.369011 -0.818159 0.122603 0.072050 0.031179
229 0.089383 0.255252 0.342076 -0.198892 -0.192804 -0.290441 -0.902791 0.267625 0.023781 0.026162
1154 -0.068172 0.134998 0.420896 -0.243023 -0.187537 -0.513528 -1.129112 0.209887 0.173339 0.019942
8428 -0.138400 0.186341 0.166682 -0.045206 -0.118747 -0.340016 -1.083392 -0.011454 0.179252 0.182661
20581 -0.040515 0.247201 0.416386 -0.197660 -0.272552 -0.445764 -1.155008 0.178010 0.133627 0.048042
1196 -0.074587 0.265590 0.342683 -0.139439 -0.107910 -0.320856 -0.913491 0.221452 0.112718 0.094832
3015 -0.010403 0.202586 0.230509 -0.077585 -0.129468 -0.374440 -0.926697 0.120911 0.190567 0.083781
3627 0.019923 0.274412 0.310232 -0.144673 -0.133801 -0.474281 -1.044778 0.176414 0.131188 0.118806
2348 -0.192340 -0.016005 0.282171 -0.143331 0.042213 -0.326852 -0.815135 0.092530 0.023579 0.189004
4209 -0.132685 0.196535 0.391392 -0.147624 -0.126364 -0.342606 -0.901210 0.126222 0.100962 0.078440
4223 -0.091627 0.165312 0.337932 -0.142949 -0.136070 -0.383070 -0.798934 0.206377 0.120071 0.097977
2997 -0.105048 0.099748 0.246183 -0.066729 -0.051699 -0.270733 -0.931237 0.118408 0.022711 0.162020
17932 -0.258150 0.254573 0.354464 -0.104540 -0.013018 -0.278191 -1.151974 0.168712 0.129556 0.156727
6477 -0.097155 0.185529 0.408500 -0.212758 -0.182987 -0.489375 -1.123086 0.162952 0.233451 0.013301
1316 0.005225 -0.067111 0.055169 -0.097312 -0.033712 -0.369525 -0.870794 0.115625 -0.032106 0.059286
1320 -0.031965 0.110631 0.130332 -0.101708 -0.031251 -0.441289 -0.821821 0.099017 0.018643 0.009364
1405 0.004713 0.132785 0.152165 -0.076102 0.015529 -0.256321 -0.612617 0.054684 -0.023559 0.267753
1626 -0.100666 0.087183 0.218585 -0.082079 -0.047999 -0.298661 -0.759311 0.120216 0.067538 0.150905
1668 -0.095244 0.087913 0.312999 -0.146292 -0.197376 -0.412172 -1.207383 0.135541 0.239488 0.042300
1712 -0.207842 0.023346 0.295095 -0.163817 -0.047236 -0.401035 -1.010745 0.046912 0.164747 0.186190
1722 -0.003339 0.197428 0.288076 -0.135617 -0.236346 -0.419073 -1.153486 0.124712 0.168274 0.026658
367 -0.072852 0.129356 0.338714 -0.131085 -0.129729 -0.447296 -1.116272 0.167945 0.237259 0.053470
1725 -0.037472 0.085051 0.310849 -0.115212 -0.184384 -0.456891 -1.072024 0.127001 0.159210 0.055412
370 -0.035380 0.139561 0.405495 -0.159894 -0.089419 -0.476321 -1.104910 0.256092 0.244727 0.065484
1728 -0.023539 0.101400 0.383787 -0.164235 -0.267893 -0.445917 -1.160018 0.125522 0.252887 0.087308
2764 -0.045555 0.060448 0.271598 -0.131541 -0.199218 -0.467220 -1.172411 0.121940 0.167122 0.032584
1900 -0.161124 0.073964 0.327206 -0.088640 -0.061772 -0.349883 -0.893546 -0.032668 0.122854 0.241267
1952 -0.059501 0.208953 0.399027 -0.169124 -0.024811 -0.433216 -1.143449 0.108507 0.154536 0.135989
1961 -0.233340 -0.022358 0.161178 -0.041412 -0.033422 -0.216170 -0.992448 0.091220 -0.066558 0.123204
12482 -0.119174 0.001222 0.358354 -0.141521 -0.075321 -0.502589 -1.046887 0.179185 0.133567 0.083394
12479 -0.166632 0.064084 0.401417 -0.209685 -0.125885 -0.463207 -1.143380 0.172677 0.172515 0.074949
2357 -0.089696 -0.032036 0.272316 -0.071470 0.048965 -0.369217 -0.860802 0.034673 0.102789 0.266675
17974 -0.179753 0.127829 0.347118 -0.180209 -0.187028 -0.486098 -1.133177 0.156815 0.221983 0.030101
2589 -0.020566 0.107605 0.327616 -0.137617 -0.149766 -0.414626 -1.024315 0.184116 0.162155 0.085323
2746 -0.124170 -0.014738 0.191459 -0.010502 0.046723 -0.298450 -0.859381 0.028987 0.035598 0.258647
2728 -0.226622 -0.031973 0.222427 -0.112946 0.145538 -0.257556 -0.797330 0.124881 -0.025470 0.275159
2731 -0.108421 -0.056787 0.146421 -0.069724 0.150581 -0.270252 -0.788546 0.152278 -0.067568 0.215205
2864 -0.091254 0.284299 0.290417 -0.178175 -0.197400 -0.358735 -1.102129 0.169055 0.159229 0.040961
19458 -0.113314 0.199553 0.296344 -0.163442 -0.237829 -0.428259 -1.089613 0.149716 0.177121 0.038398
34654 -0.100629 0.248879 0.306871 -0.202760 -0.227114 -0.475072 -1.096025 0.068507 0.297768 0.073752
4049 -0.113727 0.122545 0.274669 -0.165669 -0.082118 -0.399722 -1.043377 0.173424 0.181434 0.098698
3189 -0.143774 0.122409 0.331198 -0.211166 -0.179871 -0.438875 -1.110097 0.197378 0.194554 0.019627
3227 0.044196 0.061717 0.333165 -0.113743 -0.155486 -0.512555 -1.196194 0.166154 0.227420 0.069912
3701 -0.078328 0.296003 0.285154 -0.096783 -0.141682 -0.351467 -0.858773 0.228959 0.097263 0.029955
3693 -0.152265 0.231401 0.256675 -0.117312 -0.216621 -0.339203 -0.829322 0.135220 0.088998 0.080117
3707 -0.058915 0.197971 0.259251 -0.027175 -0.067314 -0.432520 -0.934136 0.144475 0.166133 0.132362
33604 -0.089451 0.272560 0.328799 -0.144542 -0.221103 -0.478365 -0.960699 0.197380 0.072328 0.043419
3921 -0.056098 0.243725 0.279008 -0.071913 -0.204571 -0.384018 -0.781378 0.108626 0.080552 0.103760
3935 -0.071288 0.185282 0.338893 -0.078183 -0.203866 -0.400107 -0.902031 0.096235 0.151842 0.095530
4100 -0.042268 0.157293 0.373357 -0.185445 -0.242340 -0.483910 -1.127788 0.143801 0.244105 0.002982
36258 -0.059063 0.205965 0.351505 -0.235135 -0.263441 -0.475174 -1.146158 0.203177 0.187151 0.068658
4325 -0.094425 0.283365 0.306373 -0.048608 -0.156677 -0.277184 -0.924383 0.191431 0.014137 0.130874
4334 -0.235482 0.255230 0.182321 -0.164938 0.001565 -0.341502 -0.834619 0.181359 0.184633 0.069048
4633 -0.148574 0.234962 0.326965 -0.139382 -0.096308 -0.452513 -0.998623 0.150963 0.179329 0.091850
4660 -0.047253 0.230798 0.413071 -0.144516 -0.197259 -0.454394 -0.852175 0.076031 0.138373 0.134598
12902 -0.074769 0.239030 0.364688 -0.221370 -0.170561 -0.525090 -1.148387 0.209294 0.237232 0.061763
4849 0.066992 0.059409 0.303754 -0.124536 -0.183742 -0.489570 -0.761510 0.216966 0.084424 0.141402
4852 -0.102922 0.181325 0.375553 -0.105308 -0.002238 -0.477727 -0.729682 0.162254 0.210488 0.235066
1404 0.007376 -0.000604 0.218156 -0.137215 -0.070198 -0.390714 -0.760804 0.167319 -0.001655 0.138203
7178 -0.060969 0.075574 0.430999 -0.183590 -0.212311 -0.494805 -1.111628 0.186758 0.177922 0.012178
4362 -0.078781 0.092016 0.394624 -0.172227 -0.285790 -0.451397 -1.106754 0.107861 0.197060 0.026560
40601 0.023338 0.255279 0.296548 -0.138432 -0.145568 -0.434672 -1.059936 0.236554 0.210741 0.028203
2017 -0.070100 0.158716 0.411278 -0.176393 -0.214101 -0.421047 -1.195115 0.134894 0.225204 0.067169
12485 -0.138928 0.140773 0.404837 -0.175607 -0.136229 -0.426072 -1.127023 0.220784 0.194869 0.071360
1373 -0.068125 0.091631 0.287505 -0.156355 -0.149573 -0.418516 -1.101754 0.221689 0.151466 0.039761
69 0.009903 0.261531 0.325909 -0.135801 -0.310753 -0.384919 -1.083232 0.083260 0.172021 0.058416
116 -0.080445 0.207708 0.236143 -0.087060 -0.117285 -0.347605 -0.966656 0.046011 0.204365 0.179752
80 -0.131889 0.102811 0.319817 -0.146301 -0.158451 -0.439521 -1.103097 0.093390 0.235479 0.100463
1584 -0.010804 0.169510 0.333057 -0.135988 -0.283158 -0.478321 -1.062310 0.081513 0.211592 0.037100
1588 -0.210409 0.142870 0.346072 -0.213265 -0.158720 -0.391694 -1.065068 0.172721 0.197155 0.031890
1590 -0.003848 0.224912 0.332647 -0.209757 -0.149312 -0.441710 -1.082229 0.289380 0.171044 -0.003319
1593 -0.064189 0.116426 0.301647 -0.202211 -0.217460 -0.465274 -1.119710 0.156544 0.260978 0.007848
1599 -0.009552 0.086675 0.319258 -0.116318 -0.225162 -0.443506 -1.102713 0.144213 0.140887 0.063556
8444 -0.105714 0.198761 0.386092 -0.226517 -0.202945 -0.488181 -1.157538 0.201831 0.217495 0.086776
8452 -0.033841 0.233676 0.277689 -0.133352 -0.134195 -0.378122 -1.032401 0.143745 0.215970 0.147981
6555 -0.045224 0.166668 0.387941 -0.139854 -0.241727 -0.509966 -1.138570 0.100804 0.259242 0.023606
1743 -0.176285 0.094998 0.146133 -0.049033 0.000280 -0.202172 -0.714511 0.043618 -0.007605 0.182895
381 -0.006328 0.180868 0.351505 -0.161097 -0.172244 -0.367339 -1.017445 0.238858 0.198853 0.026769
2016 -0.033342 0.174120 0.357663 -0.214599 -0.230559 -0.509063 -1.160961 0.142623 0.255017 0.075232
4192 -0.042680 0.111646 0.277713 -0.107383 -0.153259 -0.403666 -0.982643 0.137127 0.156019 0.069623
4205 -0.219446 0.200924 0.304218 -0.160273 -0.136441 -0.316826 -0.916718 0.085501 0.112384 0.104176
3765 -0.031385 0.153688 0.393596 -0.172646 -0.198045 -0.502402 -1.099692 0.122054 0.290017 0.076135
3769 -0.088737 0.151071 0.369953 -0.208443 -0.223158 -0.461556 -1.214465 0.222114 0.262896 0.008651
2910 -0.074823 0.194649 0.278009 -0.179098 -0.128577 -0.519277 -1.125044 0.174232 0.245846 0.005895
2585 -0.141391 0.149111 0.262463 -0.182249 -0.146667 -0.400327 -1.025871 0.175749 0.186091 0.033056
780 -0.083850 0.257777 0.240998 -0.171137 -0.207293 -0.353564 -0.846227 0.125533 0.136404 0.024306
854 -0.315781 0.240576 0.362978 -0.238993 -0.180930 -0.336600 -0.862405 0.178447 0.082618 0.006612
930 -0.105752 0.241027 0.327013 -0.159811 -0.165184 -0.338209 -0.836587 0.186486 0.123097 0.050319
4109 0.016924 0.209376 0.338672 -0.204020 -0.232766 -0.491860 -1.069073 0.168054 0.182229 0.052856
4107 -0.071169 0.128850 0.372442 -0.264361 -0.247804 -0.514676 -1.206468 0.144661 0.257993 0.054778
1138 -0.138282 0.287789 0.342755 -0.188678 -0.191850 -0.374461 -0.799683 0.149549 0.065042 0.094969
1158 -0.101385 0.175491 0.368614 -0.178782 -0.238479 -0.461594 -1.125339 0.122694 0.214520 0.025482
1195 -0.148588 0.258783 0.310789 -0.183581 -0.164867 -0.347918 -0.989727 0.188624 0.211602 0.058480
1314 -0.118843 0.165343 0.207791 -0.215450 -0.076764 -0.367587 -0.830100 0.131521 -0.135789 -0.020433
1331 -0.093332 0.150823 0.117383 -0.138284 -0.029212 -0.414859 -0.751522 0.068383 -0.118951 0.068038
16412 -0.175211 0.126622 0.302236 -0.143012 -0.089564 -0.388052 -1.100067 0.176079 0.125499 0.088906
4326 -0.027714 0.176836 0.241478 -0.222636 -0.035898 -0.432537 -0.716414 0.206494 -0.040751 0.011622
2531 -0.120558 0.244792 0.349112 -0.195276 -0.247960 -0.428354 -1.042868 0.209684 0.225719 -0.009800
1569 -0.053477 0.142231 0.401004 -0.194195 -0.137960 -0.475880 -0.848938 0.175695 0.154583 0.114716
2879 -0.053034 0.217991 0.304827 -0.171754 -0.196907 -0.489999 -1.076221 0.222539 0.284210 -0.014504
2511 -0.075096 0.055136 0.263487 -0.117647 -0.086100 -0.410040 -1.082419 0.180980 0.200143 0.138206
1621 -0.014887 0.230066 0.344075 -0.170150 -0.230249 -0.429736 -1.135336 0.220689 0.253913 -0.001247
1632 -0.033436 0.012990 0.142625 -0.087227 0.168614 -0.276656 -0.713166 0.229609 -0.101355 0.269093
1657 -0.041791 0.041155 0.342259 -0.173593 -0.191330 -0.435099 -1.164428 0.211730 0.204613 0.011722
1659 -0.094258 0.171756 0.356552 -0.153406 -0.178118 -0.467887 -1.199018 0.173179 0.243725 0.046074
1720 -0.087663 0.211663 0.396628 -0.125724 -0.313299 -0.409976 -1.157193 0.159629 0.178631 0.000925
365 -0.002557 0.135467 0.242194 -0.218011 -0.237691 -0.521352 -1.050143 0.105697 0.310108 0.060253
1756 -0.060252 0.005695 0.331272 -0.165497 -0.216895 -0.468793 -1.194967 0.251737 0.214033 -0.000624
1962 -0.111429 0.035544 0.199441 -0.057826 0.118171 -0.280094 -0.954590 0.136691 0.102592 0.244485
1966 -0.142290 -0.012698 0.092466 -0.065466 -0.047208 -0.284338 -0.985904 0.023147 0.131017 0.179631
1974 -0.057757 -0.072382 0.232428 -0.016555 0.147571 -0.302497 -0.843256 0.152434 -0.032223 0.265786
2004 -0.150760 0.202707 0.145262 -0.042873 0.123791 -0.185131 -0.862872 0.136587 -0.085823 0.268744
4230 -0.107182 0.278374 0.290585 -0.151216 -0.152519 -0.342587 -0.932102 0.291583 0.195159 0.014370
3596 -0.010092 0.205107 0.404384 -0.149779 -0.174891 -0.399101 -1.140774 0.222912 0.148777 0.018288
2059 -0.179683 0.223799 0.270710 -0.107635 -0.038269 -0.342461 -0.801219 0.041984 0.052058 0.186435
2153 -0.103767 0.105170 0.281591 -0.038135 -0.056649 -0.299898 -1.037775 0.137890 0.134947 0.238328
2195 -0.091931 0.120691 0.418251 -0.124455 -0.084767 -0.486797 -1.085348 0.174834 0.203013 0.079733
2196 -0.087134 0.191553 0.317684 -0.139686 -0.197586 -0.406737 -0.904847 0.128432 0.150181 0.064289
2698 -0.144452 0.135071 0.380898 -0.161894 -0.199151 -0.464772 -1.276476 0.197581 0.242936 0.024495
18681 -0.085504 0.250790 0.401868 -0.224128 -0.131110 -0.499296 -1.155161 0.178282 0.246009 0.074588
2302 0.007207 0.218981 0.348559 -0.144178 -0.182599 -0.519782 -1.077011 0.163253 0.202472 0.068165
605 -0.057035 0.173006 0.305803 -0.123260 -0.134303 -0.480670 -1.062412 0.159091 0.240195 0.069075
2303 -0.097503 0.123525 0.329127 -0.198049 -0.139933 -0.475249 -1.109069 0.187447 0.200854 0.090962
606 -0.105765 0.224409 0.311445 -0.228101 -0.253399 -0.469939 -1.130926 0.148992 0.211442 0.022730
2304 -0.036472 0.143853 0.295551 -0.132906 -0.175169 -0.379259 -1.098038 0.139740 0.135013 0.146339
607 -0.129986 0.120971 0.382884 -0.199678 -0.268990 -0.509633 -1.138074 0.157123 0.233324 0.016477
2305 -0.062534 0.071343 0.308283 -0.133790 -0.197433 -0.427359 -1.202802 0.138646 0.239465 0.120543
608 -0.007593 0.133910 0.348537 -0.186987 -0.268174 -0.476457 -1.028134 0.143468 0.172297 0.039230
2306 -0.012515 0.123551 0.327727 -0.214602 -0.197262 -0.432161 -1.052309 0.147404 0.216972 0.119337
609 -0.172770 0.093822 0.281875 -0.150419 -0.250491 -0.403051 -1.100665 0.158146 0.176768 0.005747
2307 -0.080908 0.166278 0.409820 -0.178923 -0.231368 -0.463303 -1.107481 0.050708 0.192120 0.105845
610 -0.068653 0.245525 0.284422 -0.171788 -0.205213 -0.420932 -1.092638 0.194092 0.203201 0.025967
2308 -0.078324 0.177250 0.298276 -0.078158 -0.175850 -0.362583 -1.011360 0.052957 0.170106 0.099688
2309 -0.034719 0.120823 0.334981 -0.138791 -0.155080 -0.469872 -1.119905 0.145958 0.178617 0.042410
612 -0.069498 0.174024 0.353951 -0.173881 -0.154556 -0.511464 -1.116058 0.198724 0.219883 0.033081
2310 0.009421 0.160302 0.418780 -0.204415 -0.201481 -0.486398 -1.113607 0.221496 0.227530 0.116667
613 -0.132447 0.200710 0.357369 -0.194629 -0.206623 -0.451495 -1.121995 0.190502 0.151725 -0.012155
2311 -0.042636 0.178615 0.323442 -0.226081 -0.221679 -0.418372 -1.044599 0.140296 0.175416 0.034311
614 -0.053643 0.146508 0.365889 -0.180664 -0.244203 -0.471071 -1.061248 0.116859 0.232730 0.080186
2312 -0.126650 0.202492 0.313219 -0.195047 -0.115569 -0.378356 -1.056375 0.223675 0.162135 0.053920
615 -0.133303 0.193185 0.357184 -0.196676 -0.134619 -0.453902 -1.034969 0.217848 0.233408 0.095845
2313 -0.086959 0.178914 0.414210 -0.181554 -0.205782 -0.442768 -1.105328 0.282435 0.153378 0.044280
616 -0.044812 0.249297 0.364955 -0.202717 -0.215925 -0.512058 -1.058843 0.166144 0.183528 0.043795
2314 -0.146149 0.096288 0.341062 -0.115221 -0.118661 -0.417324 -1.128112 0.183192 0.274431 0.039320
617 -0.122748 0.155923 0.382992 -0.214717 -0.221512 -0.480936 -1.088453 0.159497 0.242183 0.042445
2315 -0.017356 0.220360 0.388583 -0.181583 -0.127168 -0.448577 -1.123198 0.263492 0.216436 0.047728
618 -0.010731 0.047499 0.390664 -0.163774 -0.138841 -0.499853 -1.104985 0.177137 0.165436 0.096666
2317 0.076703 0.161616 0.381507 -0.032422 -0.183552 -0.396967 -1.118567 0.162172 0.086001 0.150338
620 -0.007762 0.279198 0.286206 -0.168552 -0.175485 -0.440825 -1.036562 0.199943 0.208623 0.042235
2349 -0.069878 0.136542 0.143344 -0.085412 0.059763 -0.259099 -0.937128 0.139503 0.079383 0.194225
2366 -0.248892 -0.022889 0.212097 -0.060785 0.112281 -0.238546 -0.812327 0.223380 -0.119021 0.123025
4950 -0.018097 0.168073 0.433983 -0.115002 -0.153719 -0.460304 -1.118638 0.192756 0.233512 0.063989
2403 -0.112635 0.042444 0.355836 -0.152391 -0.036066 -0.388870 -0.975414 0.124014 0.112740 0.165713
37294 -0.054740 0.119536 0.385356 -0.153249 -0.236293 -0.481332 -1.108358 0.108565 0.171956 0.060891
4544 -0.085204 0.207752 0.317769 -0.201801 -0.183492 -0.483339 -1.200665 0.093593 0.302266 0.074353
2694 -0.142322 0.120549 0.388174 -0.163338 -0.187245 -0.471332 -1.111060 0.153155 0.196704 0.053851
2690 -0.104636 -0.049680 0.125312 -0.087623 0.031686 -0.235077 -0.967171 0.233945 -0.026882 0.123134
198 0.039501 0.067399 0.324399 -0.147560 -0.230732 -0.518819 -1.172113 0.116465 0.206050 0.006416
3033 -0.162689 0.045300 0.390942 -0.168579 0.046014 -0.350964 -0.903246 0.283162 -0.024425 0.107007
18275 -0.155993 0.187251 0.333103 -0.220935 -0.241733 -0.389160 -1.080808 0.123314 0.220593 0.090697
3168 -0.094635 0.056582 0.334706 -0.110626 -0.169212 -0.461335 -1.195933 0.213848 0.223342 0.023209
4136 -0.132997 0.226355 0.297123 -0.185091 -0.099602 -0.383305 -1.103416 0.241070 0.260625 0.061380
23159 -0.080238 0.158944 0.327160 -0.214681 -0.180306 -0.558019 -1.102621 0.185354 0.243469 -0.022782
3376 -0.086083 0.184781 0.314625 -0.166260 -0.095859 -0.467189 -1.004026 0.220003 0.217270 0.053596
3491 -0.137076 -0.045138 0.302006 -0.063386 0.073298 -0.304132 -0.876980 0.134899 -0.043164 0.253849
3498 -0.220014 -0.079041 0.246174 -0.130324 -0.006678 -0.306676 -0.916948 0.253041 0.036405 0.058370
3558 -0.015542 0.147458 0.354481 -0.109841 -0.247747 -0.478564 -1.173463 0.175267 0.242246 0.035361
3600 -0.002735 0.074448 0.180508 -0.056513 -0.119992 -0.360010 -0.816653 0.197349 0.156281 0.077482
3694 -0.186912 0.172417 0.208237 -0.090270 -0.200677 -0.340495 -0.945554 0.139978 0.101971 0.021282
3703 -0.085906 0.062488 0.303084 -0.166818 -0.164915 -0.481800 -0.787117 0.117611 0.201858 0.100089
4220 -0.078811 0.152449 0.324776 -0.093893 -0.207145 -0.419967 -0.986933 0.146697 0.283433 0.073918
33603 -0.020950 0.190296 0.401514 -0.174230 -0.179428 -0.528156 -1.013458 0.245653 0.172237 0.036916
4088 -0.102060 0.194888 0.404516 -0.190329 -0.263635 -0.472981 -1.156683 0.229177 0.195742 0.004883
35971 -0.057359 0.232263 0.363118 -0.156587 -0.161781 -0.469870 -1.136374 0.214579 0.168198 0.004076
4087 -0.009026 0.178387 0.357686 -0.172743 -0.215946 -0.493662 -1.219099 0.194920 0.258132 0.014218
4237 -0.095983 0.247412 0.379835 -0.175106 -0.141817 -0.458672 -1.000835 0.225621 0.179884 0.088667
4283 0.002336 0.201174 0.294501 -0.179893 -0.143655 -0.419213 -0.831735 0.250482 0.159155 0.084444
4327 -0.019389 0.249258 0.258499 -0.114280 -0.204804 -0.341222 -0.815563 0.154068 -0.006258 0.022890
41686 -0.101482 0.164065 0.304112 -0.171622 -0.235874 -0.450440 -1.088703 0.282136 0.243306 0.015542
20901 -0.020960 0.179561 0.392729 -0.143243 -0.265002 -0.418845 -1.092174 0.091443 0.178761 0.082988
4555 -0.078265 0.164761 0.312384 -0.154863 -0.271223 -0.457088 -1.204349 0.169060 0.234479 -0.063869
4561 -0.084139 0.170067 0.332582 -0.201893 -0.150675 -0.475615 -1.081808 0.177644 0.229904 0.006132
37375 -0.085125 0.119477 0.336562 -0.167232 -0.109557 -0.406069 -1.010191 0.278985 0.154344 0.088952
12898 -0.163667 0.197853 0.379062 -0.229156 -0.205334 -0.445035 -1.033783 0.183857 0.144659 0.061718
4749 -0.064330 0.153933 0.384211 -0.177943 -0.253294 -0.446487 -1.168976 0.152897 0.205990 0.068253
37600 -0.132387 0.243612 0.359753 -0.191960 -0.155554 -0.460475 -1.027180 0.267149 0.222772 0.083714
4851 -0.010732 0.224850 0.372076 -0.120722 -0.201839 -0.460768 -0.753102 0.100639 0.082634 0.120083
4857 -0.052582 0.115317 0.379535 -0.142812 -0.093672 -0.481528 -0.807896 0.218718 0.123628 0.134411
4864 -0.028068 0.208492 0.277646 -0.113861 -0.159897 -0.463867 -0.734625 0.141519 0.131713 0.183340
4941 0.008507 0.155659 0.368094 -0.143865 -0.114400 -0.506822 -0.877054 0.213397 0.209892 0.115247
4066 -0.114064 0.156345 0.323237 -0.208043 -0.239770 -0.506332 -1.106251 0.153449 0.214543 -0.018534
33621 -0.155591 0.205632 0.378834 -0.232509 -0.053856 -0.473579 -1.084945 0.257851 0.243626 0.141283
1911 -0.076328 0.242695 0.396257 -0.184753 -0.233962 -0.491220 -1.124317 0.119931 0.176547 -0.031441
13413 -0.064527 0.261950 0.389518 -0.188550 -0.170460 -0.407033 -1.125116 0.193759 0.217872 0.068477
1241 -0.050779 0.188059 0.313940 -0.220585 -0.169035 -0.464285 -1.019066 0.204291 0.152235 0.047920
18708 -0.081623 0.191612 0.385532 -0.224694 -0.192182 -0.396603 -1.113720 0.209995 0.150868 0.056590
38585 -0.156198 0.143772 0.405751 -0.180241 -0.250780 -0.411335 -1.132389 0.138273 0.136962 0.037199
14406 -0.002409 0.197119 0.352204 -0.122582 -0.264410 -0.376323 -1.195697 0.202115 0.166168 -0.024432
3518 -0.020179 0.187482 0.285215 -0.151968 -0.217355 -0.459114 -1.088076 0.145601 0.229598 0.057638
3534 -0.044353 0.116537 0.334002 -0.176993 -0.165372 -0.497094 -1.112161 0.230274 0.197779 -0.007336
15412 -0.105400 0.174188 0.359744 -0.196763 -0.169724 -0.413352 -1.204075 0.244817 0.271246 -0.032909
4359 -0.069626 0.050876 0.343537 -0.185937 -0.180945 -0.472066 -1.071381 0.088017 0.191164 0.095586
4360 -0.000937 0.194491 0.363442 -0.143867 -0.264409 -0.434517 -1.153196 0.153924 0.157361 0.051410
24174 -0.217560 0.141308 0.401394 -0.188859 -0.204460 -0.389839 -1.056399 0.180828 0.074487 0.039072
1324 -0.162334 0.113853 0.266308 -0.190397 -0.134464 -0.349856 -0.838111 0.163915 -0.049761 -0.048895
2022 -0.030380 0.128455 0.439565 -0.208646 -0.186825 -0.454580 -1.195751 0.135003 0.194368 0.115843
34 0.025465 0.260900 0.286575 -0.149535 -0.140996 -0.464712 -0.879827 0.192438 0.223119 0.027055
83 -0.107375 0.191208 0.340883 -0.183637 -0.141584 -0.464356 -1.102717 0.207620 0.153343 0.014892
110 -0.117020 0.163494 0.379667 -0.221105 -0.150834 -0.474428 -1.201456 0.191297 0.168479 0.048502
86 -0.133130 0.196708 0.378930 -0.205200 -0.226338 -0.468820 -1.141597 0.134313 0.225265 0.018504
1144 -0.047975 0.213639 0.293045 -0.185104 -0.196094 -0.354450 -0.953523 0.214510 0.186138 -0.020867
1135 -0.180725 0.050378 0.297562 -0.174132 -0.165052 -0.312973 -0.912235 0.129209 0.155703 0.082956
1157 -0.105086 0.164555 0.295673 -0.112171 -0.140508 -0.437267 -1.164905 0.119774 0.170431 0.045787
226 -0.160551 0.153784 0.264735 -0.169509 -0.175588 -0.330252 -0.943736 0.171059 0.070044 0.026485
1142 -0.150272 0.276038 0.293053 -0.147885 -0.099150 -0.307333 -0.895457 0.321383 0.126497 -0.010998
5216 -0.011548 0.257646 0.297050 -0.190359 -0.079836 -0.453370 -1.105395 0.203301 0.150141 0.171270
3010 -0.015383 0.185194 0.268543 -0.179428 -0.110379 -0.392482 -0.912305 0.211821 0.164987 0.080044
8455 -0.143472 0.047358 0.135580 -0.055042 0.021085 -0.226202 -1.179342 0.223836 0.020960 0.112116
277 -0.064659 0.153333 0.338074 -0.214753 -0.211080 -0.443945 -1.105297 0.154854 0.271467 0.016369
1746 -0.141925 0.080830 0.357973 -0.173889 -0.167614 -0.455170 -1.098399 0.153635 0.200664 0.050533
1735 -0.051648 0.157957 0.393361 -0.161774 -0.136139 -0.509598 -1.118809 0.172491 0.192266 0.076555
25144 -0.312209 0.220572 0.273078 -0.169137 -0.094140 -0.289295 -1.012180 0.214647 0.068479 0.024541
33396 -0.103715 0.216365 0.313829 -0.154791 -0.192199 -0.408076 -1.119440 0.119965 0.238750 0.037626
36081 -0.137821 0.175595 0.360734 -0.168660 -0.136002 -0.420273 -1.115381 0.177559 0.191489 0.056302
4208 -0.090722 0.076018 0.287275 -0.159732 -0.185110 -0.367962 -1.076416 0.155140 0.174253 0.060066
